svm_type c_svc
kernel_type rbf
gamma 0.00333333
nr_class 2
total_sv 208
rho -0.598699
label -1 1
nr_sv 136 72
SV
1 35:1 76:1 
0.3145258967636462 73:1 74:1 115:1 205:1 230:1 250:1 
1 55:1 250:1 292:1 
1 55:1 73:1 74:1 197:1 205:1 243:1 250:1 
0.5414229126786807 73:1 
0.5200207773543323 46:1 52:1 60:1 73:1 75:1 76:1 93:1 110:1 112:1 117:1 120:1 121:1 122:1 123:1 124:1 143:1 146:1 171:1 175:1 176:1 177:1 178:1 179:1 180:1 181:1 184:1 187:1 210:1 213:1 214:1 219:1 243:1 247:1 250:1 263:1 284:1 285:1 286:1 287:1 288:1 
0.4204632440488248 69:1 115:1 117:1 148:1 161:1 196:1 250:1 258:1 263:1 277:1 281:1 
1 35:1 39:1 41:1 57:1 68:1 73:1 75:1 91:1 105:1 109:1 112:1 173:1 190:1 222:1 223:1 225:1 233:1 251:1 260:1 274:1 275:1 
0.1577420905891095 57:1 63:1 156:1 228:1 
0.396012525162119 65:1 105:1 207:1 263:1 
0.7194564662692943 105:1 173:1 183:1 223:1 245:1 277:1 
1 35:1 54:1 55:1 65:1 76:1 105:1 148:1 161:1 168:1 173:1 183:1 223:1 245:1 250:1 263:1 277:1 279:1 281:1 295:1 
1 249:1 
1 45:1 55:1 65:1 68:1 76:1 77:1 80:1 88:1 103:1 107:1 117:1 144:1 149:1 154:1 155:1 158:1 171:1 194:1 196:1 206:1 208:1 217:1 230:1 232:1 248:1 258:1 263:1 272:1 281:1 292:1 295:1 
1 35:1 38:1 51:1 76:1 77:1 81:1 107:1 115:1 117:1 204:1 212:1 247:1 272:1 277:1 281:1 297:1 
0.03836291018829843 35:1 38:1 45:1 50:1 55:1 57:1 59:1 62:1 76:1 77:1 81:1 83:1 89:1 102:1 106:1 107:1 109:1 115:1 117:1 118:1 119:1 149:1 154:1 155:1 161:1 171:1 204:1 206:1 207:1 208:1 216:1 222:1 223:1 240:1 248:1 252:1 263:1 272:1 273:1 277:1 280:1 294:1 
0.1016930477209198 35:1 38:1 50:1 54:1 55:1 57:1 62:1 69:1 75:1 76:1 77:1 81:1 83:1 97:1 102:1 106:1 115:1 117:1 118:1 119:1 155:1 161:1 165:1 169:1 171:1 204:1 206:1 207:1 208:1 216:1 223:1 225:1 240:1 263:1 272:1 273:1 277:1 282:1 295:1 
0.2278454069830814 55:1 79:1 89:1 118:1 119:1 146:1 168:1 273:1 
0.04963442873755342 35:1 97:1 241:1 252:1 261:1 
0.6254621038675975 37:1 38:1 117:1 149:1 171:1 196:1 206:1 217:1 271:1 282:1 298:1 
0.7030082021656023 207:1 217:1 260:1 
1 205:1 281:1 
0.06368273577911826 35:1 54:1 55:1 68:1 75:1 76:1 78:1 81:1 108:1 117:1 149:1 157:1 169:1 183:1 207:1 223:1 238:1 249:1 250:1 273:1 293:1 295:1 
1 45:1 54:1 76:1 149:1 161:1 217:1 281:1 
1 36:1 
0.2206561060024039 35:1 44:1 68:1 76:1 108:1 115:1 117:1 149:1 195:1 218:1 241:1 272:1 273:1 295:1 
1 99:1 218:1 
0.1693486447127863 88:1 207:1 226:1 261:1 
1 55:1 76:1 78:1 87:1 207:1 231:1 239:1 252:1 269:1 283:1 298:1 
0.1767250266993603 35:1 71:1 98:1 104:1 185:1 206:1 207:1 222:1 227:1 281:1 295:1 297:1 298:1 
0.08882642563071717 44:1 45:1 53:1 54:1 55:1 57:1 59:1 66:1 69:1 71:1 75:1 76:1 102:1 106:1 109:1 115:1 117:1 144:1 146:1 148:1 149:1 154:1 161:1 164:1 168:1 171:1 193:1 194:1 195:1 196:1 206:1 207:1 208:1 216:1 217:1 218:1 223:1 226:1 227:1 231:1 232:1 235:1 237:1 239:1 247:1 248:1 252:1 260:1 261:1 263:1 265:1 269:1 277:1 281:1 282:1 295:1 298:1 299:1 
0.312684710498242 171:1 299:1 
0.8526643640735481 53:1 66:1 75:1 79:1 117:1 149:1 161:1 169:1 207:1 217:1 249:1 281:1 295:1 
0.02648645996931046 57:1 149:1 247:1 265:1 294:1 
0.4240249676160964 75:1 76:1 148:1 149:1 217:1 244:1 248:1 277:1 280:1 281:1 
1 98:1 108:1 169:1 277:1 
1 48:1 57:1 62:1 68:1 72:1 76:1 93:1 94:1 95:1 115:1 117:1 149:1 168:1 244:1 263:1 
1 35:1 57:1 161:1 216:1 218:1 255:1 
1 212:1 
0.01135657557679368 1:1 5:1 7:1 8:1 9:1 10:1 13:1 14:1 16:1 18:1 19:1 20:1 21:1 23:1 24:1 25:1 26:1 28:1 29:1 31:1 32:1 33:1 34:1 
0.01142298478160958 7:1 12:1 13:1 14:1 19:1 20:1 21:1 22:1 23:1 24:1 25:1 26:1 
0.02193329046217429 3:1 5:1 6:1 8:1 9:1 11:1 15:1 16:1 17:1 22:1 24:1 25:1 29:1 30:1 31:1 
0.00542184402858273 1:1 4:1 7:1 9:1 10:1 11:1 12:1 13:1 14:1 15:1 16:1 18:1 19:1 21:1 24:1 25:1 28:1 29:1 30:1 31:1 32:1 33:1 34:1 
0.01134295268173075 1:1 3:1 6:1 7:1 8:1 10:1 17:1 21:1 23:1 29:1 32:1 34:1 
0.02325434418246736 2:1 3:1 4:1 11:1 14:1 15:1 16:1 17:1 20:1 22:1 25:1 27:1 33:1 
0.009860754402803941 1:1 4:1 8:1 11:1 19:1 21:1 25:1 28:1 29:1 30:1 
0.007948613469657449 2:1 4:1 6:1 7:1 8:1 12:1 13:1 15:1 16:1 18:1 19:1 20:1 22:1 25:1 27:1 29:1 31:1 33:1 34:1 
0.02241424394925058 5:1 7:1 8:1 9:1 10:1 11:1 12:1 13:1 14:1 16:1 18:1 19:1 20:1 23:1 24:1 25:1 26:1 27:1 28:1 29:1 30:1 32:1 34:1 
0.006375393316497409 1:1 3:1 5:1 6:1 10:1 12:1 17:1 18:1 25:1 26:1 31:1 32:1 34:1 
0.01038171801932466 1:1 3:1 4:1 5:1 6:1 7:1 8:1 10:1 12:1 13:1 14:1 15:1 16:1 18:1 19:1 20:1 21:1 22:1 25:1 26:1 27:1 28:1 31:1 32:1 33:1 34:1 
0.01994897818320622 1:1 2:1 3:1 4:1 5:1 6:1 7:1 10:1 11:1 12:1 15:1 16:1 17:1 18:1 19:1 20:1 21:1 22:1 23:1 24:1 25:1 26:1 27:1 28:1 29:1 30:1 31:1 32:1 33:1 34:1 
0.1124359757331996 1:1 2:1 3:1 4:1 5:1 6:1 7:1 8:1 9:1 10:1 11:1 12:1 13:1 14:1 15:1 16:1 17:1 18:1 19:1 20:1 21:1 22:1 23:1 24:1 26:1 27:1 28:1 29:1 30:1 31:1 32:1 33:1 34:1 
0.01544170395794377 1:1 3:1 9:1 10:1 21:1 23:1 25:1 28:1 30:1 
0.331014706342039 53:1 62:1 106:1 117:1 
1 39:1 57:1 98:1 117:1 190:1 216:1 247:1 263:1 299:1 
0.4755032324043873 37:1 55:1 62:1 69:1 76:1 78:1 91:1 102:1 144:1 157:1 158:1 164:1 171:1 188:1 206:1 207:1 221:1 225:1 226:1 231:1 249:1 252:1 272:1 281:1 294:1 298:1 299:1 
1 35:1 44:1 53:1 101:1 147:1 206:1 261:1 298:1 
0.4285942025767709 35:1 87:1 89:1 205:1 225:1 241:1 
1 212:1 
0.3340907789829062 62:1 149:1 217:1 228:1 277:1 282:1 
0.1822409001322105 35:1 54:1 96:1 106:1 117:1 167:1 207:1 212:1 216:1 225:1 233:1 257:1 277:1 281:1 
0.8037716103783571 105:1 117:1 263:1 
1 228:1 
1 217:1 263:1 
1 207:1 263:1 
0.473802181513905 53:1 54:1 68:1 79:1 98:1 109:1 117:1 149:1 155:1 206:1 208:1 216:1 217:1 229:1 245:1 247:1 250:1 263:1 277:1 293:1 295:1 298:1 
1 277:1 
0.6332563537382896 106:1 109:1 205:1 212:1 265:1 
0.208035552306255 38:1 53:1 56:1 117:1 168:1 204:1 217:1 242:1 
1 98:1 115:1 168:1 217:1 263:1 277:1 
0.02861388585318115 37:1 102:1 203:1 217:1 299:1 
0.5450494666695805 57:1 84:1 85:1 115:1 146:1 171:1 196:1 205:1 216:1 222:1 224:1 236:1 282:1 
0.09326339265191251 54:1 87:1 88:1 102:1 117:1 169:1 206:1 232:1 238:1 
1 62:1 263:1 
1 102:1 
0.168103804391392 81:1 89:1 111:1 206:1 216:1 
0.5778739786149034 35:1 38:1 59:1 81:1 109:1 196:1 204:1 207:1 248:1 252:1 258:1 
0.4688791867303185 102:1 205:1 217:1 281:1 295:1 
1 36:1 
1 96:1 167:1 212:1 225:1 233:1 257:1 277:1 281:1 
0.6512151217846942 35:1 149:1 245:1 280:1 
0.5879344179485008 37:1 53:1 70:1 117:1 146:1 216:1 238:1 281:1 
0.02146915352676201 102:1 109:1 207:1 265:1 270:1 
0.2471687974754487 53:1 72:1 106:1 114:1 117:1 149:1 171:1 172:1 206:1 207:1 217:1 218:1 225:1 231:1 242:1 247:1 250:1 265:1 270:1 274:1 299:1 
0.09413067951172688 55:1 114:1 231:1 260:1 
1 35:1 62:1 98:1 196:1 
0.2031611592748823 72:1 85:1 88:1 102:1 108:1 114:1 115:1 117:1 149:1 155:1 170:1 171:1 172:1 194:1 196:1 206:1 207:1 208:1 216:1 223:1 227:1 231:1 232:1 236:1 240:1 245:1 248:1 249:1 261:1 270:1 282:1 299:1 
0.6593453061828395 41:1 48:1 68:1 76:1 78:1 81:1 114:1 115:1 117:1 144:1 149:1 155:1 172:1 217:1 223:1 227:1 229:1 230:1 231:1 247:1 258:1 263:1 277:1 281:1 282:1 
0.1662330888094194 55:1 72:1 114:1 228:1 261:1 
0.2116305949095083 102:1 109:1 157:1 207:1 209:1 247:1 
1 247:1 
1 247:1 294:1 
0.05568140666029425 102:1 164:1 206:1 235:1 252:1 261:1 282:1 
0.2590900801620419 149:1 172:1 218:1 240:1 
1 81:1 296:1 
0.3566961751070739 87:1 205:1 
0.2734077177981286 75:1 149:1 157:1 172:1 227:1 250:1 263:1 270:1 277:1 281:1 282:1 
0.2726885260794097 35:1 242:1 
0.8610908061135304 41:1 55:1 73:1 103:1 104:1 105:1 117:1 144:1 154:1 171:1 190:1 193:1 196:1 205:1 217:1 223:1 250:1 251:1 263:1 281:1 293:1 299:1 
0.4203132413111507 41:1 47:1 59:1 73:1 117:1 156:1 168:1 207:1 235:1 263:1 298:1 
0.5832052267823707 41:1 47:1 59:1 73:1 117:1 168:1 207:1 263:1 
1 87:1 102:1 
1 80:1 99:1 117:1 151:1 205:1 207:1 245:1 274:1 275:1 277:1 
0.2177644003706806 35:1 80:1 102:1 117:1 148:1 168:1 205:1 207:1 223:1 225:1 233:1 245:1 277:1 
1 217:1 253:1 
0.7541358915602178 225:1 274:1 275:1 
1 47:1 106:1 
1 54:1 106:1 263:1 
0.1496666685832306 50:1 51:1 57:1 59:1 106:1 195:1 206:1 207:1 223:1 244:1 263:1 277:1 282:1 298:1 
0.4222195736811356 71:1 79:1 205:1 218:1 240:1 281:1 
0.533235123257395 83:1 
0.6193429803657947 97:1 158:1 170:1 205:1 206:1 212:1 221:1 231:1 240:1 260:1 295:1 
0.08879332722529312 62:1 84:1 111:1 117:1 149:1 170:1 229:1 240:1 248:1 252:1 270:1 295:1 
0.9695323360946321 166:1 293:1 
0.8352162008001732 37:1 55:1 96:1 99:1 102:1 105:1 167:1 171:1 203:1 212:1 247:1 257:1 277:1 281:1 
1 54:1 69:1 76:1 97:1 106:1 117:1 149:1 206:1 208:1 217:1 245:1 
0.01160021478907765 1:1 2:1 3:1 15:1 19:1 20:1 21:1 24:1 25:1 26:1 28:1 31:1 32:1 
0.007238050131666426 2:1 3:1 5:1 9:1 10:1 13:1 15:1 17:1 19:1 23:1 24:1 27:1 34:1 
0.01044304211427447 2:1 4:1 6:1 11:1 12:1 13:1 14:1 16:1 18:1 25:1 26:1 27:1 32:1 33:1 
0.0115322390868842 35:1 38:1 57:1 62:1 68:1 70:1 73:1 87:1 97:1 99:1 107:1 109:1 169:1 197:1 204:1 247:1 263:1 270:1 293:1 299:1 
0.5458274885785185 47:1 57:1 59:1 71:1 97:1 109:1 157:1 161:1 197:1 205:1 206:1 207:1 208:1 212:1 243:1 294:1 
0.580387886174303 35:1 37:1 38:1 39:1 55:1 57:1 68:1 69:1 76:1 81:1 91:1 104:1 106:1 109:1 111:1 115:1 117:1 149:1 157:1 164:1 170:1 171:1 203:1 204:1 206:1 207:1 216:1 217:1 223:1 247:1 250:1 255:1 277:1 281:1 282:1 299:1 
0.5086819468104262 69:1 115:1 117:1 168:1 185:1 
0.006456240576888171 35:1 44:1 47:1 53:1 54:1 81:1 97:1 168:1 171:1 206:1 207:1 216:1 237:1 248:1 281:1 282:1 298:1 
1 37:1 38:1 55:1 57:1 75:1 109:1 115:1 117:1 171:1 185:1 195:1 206:1 207:1 214:1 250:1 273:1 277:1 299:1 
0.3196011631968537 75:1 78:1 208:1 214:1 237:1 
1 277:1 
0.8706733779893273 50:1 106:1 116:1 149:1 206:1 207:1 216:1 222:1 248:1 281:1 
0.08869970686678366 88:1 117:1 217:1 240:1 248:1 
1 57:1 117:1 149:1 195:1 199:1 249:1 295:1 
0.419978629273592 69:1 71:1 76:1 77:1 83:1 107:1 148:1 149:1 168:1 216:1 281:1 
0.8335348212918899 35:1 53:1 80:1 109:1 148:1 168:1 205:1 207:1 223:1 237:1 277:1 
1 35:1 149:1 229:1 247:1 250:1 263:1 277:1 281:1 295:1 
0.678810660318713 38:1 93:1 94:1 204:1 
0.2574926707379949 102:1 168:1 217:1 225:1 281:1 
0.1422918011441786 66:1 68:1 81:1 90:1 106:1 149:1 171:1 212:1 217:1 252:1 295:1 299:1 
-1 171:1 185:1 196:1 207:1 217:1 223:1 281:1 290:1 291:1 
-1 35:1 36:1 53:1 66:1 81:1 97:1 149:1 185:1 196:1 207:1 217:1 250:1 277:1 281:1 290:1 291:1 292:1 
-1 117:1 125:1 126:1 127:1 128:1 129:1 130:1 131:1 132:1 133:1 134:1 135:1 136:1 137:1 138:1 139:1 140:1 141:1 142:1 185:1 196:1 213:1 214:1 217:1 290:1 
-1 35:1 36:1 37:1 47:1 55:1 57:1 69:1 72:1 93:1 97:1 98:1 105:1 106:1 117:1 149:1 157:1 164:1 169:1 185:1 195:1 196:1 203:1 217:1 218:1 225:1 240:1 245:1 275:1 276:1 281:1 290:1 291:1 292:1 294:1 295:1 296:1 
-1 117:1 125:1 126:1 127:1 128:1 129:1 130:1 131:1 132:1 133:1 134:1 135:1 136:1 137:1 138:1 139:1 140:1 141:1 142:1 185:1 196:1 213:1 214:1 217:1 245:1 277:1 290:1 
-1 56:1 67:1 117:1 277:1 289:1 
-1 55:1 56:1 67:1 109:1 117:1 173:1 216:1 223:1 247:1 263:1 277:1 289:1 
-1 82:1 152:1 188:1 189:1 211:1 266:1 267:1 281:1 
-1 
-1 
-1 99:1 207:1 208:1 225:1 
-1 98:1 117:1 205:1 217:1 245:1 247:1 263:1 276:1 293:1 
-1 245:1 
-1 76:1 77:1 
-1 38:1 63:1 64:1 204:1 217:1 251:1 
-1 57:1 59:1 68:1 87:1 102:1 109:1 115:1 147:1 161:1 206:1 217:1 218:1 247:1 249:1 251:1 263:1 277:1 281:1 295:1 299:1 
-1 263:1 
-1 76:1 
-1 76:1 223:1 
-1 
-1 76:1 
-1 219:1 220:1 248:1 
-1 115:1 171:1 219:1 
-1 62:1 161:1 265:1 
-1 50:1 54:1 106:1 108:1 149:1 168:1 171:1 206:1 207:1 212:1 219:1 220:1 228:1 230:1 248:1 258:1 261:1 298:1 
-1 
-1 57:1 98:1 153:1 171:1 197:1 198:1 199:1 200:1 201:1 202:1 231:1 277:1 278:1 298:1 
-1 35:1 47:1 68:1 73:1 98:1 102:1 117:1 153:1 197:1 198:1 199:1 200:1 201:1 202:1 216:1 247:1 250:1 263:1 270:1 277:1 278:1 299:1 
-1 47:1 57:1 102:1 153:1 197:1 198:1 199:1 200:1 201:1 202:1 247:1 250:1 263:1 277:1 278:1 
-1 35:1 55:1 57:1 72:1 109:1 149:1 197:1 198:1 199:1 200:1 201:1 202:1 206:1 207:1 208:1 223:1 247:1 250:1 277:1 281:1 282:1 299:1 
-1 197:1 198:1 199:1 200:1 201:1 202:1 277:1 278:1 
-1 
-1 263:1 295:1 
-1 190:1 191:1 
-1 37:1 65:1 75:1 81:1 117:1 168:1 190:1 191:1 203:1 223:1 263:1 277:1 281:1 
-1 38:1 55:1 57:1 190:1 204:1 211:1 
-1 45:1 54:1 65:1 87:1 88:1 144:1 170:1 190:1 191:1 192:1 206:1 217:1 231:1 249:1 260:1 263:1 277:1 295:1 298:1 299:1 
-1 35:1 79:1 185:1 245:1 250:1 292:1 
-1 35:1 115:1 149:1 185:1 186:1 238:1 247:1 263:1 
-1 35:1 48:1 99:1 185:1 186:1 217:1 274:1 
-1 35:1 117:1 217:1 
-1 54:1 55:1 57:1 81:1 83:1 102:1 106:1 109:1 149:1 157:1 168:1 185:1 195:1 207:1 216:1 230:1 240:1 258:1 260:1 281:1 292:1 
-1 39:1 53:1 66:1 76:1 77:1 100:1 111:1 116:1 149:1 150:1 155:1 171:1 196:1 206:1 224:1 237:1 238:1 252:1 255:1 256:1 263:1 273:1 279:1 
-1 39:1 53:1 66:1 76:1 77:1 100:1 111:1 116:1 149:1 150:1 196:1 207:1 224:1 237:1 238:1 255:1 256:1 263:1 273:1 279:1 
-1 39:1 53:1 66:1 76:1 77:1 100:1 111:1 116:1 149:1 150:1 196:1 224:1 237:1 238:1 255:1 256:1 263:1 273:1 279:1 
-1 39:1 53:1 66:1 76:1 77:1 100:1 109:1 111:1 116:1 149:1 150:1 196:1 224:1 237:1 238:1 255:1 256:1 263:1 273:1 279:1 
-1 39:1 75:1 76:1 77:1 106:1 116:1 149:1 150:1 168:1 196:1 205:1 206:1 207:1 229:1 249:1 255:1 263:1 273:1 281:1 
-1 39:1 76:1 77:1 106:1 116:1 117:1 149:1 150:1 196:1 208:1 216:1 228:1 231:1 255:1 263:1 273:1 
-1 79:1 
-1 105:1 173:1 183:1 223:1 245:1 277:1 
-1 53:1 105:1 207:1 282:1 
-1 47:1 68:1 96:1 106:1 167:1 171:1 212:1 225:1 233:1 257:1 277:1 281:1 
-1 35:1 68:1 96:1 167:1 190:1 206:1 212:1 216:1 233:1 249:1 257:1 277:1 281:1 293:1 
-1 95:1 117:1 
-1 62:1 76:1 91:1 93:1 95:1 97:1 98:1 107:1 115:1 117:1 154:1 194:1 230:1 231:1 247:1 250:1 252:1 260:1 263:1 292:1 294:1 
-1 93:1 95:1 117:1 
-1 76:1 93:1 95:1 117:1 261:1 
-1 35:1 76:1 77:1 93:1 94:1 95:1 117:1 151:1 160:1 166:1 182:1 215:1 230:1 234:1 247:1 250:1 262:1 264:1 300:1 
-1 38:1 76:1 91:1 212:1 263:1 277:1 295:1 
-1 35:1 45:1 55:1 91:1 92:1 102:1 115:1 117:1 168:1 205:1 206:1 207:1 212:1 218:1 240:1 272:1 281:1 294:1 296:1 298:1 
-1 91:1 92:1 161:1 205:1 212:1 263:1 295:1 296:1 
-1 41:1 55:1 75:1 76:1 91:1 92:1 102:1 148:1 161:1 172:1 205:1 207:1 212:1 222:1 225:1 226:1 242:1 275:1 277:1 282:1 296:1 299:1 
-1 73:1 74:1 99:1 205:1 225:1 233:1 
-1 73:1 76:1 205:1 
-1 73:1 76:1 205:1 
-1 53:1 55:1 59:1 73:1 74:1 117:1 144:1 149:1 171:1 205:1 206:1 207:1 217:1 227:1 229:1 248:1 281:1 298:1 
-1 55:1 217:1 
-1 35:1 48:1 61:1 62:1 99:1 205:1 225:1 232:1 233:1 237:1 245:1 251:1 253:1 274:1 277:1 281:1 
-1 42:1 43:1 
-1 41:1 42:1 43:1 163:1 258:1 259:1 
-1 281:1 
-1 
