svm_type c_svc
kernel_type linear
nr_class 2
total_sv 1164
rho -1.8788
label -1 1
nr_sv 590 574
SV
1 3:1 11:1 14:1 19:1 39:1 42:1 55:1 64:1 67:1 73:1 75:1 76:1 80:1 83:1 
1 4:1 6:1 15:1 21:1 35:1 40:1 57:1 63:1 67:1 73:1 74:1 77:1 80:1 83:1 
1 2:1 6:1 16:1 22:1 36:1 40:1 54:1 63:1 67:1 73:1 75:1 76:1 80:1 83:1 
1 4:1 6:1 15:1 19:1 39:1 40:1 52:1 63:1 67:1 73:1 74:1 76:1 82:1 83:1 
1 4:1 6:1 18:1 19:1 39:1 40:1 55:1 61:1 71:1 72:1 74:1 76:1 80:1 83:1 
1 5:1 6:1 15:1 20:1 37:1 40:1 50:1 63:1 67:1 73:1 75:1 76:1 80:1 83:1 
1 3:1 15:1 29:1 39:1 40:1 61:1 68:1 72:1 75:1 76:1 80:1 
1 5:1 7:1 16:1 29:1 39:1 40:1 48:1 63:1 67:1 73:1 74:1 76:1 78:1 83:1 
1 2:1 6:1 15:1 22:1 36:1 40:1 55:1 63:1 67:1 73:1 74:1 76:1 80:1 83:1 
1 2:1 6:1 15:1 19:1 39:1 40:1 52:1 63:1 67:1 73:1 74:1 76:1 82:1 83:1 
1 5:1 8:1 14:1 19:1 39:1 41:1 52:1 64:1 67:1 73:1 74:1 76:1 82:1 83:1 
1 5:1 14:1 22:1 36:1 40:1 61:1 68:1 72:1 74:1 76:1 80:1 83:1 
1 5:1 8:1 14:1 19:1 39:1 40:1 50:1 63:1 67:1 73:1 74:1 76:1 82:1 83:1 
1 3:1 7:1 18:1 22:1 36:1 40:1 50:1 63:1 67:1 73:1 74:1 76:1 82:1 83:1 
1 4:1 8:1 17:1 33:1 35:1 40:1 57:1 63:1 67:1 73:1 74:1 76:1 82:1 95:1 
1 2:1 6:1 14:1 20:1 37:1 40:1 48:1 63:1 67:1 73:1 74:1 76:1 81:1 83:1 
1 5:1 15:1 22:1 36:1 40:1 63:1 67:1 73:1 74:1 76:1 82:1 83:1 
1 3:1 10:1 15:1 19:1 39:1 42:1 52:1 64:1 67:1 73:1 74:1 76:1 82:1 83:1 
1 2:1 6:1 16:1 25:1 38:1 40:1 55:1 63:1 67:1 73:1 74:1 77:1 81:1 83:1 
1 3:1 6:1 14:1 29:1 39:1 40:1 52:1 63:1 67:1 73:1 74:1 76:1 80:1 
1 5:1 7:1 14:1 22:1 36:1 40:1 56:1 63:1 67:1 73:1 74:1 77:1 82:1 83:1 
1 3:1 6:1 16:1 29:1 39:1 40:1 52:1 63:1 67:1 73:1 74:1 76:1 78:1 83:1 
1 5:1 6:1 15:1 22:1 36:1 40:1 54:1 63:1 67:1 73:1 75:1 76:1 80:1 83:1 
0.8947973182333699 2:1 6:1 15:1 19:1 39:1 42:1 50:1 64:1 71:1 72:1 74:1 77:1 80:1 83:1 
1 4:1 6:1 18:1 25:1 38:1 40:1 57:1 63:1 67:1 73:1 74:1 76:1 82:1 83:1 
1 4:1 6:1 17:1 22:1 36:1 40:1 57:1 63:1 67:1 73:1 74:1 76:1 82:1 83:1 
1 5:1 7:1 17:1 20:1 37:1 40:1 50:1 63:1 67:1 73:1 74:1 76:1 82:1 83:1 
1 5:1 6:1 18:1 22:1 36:1 40:1 48:1 63:1 67:1 73:1 74:1 76:1 82:1 83:1 
1 4:1 6:1 16:1 22:1 36:1 40:1 48:1 63:1 67:1 73:1 74:1 76:1 80:1 83:1 
0.4414859226112952 4:1 10:1 15:1 19:1 39:1 41:1 52:1 64:1 71:1 72:1 74:1 76:1 80:1 83:1 
1 5:1 6:1 14:1 20:1 37:1 40:1 48:1 63:1 67:1 73:1 74:1 76:1 80:1 83:1 
1 4:1 7:1 16:1 20:1 37:1 40:1 56:1 63:1 67:1 73:1 74:1 76:1 82:1 83:1 
1 3:1 11:1 14:1 20:1 37:1 40:1 51:1 63:1 67:1 73:1 74:1 76:1 80:1 83:1 
1 4:1 8:1 14:1 19:1 39:1 40:1 50:1 63:1 67:1 73:1 74:1 76:1 82:1 83:1 
1 3:1 6:1 14:1 20:1 37:1 40:1 48:1 63:1 67:1 73:1 74:1 77:1 81:1 83:1 
1 5:1 11:1 14:1 22:1 36:1 40:1 51:1 63:1 67:1 73:1 74:1 76:1 80:1 83:1 
1 5:1 6:1 16:1 23:1 39:1 40:1 52:1 63:1 67:1 73:1 74:1 77:1 82:1 83:1 
1 5:1 6:1 17:1 20:1 37:1 40:1 59:1 63:1 67:1 73:1 74:1 76:1 78:1 83:1 
1 3:1 6:1 15:1 20:1 37:1 40:1 53:1 63:1 67:1 73:1 74:1 76:1 80:1 83:1 
1 3:1 6:1 18:1 22:1 36:1 40:1 51:1 63:1 67:1 73:1 74:1 76:1 80:1 83:1 
1 4:1 9:1 18:1 22:1 36:1 42:1 57:1 64:1 71:1 73:1 75:1 76:1 80:1 83:1 
1 3:1 6:1 16:1 29:1 39:1 42:1 52:1 64:1 67:1 73:1 75:1 76:1 82:1 83:1 
1 4:1 6:1 18:1 22:1 36:1 40:1 57:1 63:1 67:1 73:1 74:1 76:1 80:1 83:1 
1 2:1 9:1 16:1 24:1 38:1 40:1 55:1 63:1 67:1 73:1 74:1 76:1 82:1 83:1 
1 4:1 7:1 17:1 19:1 39:1 40:1 56:1 63:1 67:1 73:1 74:1 76:1 81:1 83:1 
1 4:1 6:1 14:1 20:1 37:1 41:1 51:1 64:1 67:1 73:1 74:1 77:1 80:1 83:1 
1 3:1 6:1 14:1 19:1 39:1 40:1 56:1 63:1 67:1 73:1 74:1 76:1 82:1 83:1 
1 3:1 10:1 17:1 19:1 39:1 40:1 55:1 63:1 67:1 73:1 74:1 76:1 80:1 83:1 
1 5:1 8:1 14:1 19:1 39:1 40:1 54:1 63:1 67:1 73:1 75:1 76:1 78:1 83:1 
1 5:1 11:1 15:1 32:1 39:1 40:1 52:1 63:1 68:1 73:1 75:1 76:1 80:1 90:1 
1 5:1 16:1 22:1 36:1 40:1 63:1 67:1 73:1 74:1 76:1 80:1 83:1 
1 3:1 6:1 15:1 19:1 39:1 40:1 52:1 63:1 68:1 73:1 74:1 76:1 81:1 
1 4:1 9:1 18:1 21:1 35:1 42:1 47:1 64:1 67:1 73:1 74:1 77:1 80:1 83:1 
1 3:1 6:1 18:1 23:1 39:1 42:1 52:1 64:1 67:1 73:1 74:1 76:1 82:1 83:1 
0.3492179473547652 4:1 10:1 18:1 22:1 36:1 40:1 49:1 63:1 67:1 73:1 74:1 76:1 80:1 83:1 
1 3:1 11:1 17:1 29:1 39:1 41:1 52:1 64:1 67:1 72:1 74:1 76:1 81:1 83:1 
1 3:1 6:1 16:1 20:1 37:1 40:1 52:1 63:1 67:1 73:1 74:1 76:1 82:1 83:1 
1 2:1 9:1 18:1 19:1 39:1 40:1 51:1 63:1 67:1 73:1 74:1 76:1 80:1 83:1 
0.02904026252442274 4:1 16:1 22:1 36:1 40:1 63:1 67:1 73:1 74:1 76:1 80:1 83:1 
0.8532345719505509 5:1 6:1 16:1 27:1 35:1 40:1 48:1 63:1 67:1 73:1 74:1 76:1 82:1 83:1 
1 4:1 6:1 17:1 22:1 36:1 40:1 50:1 63:1 67:1 73:1 74:1 76:1 80:1 83:1 
1 4:1 10:1 17:1 20:1 37:1 40:1 51:1 63:1 67:1 73:1 74:1 76:1 80:1 83:1 
1 3:1 6:1 18:1 19:1 39:1 40:1 50:1 61:1 67:1 72:1 74:1 76:1 78:1 83:1 
1 3:1 6:1 18:1 20:1 37:1 40:1 51:1 63:1 67:1 73:1 74:1 76:1 80:1 83:1 
0.1394268538370297 3:1 7:1 17:1 22:1 36:1 40:1 48:1 63:1 67:1 73:1 74:1 76:1 82:1 83:1 
1 4:1 8:1 18:1 20:1 37:1 40:1 50:1 63:1 67:1 73:1 74:1 76:1 82:1 83:1 
1 3:1 6:1 18:1 22:1 36:1 41:1 51:1 66:1 67:1 72:1 74:1 77:1 82:1 83:1 
1 4:1 6:1 15:1 22:1 36:1 40:1 50:1 63:1 67:1 73:1 74:1 76:1 80:1 83:1 
1 3:1 6:1 15:1 29:1 39:1 40:1 52:1 63:1 68:1 73:1 74:1 76:1 80:1 94:1 
1 3:1 6:1 18:1 22:1 36:1 40:1 50:1 61:1 67:1 72:1 74:1 76:1 79:1 83:1 
1 3:1 6:1 14:1 22:1 36:1 40:1 48:1 63:1 67:1 73:1 74:1 77:1 80:1 83:1 
1 2:1 6:1 17:1 19:1 39:1 40:1 49:1 63:1 67:1 73:1 74:1 76:1 82:1 83:1 
1 5:1 6:1 14:1 29:1 39:1 41:1 52:1 64:1 67:1 72:1 74:1 76:1 80:1 83:1 
1 4:1 6:1 18:1 20:1 37:1 40:1 54:1 63:1 67:1 73:1 74:1 76:1 80:1 103:1 
1 4:1 6:1 18:1 21:1 35:1 40:1 57:1 63:1 67:1 73:1 74:1 77:1 80:1 83:1 
1 2:1 6:1 14:1 22:1 36:1 40:1 51:1 63:1 67:1 73:1 74:1 76:1 82:1 83:1 
1 5:1 6:1 16:1 22:1 36:1 40:1 49:1 63:1 67:1 73:1 74:1 76:1 82:1 83:1 
1 4:1 11:1 15:1 22:1 36:1 40:1 59:1 63:1 67:1 73:1 74:1 76:1 80:1 83:1 
1 5:1 7:1 15:1 25:1 38:1 40:1 56:1 63:1 67:1 73:1 74:1 76:1 80:1 83:1 
1 4:1 8:1 16:1 19:1 39:1 42:1 50:1 64:1 67:1 73:1 75:1 76:1 82:1 83:1 
1 3:1 6:1 16:1 22:1 36:1 40:1 57:1 63:1 67:1 73:1 75:1 76:1 80:1 83:1 
0.7703917002668103 4:1 6:1 16:1 19:1 39:1 40:1 54:1 63:1 69:1 73:1 74:1 76:1 80:1 83:1 
0.4632240353106752 1:1 6:1 15:1 24:1 38:1 40:1 53:1 63:1 71:1 73:1 74:1 76:1 80:1 101:1 
0.09911424187682823 4:1 7:1 17:1 27:1 35:1 40:1 48:1 63:1 67:1 73:1 74:1 76:1 80:1 99:1 
1 5:1 10:1 15:1 19:1 39:1 40:1 52:1 63:1 68:1 73:1 74:1 76:1 79:1 90:1 
1 2:1 10:1 16:1 29:1 39:1 40:1 52:1 63:1 67:1 73:1 74:1 76:1 82:1 83:1 
1 5:1 6:1 16:1 22:1 36:1 40:1 51:1 63:1 67:1 73:1 74:1 76:1 81:1 83:1 
1 5:1 7:1 15:1 20:1 37:1 40:1 51:1 63:1 67:1 73:1 74:1 76:1 78:1 83:1 
1 4:1 9:1 18:1 25:1 38:1 40:1 59:1 63:1 67:1 73:1 75:1 76:1 80:1 83:1 
1 3:1 6:1 18:1 22:1 36:1 40:1 48:1 63:1 67:1 73:1 74:1 76:1 81:1 83:1 
1 4:1 10:1 17:1 19:1 39:1 42:1 51:1 64:1 67:1 73:1 74:1 76:1 80:1 83:1 
1 4:1 7:1 18:1 22:1 36:1 40:1 51:1 63:1 67:1 73:1 74:1 76:1 82:1 83:1 
1 5:1 6:1 15:1 20:1 37:1 40:1 50:1 63:1 67:1 73:1 74:1 76:1 82:1 83:1 
1 5:1 6:1 14:1 20:1 37:1 40:1 49:1 63:1 67:1 73:1 74:1 76:1 80:1 83:1 
1 2:1 6:1 18:1 19:1 39:1 40:1 48:1 63:1 67:1 73:1 74:1 76:1 80:1 83:1 
1 2:1 6:1 16:1 22:1 36:1 40:1 55:1 61:1 71:1 72:1 74:1 76:1 80:1 83:1 
1 5:1 7:1 14:1 20:1 37:1 40:1 50:1 63:1 67:1 73:1 74:1 76:1 81:1 83:1 
1 3:1 6:1 16:1 29:1 39:1 41:1 52:1 64:1 67:1 73:1 74:1 76:1 81:1 83:1 
1 4:1 6:1 15:1 19:1 39:1 40:1 48:1 63:1 67:1 73:1 74:1 76:1 80:1 83:1 
1 2:1 6:1 17:1 20:1 37:1 40:1 50:1 63:1 67:1 73:1 74:1 76:1 81:1 83:1 
1 2:1 6:1 14:1 22:1 36:1 40:1 54:1 61:1 67:1 72:1 74:1 76:1 82:1 83:1 
1 2:1 6:1 18:1 19:1 39:1 40:1 51:1 63:1 67:1 73:1 74:1 76:1 80:1 83:1 
1 3:1 6:1 15:1 19:1 39:1 42:1 51:1 62:1 67:1 73:1 74:1 76:1 82:1 83:1 
1 3:1 10:1 15:1 20:1 37:1 40:1 59:1 63:1 67:1 73:1 74:1 76:1 82:1 83:1 
1 5:1 6:1 15:1 20:1 37:1 40:1 54:1 63:1 67:1 73:1 74:1 76:1 82:1 83:1 
1 2:1 7:1 16:1 25:1 38:1 40:1 52:1 63:1 70:1 73:1 74:1 76:1 82:1 83:1 
1 4:1 7:1 17:1 19:1 39:1 40:1 51:1 63:1 67:1 73:1 74:1 76:1 82:1 88:1 
1 2:1 6:1 18:1 22:1 36:1 40:1 51:1 61:1 67:1 72:1 74:1 76:1 80:1 83:1 
1 3:1 7:1 18:1 22:1 36:1 40:1 51:1 63:1 67:1 73:1 74:1 76:1 82:1 83:1 
1 4:1 6:1 18:1 20:1 37:1 40:1 47:1 63:1 67:1 73:1 74:1 76:1 80:1 83:1 
1 3:1 6:1 16:1 19:1 39:1 40:1 49:1 61:1 67:1 72:1 74:1 76:1 80:1 83:1 
1 5:1 6:1 15:1 20:1 37:1 41:1 48:1 64:1 67:1 73:1 75:1 76:1 80:1 83:1 
1 3:1 10:1 17:1 20:1 37:1 40:1 48:1 63:1 67:1 73:1 74:1 77:1 80:1 83:1 
1 5:1 8:1 15:1 20:1 37:1 41:1 51:1 64:1 67:1 73:1 74:1 76:1 82:1 83:1 
1 2:1 11:1 18:1 22:1 36:1 40:1 59:1 63:1 67:1 73:1 74:1 76:1 81:1 83:1 
1 3:1 6:1 16:1 25:1 38:1 40:1 48:1 63:1 67:1 73:1 74:1 76:1 80:1 83:1 
1 5:1 6:1 17:1 20:1 37:1 40:1 48:1 63:1 67:1 73:1 74:1 76:1 80:1 83:1 
0.8301833337079541 3:1 6:1 14:1 20:1 37:1 40:1 48:1 63:1 67:1 73:1 74:1 76:1 80:1 83:1 
1 2:1 6:1 17:1 19:1 39:1 40:1 52:1 63:1 67:1 73:1 75:1 76:1 80:1 88:1 
1 3:1 6:1 18:1 20:1 37:1 40:1 50:1 63:1 67:1 73:1 74:1 76:1 82:1 83:1 
1 2:1 11:1 17:1 23:1 39:1 42:1 52:1 64:1 68:1 73:1 75:1 76:1 82:1 90:1 
1 4:1 6:1 16:1 20:1 37:1 40:1 50:1 63:1 67:1 73:1 74:1 76:1 82:1 83:1 
1 4:1 6:1 18:1 22:1 36:1 40:1 50:1 63:1 67:1 73:1 75:1 76:1 82:1 83:1 
1 1:1 6:1 18:1 22:1 36:1 40:1 51:1 63:1 67:1 73:1 74:1 76:1 82:1 83:1 
1 2:1 6:1 14:1 19:1 39:1 42:1 52:1 64:1 67:1 72:1 75:1 76:1 80:1 83:1 
1 2:1 6:1 14:1 19:1 39:1 40:1 50:1 63:1 67:1 73:1 74:1 76:1 82:1 83:1 
1 1:1 6:1 17:1 22:1 36:1 40:1 55:1 61:1 67:1 72:1 74:1 76:1 80:1 103:1 
1 3:1 6:1 14:1 20:1 37:1 40:1 48:1 63:1 67:1 73:1 75:1 76:1 79:1 83:1 
1 1:1 6:1 17:1 19:1 39:1 40:1 52:1 61:1 67:1 72:1 74:1 76:1 80:1 83:1 
1 4:1 6:1 17:1 22:1 36:1 40:1 52:1 61:1 67:1 72:1 74:1 76:1 78:1 83:1 
1 5:1 6:1 17:1 25:1 38:1 40:1 47:1 63:1 67:1 73:1 75:1 76:1 80:1 83:1 
1 5:1 6:1 16:1 22:1 36:1 40:1 52:1 63:1 67:1 73:1 75:1 76:1 80:1 83:1 
0.1742185413836179 4:1 8:1 18:1 25:1 38:1 41:1 51:1 66:1 68:1 72:1 74:1 76:1 82:1 117:1 
1 5:1 6:1 18:1 22:1 36:1 40:1 57:1 63:1 71:1 73:1 74:1 76:1 80:1 83:1 
1 3:1 6:1 18:1 19:1 39:1 40:1 51:1 61:1 67:1 72:1 74:1 76:1 82:1 88:1 
1 4:1 6:1 14:1 22:1 36:1 40:1 47:1 63:1 67:1 73:1 74:1 76:1 82:1 83:1 
1 3:1 7:1 15:1 22:1 36:1 40:1 48:1 63:1 67:1 73:1 74:1 76:1 81:1 83:1 
1 2:1 6:1 17:1 19:1 39:1 40:1 52:1 63:1 67:1 73:1 74:1 76:1 80:1 83:1 
1 4:1 11:1 18:1 19:1 39:1 41:1 59:1 64:1 67:1 72:1 74:1 76:1 80:1 83:1 
1 3:1 11:1 18:1 29:1 39:1 40:1 59:1 63:1 71:1 73:1 74:1 76:1 80:1 83:1 
1 4:1 6:1 16:1 20:1 37:1 40:1 54:1 63:1 71:1 73:1 74:1 76:1 80:1 83:1 
1 3:1 6:1 16:1 22:1 36:1 40:1 48:1 63:1 67:1 73:1 74:1 76:1 82:1 83:1 
1 3:1 6:1 17:1 19:1 39:1 40:1 55:1 61:1 71:1 72:1 74:1 76:1 80:1 83:1 
1 2:1 6:1 16:1 19:1 39:1 40:1 51:1 63:1 67:1 73:1 74:1 76:1 80:1 107:1 
1 2:1 6:1 18:1 22:1 36:1 40:1 48:1 63:1 67:1 73:1 75:1 76:1 80:1 83:1 
1 3:1 6:1 14:1 19:1 39:1 43:1 51:1 66:1 67:1 72:1 74:1 76:1 81:1 83:1 
1 4:1 6:1 17:1 19:1 39:1 43:1 47:1 64:1 67:1 73:1 74:1 76:1 80:1 83:1 
1 5:1 6:1 14:1 29:1 39:1 40:1 52:1 63:1 67:1 73:1 74:1 76:1 82:1 83:1 
1 5:1 8:1 17:1 22:1 36:1 40:1 50:1 63:1 71:1 73:1 74:1 76:1 82:1 83:1 
1 4:1 6:1 16:1 22:1 36:1 40:1 51:1 63:1 67:1 73:1 74:1 76:1 81:1 83:1 
1 4:1 6:1 18:1 20:1 37:1 40:1 49:1 63:1 67:1 73:1 74:1 76:1 82:1 83:1 
1 4:1 6:1 17:1 23:1 39:1 41:1 55:1 64:1 67:1 73:1 74:1 76:1 80:1 83:1 
1 4:1 11:1 17:1 22:1 36:1 40:1 55:1 63:1 67:1 73:1 75:1 76:1 80:1 83:1 
0.9409066594505084 3:1 6:1 16:1 19:1 39:1 42:1 50:1 64:1 67:1 73:1 74:1 76:1 79:1 83:1 
1 4:1 7:1 14:1 19:1 39:1 40:1 56:1 63:1 67:1 73:1 74:1 76:1 82:1 83:1 
1 4:1 6:1 15:1 22:1 36:1 40:1 51:1 63:1 67:1 73:1 74:1 76:1 82:1 83:1 
0.6313867419489406 5:1 7:1 15:1 22:1 36:1 40:1 50:1 63:1 68:1 73:1 74:1 76:1 82:1 93:1 
1 5:1 6:1 15:1 22:1 36:1 40:1 50:1 63:1 67:1 73:1 74:1 76:1 80:1 83:1 
1 2:1 6:1 17:1 22:1 36:1 40:1 50:1 63:1 67:1 73:1 74:1 76:1 80:1 83:1 
1 2:1 10:1 15:1 19:1 39:1 42:1 52:1 64:1 67:1 72:1 75:1 76:1 79:1 83:1 
1 5:1 16:1 19:1 39:1 40:1 63:1 67:1 73:1 74:1 76:1 78:1 83:1 
0.03927794300633943 3:1 6:1 17:1 20:1 37:1 41:1 47:1 64:1 67:1 72:1 74:1 76:1 80:1 100:1 
1 5:1 11:1 16:1 19:1 39:1 40:1 55:1 63:1 67:1 73:1 74:1 76:1 79:1 83:1 
1 3:1 6:1 14:1 20:1 37:1 40:1 50:1 63:1 67:1 73:1 75:1 76:1 82:1 83:1 
1 3:1 6:1 17:1 32:1 39:1 41:1 52:1 66:1 67:1 72:1 74:1 76:1 82:1 83:1 
1 5:1 14:1 19:1 39:1 40:1 63:1 67:1 73:1 74:1 76:1 78:1 83:1 
0.07395267634280245 4:1 6:1 17:1 22:1 36:1 40:1 48:1 63:1 70:1 73:1 74:1 76:1 80:1 83:1 
1 3:1 6:1 15:1 20:1 37:1 40:1 50:1 63:1 67:1 73:1 75:1 76:1 80:1 83:1 
1 2:1 11:1 16:1 22:1 36:1 40:1 59:1 63:1 67:1 73:1 74:1 76:1 80:1 83:1 
1 1:1 6:1 17:1 21:1 35:1 40:1 51:1 63:1 67:1 73:1 74:1 76:1 82:1 83:1 
0.4391845566519275 2:1 10:1 16:1 24:1 38:1 40:1 59:1 63:1 67:1 73:1 74:1 77:1 80:1 85:1 
1 3:1 6:1 14:1 19:1 39:1 42:1 50:1 64:1 67:1 73:1 74:1 76:1 81:1 83:1 
0.1982881177908536 5:1 10:1 14:1 22:1 36:1 40:1 51:1 63:1 69:1 73:1 74:1 76:1 82:1 83:1 
1 4:1 7:1 16:1 19:1 39:1 40:1 52:1 63:1 67:1 73:1 74:1 76:1 80:1 83:1 
1 5:1 7:1 16:1 19:1 39:1 40:1 56:1 63:1 67:1 73:1 74:1 76:1 78:1 83:1 
1 3:1 6:1 18:1 22:1 36:1 40:1 52:1 63:1 67:1 73:1 74:1 77:1 82:1 83:1 
1 3:1 6:1 17:1 22:1 36:1 40:1 48:1 63:1 67:1 73:1 74:1 76:1 82:1 83:1 
1 4:1 6:1 17:1 22:1 36:1 40:1 57:1 63:1 67:1 73:1 74:1 76:1 80:1 83:1 
1 3:1 6:1 17:1 20:1 37:1 40:1 48:1 63:1 67:1 73:1 74:1 76:1 80:1 83:1 
1 4:1 6:1 15:1 20:1 37:1 40:1 55:1 61:1 67:1 72:1 74:1 76:1 80:1 83:1 
0.1936650437310492 5:1 6:1 17:1 22:1 36:1 40:1 48:1 63:1 67:1 73:1 74:1 76:1 80:1 119:1 
1 3:1 6:1 16:1 22:1 36:1 40:1 50:1 63:1 67:1 73:1 74:1 76:1 82:1 83:1 
0.3482001209929126 5:1 15:1 23:1 39:1 45:1 66:1 68:1 72:1 74:1 76:1 80:1 102:1 
1 3:1 6:1 18:1 32:1 39:1 40:1 52:1 63:1 67:1 73:1 74:1 76:1 80:1 83:1 
1 5:1 6:1 15:1 22:1 36:1 40:1 48:1 63:1 67:1 73:1 74:1 76:1 80:1 83:1 
1 4:1 10:1 14:1 19:1 39:1 41:1 52:1 66:1 67:1 73:1 74:1 76:1 82:1 83:1 
1 2:1 6:1 18:1 19:1 39:1 42:1 51:1 64:1 67:1 73:1 74:1 76:1 81:1 83:1 
1 4:1 11:1 14:1 29:1 39:1 40:1 55:1 63:1 67:1 73:1 74:1 76:1 80:1 90:1 
1 5:1 6:1 14:1 29:1 39:1 42:1 52:1 64:1 67:1 73:1 74:1 76:1 82:1 83:1 
0.6188079717564783 2:1 10:1 18:1 19:1 39:1 42:1 59:1 62:1 71:1 73:1 74:1 76:1 82:1 83:1 
1 2:1 6:1 17:1 20:1 37:1 40:1 54:1 63:1 67:1 73:1 74:1 76:1 80:1 83:1 
1 2:1 6:1 14:1 19:1 39:1 40:1 52:1 61:1 67:1 72:1 74:1 76:1 78:1 83:1 
1 2:1 6:1 17:1 19:1 39:1 42:1 50:1 64:1 67:1 73:1 74:1 76:1 81:1 83:1 
1 5:1 6:1 18:1 22:1 36:1 40:1 51:1 63:1 67:1 73:1 74:1 76:1 78:1 83:1 
1 4:1 7:1 17:1 32:1 39:1 42:1 52:1 64:1 67:1 72:1 74:1 76:1 81:1 83:1 
0.3997088173699387 2:1 8:1 17:1 20:1 37:1 42:1 51:1 64:1 67:1 73:1 74:1 76:1 82:1 95:1 
1 3:1 6:1 18:1 19:1 39:1 40:1 51:1 62:1 67:1 73:1 74:1 76:1 82:1 83:1 
1 4:1 6:1 15:1 19:1 39:1 40:1 50:1 63:1 67:1 73:1 74:1 76:1 82:1 83:1 
1 2:1 6:1 18:1 32:1 39:1 42:1 52:1 64:1 67:1 73:1 74:1 76:1 80:1 
1 5:1 6:1 18:1 19:1 39:1 40:1 54:1 63:1 67:1 73:1 74:1 76:1 80:1 83:1 
1 4:1 6:1 16:1 20:1 37:1 40:1 48:1 63:1 67:1 73:1 74:1 76:1 80:1 83:1 
1 5:1 9:1 14:1 22:1 36:1 40:1 47:1 63:1 67:1 73:1 74:1 76:1 80:1 83:1 
1 2:1 6:1 16:1 22:1 36:1 40:1 54:1 63:1 67:1 73:1 75:1 76:1 82:1 105:1 
1 5:1 7:1 17:1 22:1 36:1 40:1 48:1 63:1 67:1 73:1 74:1 76:1 82:1 83:1 
1 3:1 6:1 15:1 22:1 36:1 40:1 59:1 62:1 67:1 73:1 74:1 76:1 81:1 83:1 
1 4:1 8:1 16:1 22:1 36:1 40:1 57:1 63:1 67:1 73:1 74:1 76:1 82:1 83:1 
1 5:1 6:1 15:1 22:1 36:1 40:1 59:1 63:1 67:1 73:1 74:1 76:1 80:1 83:1 
1 5:1 7:1 14:1 19:1 39:1 40:1 52:1 63:1 67:1 73:1 74:1 76:1 82:1 83:1 
1 4:1 6:1 14:1 22:1 36:1 40:1 57:1 63:1 67:1 73:1 74:1 76:1 82:1 83:1 
1 3:1 8:1 15:1 22:1 36:1 40:1 57:1 63:1 67:1 73:1 74:1 76:1 82:1 83:1 
1 5:1 9:1 17:1 19:1 39:1 42:1 55:1 64:1 67:1 73:1 74:1 77:1 80:1 83:1 
1 4:1 11:1 15:1 19:1 39:1 40:1 55:1 63:1 67:1 73:1 75:1 76:1 80:1 83:1 
1 5:1 9:1 14:1 19:1 39:1 41:1 51:1 66:1 67:1 72:1 74:1 76:1 80:1 83:1 
1 3:1 10:1 17:1 19:1 39:1 40:1 48:1 63:1 67:1 73:1 74:1 76:1 80:1 83:1 
0.8583475198818057 3:1 6:1 16:1 19:1 39:1 42:1 52:1 64:1 67:1 73:1 74:1 76:1 80:1 87:1 
1 4:1 6:1 18:1 22:1 36:1 40:1 54:1 63:1 67:1 73:1 74:1 76:1 80:1 83:1 
1 3:1 6:1 15:1 20:1 37:1 40:1 50:1 63:1 67:1 73:1 75:1 76:1 82:1 83:1 
1 2:1 6:1 14:1 19:1 39:1 40:1 47:1 63:1 67:1 73:1 74:1 76:1 78:1 83:1 
1 4:1 6:1 17:1 22:1 36:1 40:1 48:1 63:1 67:1 73:1 74:1 76:1 80:1 83:1 
1 4:1 6:1 16:1 25:1 38:1 40:1 57:1 63:1 67:1 73:1 74:1 76:1 82:1 83:1 
1 4:1 6:1 16:1 29:1 39:1 40:1 52:1 63:1 67:1 73:1 74:1 76:1 81:1 83:1 
0.6396172391481639 5:1 6:1 18:1 19:1 39:1 40:1 48:1 65:1 67:1 73:1 74:1 76:1 80:1 83:1 
1 4:1 7:1 15:1 19:1 39:1 40:1 51:1 63:1 67:1 73:1 74:1 76:1 82:1 83:1 
0.442691359819308 2:1 6:1 15:1 20:1 37:1 42:1 53:1 65:1 68:1 73:1 74:1 76:1 81:1 98:1 
1 5:1 7:1 17:1 20:1 37