svm_type c_svc
kernel_type rbf
gamma 0.00012207
nr_class 2
total_sv 633
rho -0.368164
label -1 1
nr_sv 321 312
SV
512 3:1 11:1 14:1 19:1 39:1 42:1 55:1 64:1 67:1 73:1 75:1 76:1 80:1 83:1 
512 4:1 6:1 15:1 21:1 35:1 40:1 57:1 63:1 67:1 73:1 74:1 77:1 80:1 83:1 
512 2:1 6:1 16:1 22:1 36:1 40:1 54:1 63:1 67:1 73:1 75:1 76:1 80:1 83:1 
512 5:1 6:1 15:1 20:1 37:1 40:1 50:1 63:1 67:1 73:1 75:1 76:1 80:1 83:1 
512 5:1 7:1 16:1 29:1 39:1 40:1 48:1 63:1 67:1 73:1 74:1 76:1 78:1 83:1 
512 2:1 6:1 15:1 19:1 39:1 40:1 52:1 63:1 67:1 73:1 74:1 76:1 82:1 83:1 
512 5:1 8:1 14:1 19:1 39:1 40:1 50:1 63:1 67:1 73:1 74:1 76:1 82:1 83:1 
512 3:1 7:1 18:1 22:1 36:1 40:1 50:1 63:1 67:1 73:1 74:1 76:1 82:1 83:1 
126.1932771795837 2:1 6:1 14:1 20:1 37:1 40:1 48:1 63:1 67:1 73:1 74:1 76:1 81:1 83:1 
512 5:1 15:1 22:1 36:1 40:1 63:1 67:1 73:1 74:1 76:1 82:1 83:1 
512 2:1 6:1 16:1 25:1 38:1 40:1 55:1 63:1 67:1 73:1 74:1 77:1 81:1 83:1 
512 5:1 7:1 14:1 22:1 36:1 40:1 56:1 63:1 67:1 73:1 74:1 77:1 82:1 83:1 
512 1:1 6:1 17:1 20:1 37:1 42:1 51:1 64:1 67:1 72:1 75:1 76:1 80:1 83:1 
512 3:1 6:1 16:1 29:1 39:1 40:1 52:1 63:1 67:1 73:1 74:1 76:1 78:1 83:1 
512 5:1 6:1 15:1 22:1 36:1 40:1 54:1 63:1 67:1 73:1 75:1 76:1 80:1 83:1 
487.1835616240376 2:1 6:1 15:1 19:1 39:1 42:1 50:1 64:1 71:1 72:1 74:1 77:1 80:1 83:1 
512 4:1 6:1 18:1 25:1 38:1 40:1 57:1 63:1 67:1 73:1 74:1 76:1 82:1 83:1 
512 4:1 6:1 17:1 22:1 36:1 40:1 57:1 63:1 67:1 73:1 74:1 76:1 82:1 83:1 
512 5:1 7:1 17:1 20:1 37:1 40:1 50:1 63:1 67:1 73:1 74:1 76:1 82:1 83:1 
512 5:1 6:1 18:1 22:1 36:1 40:1 48:1 63:1 67:1 73:1 74:1 76:1 82:1 83:1 
512 4:1 6:1 16:1 22:1 36:1 40:1 48:1 63:1 67:1 73:1 74:1 76:1 80:1 83:1 
512 5:1 6:1 14:1 20:1 37:1 40:1 48:1 63:1 67:1 73:1 74:1 76:1 80:1 83:1 
512 4:1 7:1 16:1 20:1 37:1 40:1 56:1 63:1 67:1 73:1 74:1 76:1 82:1 83:1 
512 3:1 11:1 14:1 20:1 37:1 40:1 51:1 63:1 67:1 73:1 74:1 76:1 80:1 83:1 
512 3:1 6:1 14:1 20:1 37:1 40:1 48:1 63:1 67:1 73:1 74:1 77:1 81:1 83:1 
512 4:1 10:1 15:1 29:1 39:1 41:1 52:1 64:1 67:1 72:1 74:1 76:1 78:1 83:1 
512 2:1 9:1 16:1 24:1 38:1 40:1 55:1 63:1 67:1 73:1 74:1 76:1 82:1 83:1 
93.76932816966762 5:1 10:1 16:1 19:1 39:1 43:1 52:1 64:1 67:1 73:1 74:1 76:1 78:1 
512 3:1 10:1 17:1 19:1 39:1 40:1 55:1 63:1 67:1 73:1 74:1 76:1 80:1 83:1 
512 5:1 8:1 14:1 19:1 39:1 40:1 54:1 63:1 67:1 73:1 75:1 76:1 78:1 83:1 
512 5:1 16:1 22:1 36:1 40:1 63:1 67:1 73:1 74:1 76:1 80:1 83:1 
512 3:1 6:1 15:1 19:1 39:1 40:1 52:1 63:1 68:1 73:1 74:1 76:1 81:1 
512 3:1 6:1 18:1 23:1 39:1 42:1 52:1 64:1 67:1 73:1 74:1 76:1 82:1 83:1 
512 3:1 6:1 16:1 20:1 37:1 40:1 52:1 63:1 67:1 73:1 74:1 76:1 82:1 83:1 
512 2:1 9:1 18:1 19:1 39:1 40:1 51:1 63:1 67:1 73:1 74:1 76:1 80:1 83:1 
512 4:1 16:1 22:1 36:1 40:1 63:1 67:1 73:1 74:1 76:1 80:1 83:1 
512 4:1 6:1 17:1 22:1 36:1 40:1 50:1 63:1 67:1 73:1 74:1 76:1 80:1 83:1 
512 3:1 6:1 18:1 19:1 39:1 40:1 50:1 61:1 67:1 72:1 74:1 76:1 78:1 83:1 
512 3:1 6:1 18:1 20:1 37:1 40:1 51:1 63:1 67:1 73:1 74:1 76:1 80:1 83:1 
512 4:1 8:1 18:1 20:1 37:1 40:1 50:1 63:1 67:1 73:1 74:1 76:1 82:1 83:1 
512 3:1 6:1 18:1 22:1 36:1 41:1 51:1 66:1 67:1 72:1 74:1 77:1 82:1 83:1 
512 4:1 6:1 15:1 22:1 36:1 40:1 50:1 63:1 67:1 73:1 74:1 76:1 80:1 83:1 
512 3:1 6:1 14:1 22:1 36:1 40:1 48:1 63:1 67:1 73:1 74:1 77:1 80:1 83:1 
512 2:1 6:1 17:1 19:1 39:1 40:1 49:1 63:1 67:1 73:1 74:1 76:1 82:1 83:1 
512 5:1 6:1 14:1 29:1 39:1 41:1 52:1 64:1 67:1 72:1 74:1 76:1 80:1 83:1 
512 4:1 6:1 18:1 21:1 35:1 40:1 57:1 63:1 67:1 73:1 74:1 77:1 80:1 83:1 
512 2:1 6:1 14:1 22:1 36:1 40:1 51:1 63:1 67:1 73:1 74:1 76:1 82:1 83:1 
409.3886278127682 4:1 11:1 15:1 22:1 36:1 40:1 59:1 63:1 67:1 73:1 74:1 76:1 80:1 83:1 
512 5:1 7:1 15:1 25:1 38:1 40:1 56:1 63:1 67:1 73:1 74:1 76:1 80:1 83:1 
512 4:1 8:1 16:1 19:1 39:1 42:1 50:1 64:1 67:1 73:1 75:1 76:1 82:1 83:1 
512 3:1 6:1 16:1 22:1 36:1 40:1 57:1 63:1 67:1 73:1 75:1 76:1 80:1 83:1 
512 5:1 7:1 15:1 20:1 37:1 40:1 51:1 63:1 67:1 73:1 74:1 76:1 78:1 83:1 
512 3:1 6:1 18:1 22:1 36:1 40:1 48:1 63:1 67:1 73:1 74:1 76:1 81:1 83:1 
512 2:1 6:1 18:1 19:1 39:1 40:1 48:1 63:1 67:1 73:1 74:1 76:1 80:1 83:1 
512 1:1 6:1 17:1 19:1 39:1 42:1 51:1 64:1 67:1 73:1 74:1 76:1 80:1 83:1 
512 2:1 6:1 18:1 19:1 39:1 40:1 51:1 63:1 67:1 73:1 74:1 76:1 80:1 83:1 
464.3731352307713 5:1 6:1 15:1 33:1 35:1 40:1 53:1 63:1 67:1 73:1 74:1 76:1 82:1 
512 4:1 7:1 17:1 19:1 39:1 40:1 51:1 63:1 67:1 73:1 74:1 76:1 82:1 88:1 
512 2:1 6:1 18:1 22:1 36:1 40:1 51:1 61:1 67:1 72:1 74:1 76:1 80:1 83:1 
512 3:1 7:1 18:1 22:1 36:1 40:1 51:1 63:1 67:1 73:1 74:1 76:1 82:1 83:1 
512 4:1 6:1 18:1 20:1 37:1 40:1 47:1 63:1 67:1 73:1 74:1 76:1 80:1 83:1 
512 3:1 6:1 16:1 19:1 39:1 40:1 49:1 61:1 67:1 72:1 74:1 76:1 80:1 83:1 
512 3:1 10:1 17:1 20:1 37:1 40:1 48:1 63:1 67:1 73:1 74:1 77:1 80:1 83:1 
512 5:1 8:1 15:1 20:1 37:1 41:1 51:1 64:1 67:1 73:1 74:1 76:1 82:1 83:1 
512 5:1 6:1 17:1 20:1 37:1 40:1 48:1 63:1 67:1 73:1 74:1 76:1 80:1 83:1 
512 2:1 11:1 17:1 23:1 39:1 42:1 52:1 64:1 68:1 73:1 75:1 76:1 82:1 90:1 
512 4:1 6:1 18:1 22:1 36:1 40:1 50:1 63:1 67:1 73:1 75:1 76:1 82:1 83:1 
512 2:1 6:1 14:1 19:1 39:1 42:1 52:1 64:1 67:1 72:1 75:1 76:1 80:1 83:1 
512 2:1 6:1 14:1 19:1 39:1 40:1 50:1 63:1 67:1 73:1 74:1 76:1 82:1 83:1 
512 5:1 6:1 16:1 22:1 36:1 40:1 52:1 63:1 67:1 73:1 75:1 76:1 80:1 83:1 
394.688310530397 5:1 7:1 14:1 27:1 35:1 40:1 50:1 63:1 67:1 73:1 74:1 76:1 82:1 83:1 
512 3:1 6:1 18:1 19:1 39:1 40:1 51:1 61:1 67:1 72:1 74:1 76:1 82:1 88:1 
326.5832336210602 2:1 7:1 17:1 19:1 39:1 42:1 47:1 64:1 67:1 73:1 74:1 76:1 81:1 83:1 
512 2:1 6:1 17:1 19:1 39:1 40:1 52:1 63:1 67:1 73:1 74:1 76:1 80:1 83:1 
512 3:1 11:1 18:1 29:1 39:1 40:1 59:1 63:1 71:1 73:1 74:1 76:1 80:1 83:1 
512 4:1 6:1 16:1 20:1 37:1 40:1 54:1 63:1 71:1 73:1 74:1 76:1 80:1 83:1 
512 3:1 6:1 16:1 22:1 36:1 40:1 48:1 63:1 67:1 73:1 74:1 76:1 82:1 83:1 
512 2:1 6:1 16:1 19:1 39:1 40:1 51:1 63:1 67:1 73:1 74:1 76:1 80:1 107:1 
512 4:1 6:1 17:1 19:1 39:1 43:1 47:1 64:1 67:1 73:1 74:1 76:1 80:1 83:1 
512 4:1 6:1 16:1 22:1 36:1 40:1 51:1 63:1 67:1 73:1 74:1 76:1 81:1 83:1 
512 4:1 6:1 17:1 23:1 39:1 41:1 55:1 64:1 67:1 73:1 74:1 76:1 80:1 83:1 
123.9883351116064 3:1 6:1 15:1 22:1 36:1 40:1 54:1 63:1 67:1 73:1 74:1 76:1 80:1 83:1 
512 4:1 7:1 14:1 19:1 39:1 40:1 56:1 63:1 67:1 73:1 74:1 76:1 82:1 83:1 
512 4:1 6:1 15:1 22:1 36:1 40:1 51:1 63:1 67:1 73:1 74:1 76:1 82:1 83:1 
512 5:1 7:1 15:1 22:1 36:1 40:1 50:1 63:1 68:1 73:1 74:1 76:1 82:1 93:1 
512 5:1 6:1 17:1 22:1 36:1 41:1 51:1 66:1 67:1 72:1 74:1 76:1 79:1 83:1 
512 5:1 6:1 15:1 22:1 36:1 40:1 50:1 63:1 67:1 73:1 74:1 76:1 80:1 83:1 
249.5028448645107 2:1 6:1 17:1 22:1 36:1 40:1 50:1 63:1 67:1 73:1 74:1 76:1 80:1 83:1 
512 5:1 16:1 19:1 39:1 40:1 63:1 67:1 73:1 74:1 76:1 78:1 83:1 
512 1:1 6:1 15:1 20:1 37:1 40:1 55:1 61:1 69:1 72:1 74:1 76:1 81:1 83:1 
512 3:1 6:1 17:1 32:1 39:1 41:1 52:1 66:1 67:1 72:1 74:1 76:1 82:1 83:1 
512 5:1 14:1 19:1 39:1 40:1 63:1 67:1 73:1 74:1 76:1 78:1 83:1 
512 4:1 6:1 17:1 22:1 36:1 40:1 48:1 63:1 70:1 73:1 74:1 76:1 80:1 83:1 
512 3:1 10:1 17:1 19:1 39:1 42:1 52:1 64:1 67:1 72:1 74:1 76:1 80:1 83:1 
362.6065062137423 3:1 10:1 17:1 29:1 39:1 44:1 52:1 64:1 67:1 72:1 74:1 76:1 80:1 83:1 
512 2:1 10:1 16:1 24:1 38:1 40:1 59:1 63:1 67:1 73:1 74:1 77:1 80:1 85:1 
427.995293437418 3:1 6:1 14:1 19:1 39:1 42:1 50:1 64:1 67:1 73:1 74:1 76:1 81:1 83:1 
512 5:1 10:1 14:1 22:1 36:1 40:1 51:1 63:1 69:1 73:1 74:1 76:1 82:1 83:1 
512 4:1 7:1 16:1 19:1 39:1 40:1 52:1 63:1 67:1 73:1 74:1 76:1 80:1 83:1 
512 3:1 6:1 18:1 22:1 36:1 40:1 52:1 63:1 67:1 73:1 74:1 77:1 82:1 83:1 
512 3:1 6:1 17:1 20:1 37:1 40:1 48:1 63:1 67:1 73:1 74:1 76:1 80:1 83:1 
66.93074594957295 5:1 15:1 23:1 39:1 45:1 66:1 68:1 72:1 74:1 76:1 80:1 102:1 
512 5:1 6:1 15:1 22:1 36:1 40:1 48:1 63:1 67:1 73:1 74:1 76:1 80:1 83:1 
512 4:1 10:1 14:1 19:1 39:1 41:1 52:1 66:1 67:1 73:1 74:1 76:1 82:1 83:1 
67.53509053398051 2:1 6:1 17:1 20:1 37:1 40:1 54:1 63:1 67:1 73:1 74:1 76:1 80:1 83:1 
512 5:1 6:1 18:1 22:1 36:1 40:1 51:1 63:1 67:1 73:1 74:1 76:1 78:1 83:1 
512 4:1 6:1 15:1 19:1 39:1 40:1 50:1 63:1 67:1 73:1 74:1 76:1 82:1 83:1 
512 2:1 6:1 18:1 32:1 39:1 42:1 52:1 64:1 67:1 73:1 74:1 76:1 80:1 
512 3:1 8:1 15:1 20:1 37:1 40:1 52:1 63:1 67:1 73:1 74:1 76:1 78:1 83:1 
512 5:1 6:1 18:1 19:1 39:1 40:1 54:1 63:1 67:1 73:1 74:1 76:1 80:1 83:1 
512 4:1 6:1 16:1 20:1 37:1 40:1 48:1 63:1 67:1 73:1 74:1 76:1 80:1 83:1 
512 5:1 9:1 14:1 22:1 36:1 40:1 47:1 63:1 67:1 73:1 74:1 76:1 80:1 83:1 
512 2:1 6:1 16:1 22:1 36:1 40:1 54:1 63:1 67:1 73:1 75:1 76:1 82:1 105:1 
512 5:1 7:1 17:1 22:1 36:1 40:1 48:1 63:1 67:1 73:1 74:1 76:1 82:1 83:1 
512 4:1 8:1 16:1 22:1 36:1 40:1 57:1 63:1 67:1 73:1 74:1 76:1 82:1 83:1 
512 5:1 6:1 15:1 22:1 36:1 40:1 59:1 63:1 67:1 73:1 74:1 76:1 80:1 83:1 
512 5:1 7:1 14:1 19:1 39:1 40:1 52:1 63:1 67:1 73:1 74:1 76:1 82:1 83:1 
512 4:1 6:1 14:1 22:1 36:1 40:1 57:1 63:1 67:1 73:1 74:1 76:1 82:1 83:1 
512 3:1 8:1 15:1 22:1 36:1 40:1 57:1 63:1 67:1 73:1 74:1 76:1 82:1 83:1 
512 5:1 9:1 17:1 19:1 39:1 42:1 55:1 64:1 67:1 73:1 74:1 77:1 80:1 83:1 
512 2:1 6:1 14:1 19:1 39:1 40:1 47:1 63:1 67:1 73:1 74:1 76:1 78:1 83:1 
512 4:1 6:1 14:1 19:1 39:1 42:1 55:1 62:1 67:1 72:1 74:1 76:1 79:1 83:1 
512 2:1 6:1 15:1 19:1 39:1 40:1 52:1 63:1 67:1 73:1 74:1 76:1 82:1 83:1 
512 3:1 6:1 15:1 20:1 37:1 40:1 48:1 63:1 67:1 73:1 74:1 76:1 80:1 83:1 
512 4:1 10:1 14:1 19:1 39:1 40:1 52:1 61:1 67:1 72:1 74:1 76:1 81:1 83:1 
512 4:1 6:1 18:1 22:1 36:1 40:1 57:1 63:1 67:1 73:1 74:1 76:1 80:1 83:1 
512 4:1 10:1 16:1 22:1 36:1 40:1 57:1 63:1 67:1 73:1 74:1 76:1 82:1 83:1 
512 4:1 6:1 15:1 27:1 35:1 40:1 52:1 61:1 67:1 72:1 74:1 76:1 81:1 83:1 
512 2:1 6:1 17:1 29:1 39:1 42:1 51:1 62:1 67:1 73:1 74:1 76:1 79:1 83:1 
512 4:1 6:1 16:1 22:1 36:1 40:1 48:1 63:1 67:1 73:1 74:1 76:1 80:1 83:1 
512 2:1 6:1 15:1 22:1 36:1 40:1 48:1 61:1 67:1 72:1 74:1 76:1 81:1 83:1 
512 4:1 6:1 14:1 24:1 38:1 40:1 48:1 63:1 67:1 73:1 74:1 76:1 81:1 83:1 
512 2:1 7:1 18:1 19:1 39:1 40:1 50:1 63:1 67:1 73:1 74:1 76:1 82:1 83:1 
512 5:1 18:1 20:1 37:1 40:1 63:1 67:1 73:1 74:1 76:1 80:1 83:1 
512 2:1 6:1 17:1 20:1 37:1 42:1 52:1 64:1 71:1 72:1 75:1 76:1 82:1 83:1 
512 3:1 11:1 18:1 22:1 36:1 40:1 55:1 63:1 67:1 73:1 75:1 76:1 80:1 83:1 
512 5:1 8:1 16:1 19:1 39:1 40:1 51:1 63:1 67:1 73:1 74:1 76:1 80:1 83:1 
512 4:1 6:1 18:1 20:1 37:1 40:1 56:1 61:1 67:1 72:1 74:1 76:1 78:1 83:1 
305.1899666536652 4:1 11:1 16:1 29:1 39:1 42:1 52:1 62:1 67:1 72:1 74:1 76:1 79:1 83:1 
512 5:1 6:1 17:1 22:1 36:1 40:1 53:1 63:1 71:1 73:1 74:1 76:1 80:1 
512 3:1 11:1 18:1 19:1 39:1 40:1 59:1 63:1 71:1 73:1 74:1 76:1 82:1 83:1 
512 5:1 14:1 19:1 39:1 40:1 63:1 67:1 73:1 74:1 76:1 80:1 83:1 
512 2:1 6:1 14:1 22:1 36:1 40:1 52:1 63:1 67:1 73:1 74:1 76:1 82:1 83:1 
512 5:1 6:1 15:1 22:1 36:1 40:1 51:1 61:1 67:1 72:1 74:1 76:1 80:1 83:1 
512 3:1 8:1 14:1 22:1 36:1 40:1 51:1 63:1 67:1 73:1 74:1 76:1 80:1 83:1 
512 2:1 6:1 14:1 20:1 37:1 40:1 55:1 63:1 67:1 73:1 74:1 76:1 82:1 83:1 
512 4:1 6:1 18:1 26:1 35:1 40:1 51:1 63:1 67:1 73:1 74:1 76:1 80:1 103:1 
512 3:1 6:1 15:1 20:1 37:1 40:1 55:1 63:1 67:1 73:1 74:1 76:1 82:1 83:1 
512 5:1 6:1 16:1 22:1 36:1 40:1 50:1 63:1 67:1 73:1 74:1 76:1 78:1 83:1 
512 3:1 8:1 16:1 20:1 37:1 40:1 50:1 63:1 67:1 73:1 74:1 77:1 80:1 83:1 
512 5:1 6:1 14:1 23:1 39:1 45:1 52:1 66:1 67:1 73:1 74:1 76:1 82:1 83:1 
512 2:1 11:1 16:1 29:1 39:1 40:1 52:1 63:1 67:1 73:1 74:1 76:1 78:1 83:1 
512 4:1 7:1 14:1 19:1 39:1 40:1 56:1 63:1 67:1 73:1 74:1 76:1 82:1 83:1 
512 4:1 7:1 18:1 22:1 36:1 40:1 52:1 63:1 67:1 73:1 74:1 76:1 82:1 83:1 
512 3:1 6:1 17:1 20:1 37:1 40:1 49:1 63:1 67:1 73:1 74:1 76:1 82:1 83:1 
512 2:1 6:1 18:1 31:1 35:1 40:1 51:1 61:1 67:1 72:1 74:1 76:1 79:1 83:1 
512 1:1 6:1 17:1 22:1 36:1 40:1 58:1 61:1 67:1 72:1 75:1 76:1 80:1 83:1 
512 2:1 6:1 15:1 22:1 36:1 40:1 51:1 63:1 67:1 73:1 74:1 76:1 82:1 83:1 
512 5:1 17:1 29:1 39:1 40:1 63:1 67:1 73:1 74:1 76:1 82:1 83:1 
512 4:1 6:1 17:1 19:1 39:1 42:1 52:1 64:1 71:1 73:1 74:1 76:1 80:1 83:1 
512 4:1 9:1 17:1 25:1 38:1 41:1 47:1 64:1 67:1 73:1 74:1 76:1 80:1 83:1 
512 4:1 6:1 14:1 20:1 37:1 40:1 48:1 63:1 67:1 73:1 74:1 76:1 80:1 83:1 
512 5:1 6:1 16:1 23:1 39:1 42:1 52:1 64:1 67:1 73:1 74:1 76:1 82:1 83:1 
512 4:1 6:1 15:1 22:1 36:1 40:1 51:1 61:1 67:1 72:1 74:1 76:1 80:1 83:1 
512 1:1 6:1 14:1 19:1 39:1 40:1 55:1 62:1 69:1 72:1 75:1 76:1 78:1 83:1 
512 5:1 6:1 16:1 24:1 38:1 40:1 50:1 61:1 67:1 72:1 75:1 76:1 80:1 83:1 
512 4:1 17:1 25:1 38:1 41:1 64:1 67:1 73:1 74:1 76:1 82:1 83:1 
512 3:1 6:1 17:1 22:1 36:1 40:1 48:1 63:1 67:1 73:1 74:1 76:1 82:1 83:1 
512 4:1 6:1 18:1 29:1 39:1 40:1 50:1 63:1 67:1 73:1 74:1 76:1 80:1 109:1 
512 1:1 6:1 18:1 20:1 37:1 40:1 55:1 63:1 67:1 73:1 74:1 76:1 81:1 83:1 
512 5:1 6:1 16:1 22:1 36:1 40:1 54:1 63:1 67:1 73:1 74:1 76:1 82:1 83:1 
512 3:1 11:1 18:1 19:1 39:1 40:1 51:1 63:1 67:1 73:1 74:1 76:1 79:1 83:1 
512 5:1 7:1 16:1 22:1 36:1 40:1 48:1 63:1 67:1 73:1 75:1 76:1 78:1 83:1 
471.6304929338204 3:1 6:1 14:1 19:1 39:1 42:1 55:1 64:1 67:1 72:1 74:1 76:1 81:1 83:1 
512 5:1 6:1 18:1 26:1 35:1 40:1 54:1 63:1 71:1 73:1 75:1 76:1 80:1 83:1 
444.8568904744498 3:1 6:1 16:1 19:1 39:1 42:1 51:1 64:1 67:1 73:1 74:1 76:1 78:1 87:1 
512 3:1 9:1 15:1 19:1 39:1 42:1 55:1 62:1 67:1 73:1 74:1 76:1 79:1 83:1 
512 3:1 10:1 15:1 20:1 37:1 40:1 49:1 61:1 67:1 72:1 74:1 76:1 80:1 83:1 
512 5:1 6:1 15:1 33:1 35:1 40:1 54:1 63:1 67:1 73:1 74:1 77:1 80:1 83:1 
512 5:1 6:1 15:1 22:1 36:1 40:1 48:1 63:1 67:1 73:1 74:1 76:1 80:1 83:1 
512 5:1 7:1 15:1 20:1 37:1 40:1 49:1 63:1 67:1 73:1 74:1 76:1 82:1 83:1 
512 3:1 6:1 17:1 22:1 36:1 40:1 53:1 63:1 67:1 73:1 74:1 76:1 80:1 83:1 
512 5:1 6:1 16:1 20:1 37:1 40:1 56:1 63:1 67:1 73:1 74:1 76:1 80:1 83:1 
512 2:1 7:1 15:1 20:1 37:1 40:1 50:1 63:1 67:1 73:1 74:1 76:1 82:1 83:1 
512 3:1 6:1 14:1 19:1 39:1 40:1 51:1 61:1 67:1 72:1 74:1 76:1 80:1 83:1 
512 3:1 6:1 14:1 20:1 37:1 40:1 47:1 63:1 67:1 73:1 74:1 77:1 80:1 83:1 
512 3:1 9:1 18:1 20:1 37:1 40:1 47:1 61:1 67:1 72:1 75:1 76:1 80:1 83:1 
512 2:1 6:1 16:1 24:1 38:1 40:1 51:1 63:1 67:1 73:1 74:1 76:1 80:1 83:1 
512 3:1 8:1 15:1 29:1 39:1 41:1 51:1 64:1 67:1 72:1 74:1 76:1 82:1 83:1 
512 5:1 9:1 14:1 19:1 39:1 45:1 51:1 64:1 67:1 72:1 74:1 76:1 80:1 83:1 
512 4:1 6:1 15:1 22:1 36:1 40:1 49:1 63:1 67:1 73:1 74:1 76:1 80:1 83:1 
512 5:1 8:1 18:1 29:1 39:1 41:1 51:1 64:1 71:1 72:1 74:1 76:1 82:1 83:1 
512 2:1 6:1 15:1 22:1 36:1 40:1 50:1 63:1 67:1 73:1 74:1 76:1 81:1 83:1 
512 5:1 7:1 16:1 24:1 38:1 40:1 48:1 63:1 67:1 73:1 75:1 76:1 78:1 113:1 
43.63174617073793 4:1 6:1 17:1 33:1 35:1 40:1 53:1 63:1 67:1 73:1 74:1 76:1 80:1 103:1 
512 5:1 6:1 14:1 20:1 37:1 40:1 51:1 63:1 67:1 73:1 74:1 77:1 80:1 83:1 
512 3:1 6:1 16:1 22:1 36:1 40:1 50:1 61:1 67:1 72:1 74:1 76:1 78:1 83:1 
512 5:1 6:1 15:1 20:1 37:1 40:1 48:1 63:1 67:1 73:1 74:1 76:1 82:1 83:1 
512 4:1 10:1 15:1 29:1 39:1 41:1 52:1 66:1 71:1 72:1 74:1 76:1 80:1 83:1 
512 5:1 7:1 16:1 22:1 36:1 40:1 51:1 63:1 67:1 73:1 74:1 76:1 78:1 83:1 
512 4:1 6:1 16:1 25:1 38:1 40:1 48:1 63:1 67:1 73:1 74:1 76:1 82:1 83:1 
512 4:1 10:1 14:1 24:1 38:1 40:1 52:1 63:1 67:1 73:1 74:1 76:1 82:1 83:1 
512 3:1 6:1 15:1 19:1 39:1 40:1 51:1 63:1 67:1 73:1 74:1 76:1 81:1 83:1 
512 3:1 6:1 14:1 22:1 36:1 40:1 57:1 63:1 67:1 73:1 75:1 76:1 80:1 83:1 
512 4:1 6:1 16:1 31:1 35:1 40:1 50:1 63:1 67:1 73:1 74:1 77:1 82:1 83:1 
512 2:1 7:1 16:1 25:1 38:1 40:1 56:1 63:1 67:1 73:1 74:1 76:1 82:1 83:1 
487.6737696549302 5:1 7:1 14:1 22:1 36:1 40:1 56:1 63:1 67:1 73:1 74:1 76:1 82:1 83:1 
512 3:1 7:1 17:1 22:1 36:1 40:1 56:1 63:1 67:1 73:1 74:1 76:1 81:1 83:1 
512 5:1 10:1 18:1 25:1 38:1 40:1 57:1 63:1 71:1 73:1 74:1 76:1 80:1 83:1 
253.1479566727079 4:1 6:1 16:1 22:1 36:1 40:1 49:1 63:1 68:1 73:1 74:1 76:1 80:1 94:1 
512 4:1 6:1 18:1 22:1 36:1 41:1 50:1 66:1 71:1 73:1 75:1 76:1 80:1 83:1 
512 2:1 11:1 16:1 32:1 39:1 42:1 52:1 64:1 67:1 72:1 74:1 76:1 82:1 83:1 
512 5:1 9:1 14:1 19:1 39:1 40:1 51:1 63:1 67:1 73:1 74:1 76:1 80:1 83:1 
512 3:1 6:1 15:1 20:1 37:1 40:1 52:1 63:1 67:1 73:1 74:1 76:1 80:1 83:1 
512 3:1 10:1 17:1 24:1 38:1 40:1 52:1 63:1 67:1 73:1 74:1 76:1 82:1 83:1 
512 4:1 6:1 14:1 22:1 36:1 40:1 55:1 63:1 67:1 73:1 74:1 76:1 78:1 83:1 
512 3:1 10:1 14:1 20:1 37:1 40:1 59:1 63:1 67:1 73:1 74:1 76:1 82:1 83:1 
512 3:1 6:1 18:1 22:1 36:1 40:1 50:1 63:1 67:1 73:1 74:1 76:1 82:1 83:1 
147.2373904774254 3:1 6:1 16:1 22:1 36:1 40:1 54:1 63:1 67:1 73:1 74:1 76:1 80:1 83:1 
512 3:1 6:1 14:1 20:1 37:1 40:1 48:1 63:1 67:1 73:1 74:1 76:1 82:1 83:1 
512 1:1 7:1 14:1 19:1 39:1 40:1 51:1 61:1 67:1 72:1 74:1 76:1 80:1 83:1 
512 4:1 10:1 16:1 19:1 39:1 40:1 52:1 63:1 67:1 73:1 74:1 76:1 82:1 83:1 
512 4:1 6:1 14:1 22:1 36:1 42:1 54:1 64:1 67:1 73:1 75:1 76:1 81:1 83:1 
512 5:1 7:1 14:1 20:1 37:1 40:1 56:1 63:1 67:1 73:1 74:1 76:1 82:1 83:1 
512 5:1 10:1 14:1 20:1 37:1 40:1 57:1 63:1 67:1 73:1 74:1 76:1 80:1 83:1 
512 3:1 9:1 18:1 29:1 39:1 42:1 47:1 64:1 67:1 72:1 74:1 76:1 80:1 83:1 
512 4:1 6:1 17:1 22:1 36:1 40:1 54:1 63:1 67:1 73:1 74:1 76:1 80:1 83:1 
394.4508643306993 2:1 6:1 16:1 24:1 38:1 40:1 55:1 63:1 67:1 73:1 74:1 76:1 80:1 99:1 
512 3:1 6:1 14:1 25:1 38:1 40:1 55:1 63:1 67:1 73:1 74:1 76:1 80:1 83:1 
512 5:1 7:1 15:1 22:1 36:1 40:1 57:1 63:1 67:1 73:1 74:1 76:1 82:1 83:1 
56.26626534982749 2:1 6:1 17:1 19:1 39:1 42:1 53:1 66:1 67:1 73:1 74:1 76:1 79:1 83:1 
512 4:1 10:1 18:1 19:1 39:1 42:1 52:1 62:1 67:1 73:1 74:1 76:1 82:1 83:1 
135.072721929666 1:1 11:1 17:1 20:1 37:1 40:1 55:1 63:1 71:1 73:1 74:1 76:1 79:1 83:1 
512 5:1 6:1 18:1 22:1 36:1 40:1 54:1 61:1 67:1 72:1 75:1 76:1 80:1 119:1 
403.4874091400359 5:1 7:1 18:1 31:1 35:1 40:1 50:1 63:1 67:1 73:1 74:1 76:1 79:1 83:1 
512 5:1 6:1 16:1 22:1 36:1 40:1 54:1 63:1 67:1 73:1 75:1 76:1 81:1 83:1 
512 4:1 6:1 14:1 20:1 37:1 40:1 48:1 63:1 67:1 73:1 74:1 76:1 82:1 83:1 
512 3:1 6:1 18:1 25:1 38:1 40:1 56:1 63:1 67:1 73:1 74:1 76:1 82:1 83:1 
512 5:1 11:1 14:1 19:1 39:1 45:1 52:1 64:1 67:1 73:1 75:1 76:1 80:1 83:1 
512 4:1 10:1 15:1 22:1 36:1 40:1 59:1 63:1 67:1 73:1 74:1 76:1 82:1 83:1 
512 3:1 6:1 15:1 25:1 38:1 40:1 48:1 63:1 67:1 73:1 74:1 76:1 80:1 83:1 
512 4:1 6:1 15:1 24:1 38:1 43:1 51:1 64:1 67:1 73:1 74:1 76:1 80:1 83:1 
512 2:1 6:1 15:1 32:1 39:1 40:1 52:1 61:1 67:1 72:1 74:1 76:1 82:1 83:1 
512 5:1 6:1 14:1 20:1 37:1 40:1 51:1 61:1 67:1 72:1 74:1 76:1 81:1 83:1 
512 5:1 8:1 15:1 22:1 36:1 40:1 50:1 63:1 67:1 73:1 74:1 76:1 82:1 83:1 
52.63034502232225 1:1 6:1 16:1 31:1 35:1 40:1 49:1 63:1 67:1 73:1 75:1 76:1 80:1 83:1 
512 3:1 6:1 15:1 22:1 36:1 40:1 54:1 63:1 67:1 73:1 74:1 76:1 80:1 83:1 
512 4:1 6:1 14:1 21:1 35:1 40:1 49:1 61:1 67:1 72:1 74:1 76:1 80:1 83:1 
512 4:1 6:1 17:1 22:1 36:1 40:1 48:1 63:1 71:1 73:1 74:1 76:1 80:1 83:1 
512 3:1 6:1 18:1 19:1 39:1 42:1 51:1 64:1 67:1 72:1 75:1 76:1 82:1 83:1 
512 3:1 6:1 15:1 19:1 39:1 44:1 51:1 66:1 67:1 72:1 74:1 76:1 80:1 83:1 
512 5:1 6:1 17:1 20:1 37:1 40:1 50:1 63:1 67:1 73:1 74:1 76:1 78:1 83:1 
512 4:1 6:1 15:1 31:1 35:1 40:1 57:1 63:1 67:1 73:1 74:1 76:1 82:1 83:1 
512 3:1 6:1 16:1 19:1 39:1 40:1 48:1 63:1 67:1 73:1 74:1 76:1 80:1 83:1 
93.41907670800016 3:1 6:1 17:1 26:1 35:1 40:1 53:1 63:1 67:1 73:1 74:1 76:1 80:1 83:1 
512 3:1 6:1 16:1 24:1 38:1 40:1 59:1 63:1 71:1 73:1 74:1 76:1 82:1 83:1 
382.8862253764522 4:1 8:1 17:1 27:1 35:1 40:1 48:1 63:1 67:1 73:1 74:1 76:1 80:1 
512 4:1 17:1 22:1 36:1 40:1 63:1 67:1 73:1 74:1 76:1 80:1 83:1 
512 2:1 6:1 18:1 19:1 39:1 40:1 51:1 63:1 67:1 73:1 74:1 76:1 82:1 83:1 
368.8142526160871 1:1 8:1 16:1 19:1 39:1 42:1 51:1 62:1 68:1 73:1 74:1 76:1 79:1 110:1 
512 3:1 6:1 17:1 24:1 38:1 40:1 51:1 63:1 67:1 73:1 74:1 76:1 80:1 86:1 
512 2:1 6:1 15:1 20:1 37:1 40:1 53:1 63:1 67:1 73:1 74:1 76:1 80:1 100:1 
512 4:1 7:1 16:1 22:1 36:1 40:1 48:1 63:1 67:1 73:1 74:1 76:1 82:1 85:1 
428.1878673581251 2:1 6:1 15:1 33:1 35:1 40:1 54:1 63:1 67:1 73:1 75:1 76:1 80:1 103:1 
512 4:1 10:1 17:1 22:1 36:1 40:1 57:1 63:1 71:1 73:1 74:1 76:1 80:1 83:1 
512 4:1 6:1 14:1 29:1 39:1 44:1 52:1 64:1 67:1 72:1 75:1 76:1 82:1 83:1 
512 5:1 16:1 22:1 36:1 40:1 63:1 67:1 73:1 75:1 76:1 78:1 83:1 
512 5:1 6:1 18:1 19:1 39:1 40:1 52:1 63:1 67:1 73:1 74:1 76:1 82:1 83:1 
512 4:1 6:1 16:1 22:1 36:1 40:1 48:1 63:1 68:1 73:1 74:1 76:1 80:1 110:1 
512 2:1 8:1 14:1 19:1 39:1 40:1 50:1 63:1 67:1 73:1 74:1 76:1 80:1 83:1 
512 5:1 10:1 14:1 19:1 39:1 40:1 52:1 61:1 67:1 72:1 74:1 76:1 80:1 83:1 
512 4:1 10:1 17:1 22:1 36:1 40:1 57:1 63:1 67:1 73:1 74:1 76:1 80:1 83:1 
512 3:1 11:1 14:1 20:1 37:1 40:1 51:1 63:1 67:1 73:1 74:1 76:1 79:1 83:1 
512 3:1 6:1 14:1 19:1 39:1 40:1 50:1 61:1 67:1 73:1 74:1 76:1 82:1 
512 3:1 11:1 17:1 29:1 39:1 40:1 52:1 63:1 68:1 73:1 74:1 76:1 78:1 90:1 
512 4:1 6:1 17:1 19:1 39:1 41:1 51:1 64:1 67:1 73:1 74:1 76:1 79:1 83:1 
512 2:1 8:1 15:1 22:1 36:1 40:1 50:1 63:1 67:1 73:1 74:1 76:1 82:1 83:1 
512 5:1 6:1 14:1 22:1 36:1 40:1 51:1 63:1 67:1 73:1 74:1 76:1 82:1 83:1 
512 3:1 6:1 15:1 22:1 36:1 40:1 50:1 63:1 67:1 73:1 74:1 76:1 82:1 83:1 
512 4:1 6:1 18:1 22:1 36:1 40:1 57:1 63:1 67:1 73:1 75:1 76:1 81:1 83:1 
512 5:1 10:1 18:1 19:1 39:1 44:1 52:1 64:1 71:1 72:1 74:1 77:1 78:1 83:1 
512 5:1 7:1 17:1 22:1 36:1 40:1 56:1 63:1 67:1 73:1 74:1 76:1 80:1 83:1 
512 2:1 6:1 17:1 20:1 37:1 40:1 47:1 61:1 67:1 72:1 74:1 76:1 80:1 83:1 
512 5:1 6:1 17:1 19:1 39:1 43:1 55:1 66:1 67:1 72:1 74:1 76:1 80:1 83:1 
512 5:1 6:1 16:1 29:1 39:1 40:1 53:1 63:1 67:1 73:1 74:1 76:1 81:1 83:1 
512 5:1 10:1 14:1 20:1 37:1 40:1 59:1 63:1 67:1 73:1 75:1 76:1 81:1 83:1 
512 2:1 6:1 18:1 22:1 36:1 40:1 57:1 63:1 67:1 73:1 75:1 76:1 81:1 83:1 
512 4:1 11:1 15:1 20:1 37:1 40:1 51:1 63:1 67:1 73:1 74:1 77:1 80:1 83:1 
512 5:1 6:1 17:1 22:1 36:1 40:1 49:1 63:1 67:1 73:1 74:1 76:1 80:1 83:1 
375.2820032709357 3:1 6:1 16:1 21:1 35:1 40:1 48:1 63:1 67:1 73:1 74:1 76:1 79:1 83:1 
169.2634693237792 4:1 10:1 15:1 29:1 39:1 41:1 52:1 64:1 69:1 73:1 74:1 76:1 80:1 83:1 
512 4:1 6:1 17:1 20:1 37:1 40:1 51:1 63:1 67:1 73:1 74:1 76:1 80:1 86:1 
512 3:1 6:1 18:1 19:1 39:1 41:1 51:1 64:1 67:1 73:1 74:1 77:1 80:1 83:1 
512 5:1 10:1 17:1 22:1 36:1 40:1 59:1 63:1 67:1 73:1 75:1 76:1 80:1 83:1 
512 4:1 6:1 14:1 25:1 38:1 40:1 49:1 63:1 67:1 73:1 74:1 76:1 81:1 83:1 
512 3:1 6:1 17:1 20:1 37:1 40:1 53:1 63:1 71:1 73:1 74:1 76:1 80:1 83:1 
512 3:1 6:1 18:1 29:1 39:1 42:1 51:1 66:1 67:1 73:1 74:1 76:1 80:1 83:1 
512 2:1 6:1 17:1 22:1 36:1 40:1 55:1 63:1 67:1 73:1 74:1 76:1 79:1 83:1 
512 2:1 6:1 17:1 21:1 35:1 40:1 53:1 63:1 67:1 73:1 75:1 76:1 80:1 83:1 
512 4:1 6:1 16:1 29:1 39:1 40:1 52:1 63:1 67:1 73:1 74:1 76:1 80:1 83:1 
263.0754087365162 5:1 6:1 17:1 29:1 39:1 41:1 52:1 64:1 67:1 73:1 74:1 76:1 78:1 83:1 
512 3:1 6:1 15:1 20:1 37:1 40:1 48:1 63:1 67:1 73:1 74:1 76:1 80:1 83:1 
512 4:1 8:1 15:1 19:1 39:1 41:1 51:1 64:1 67:1 72:1 74:1 76:1 82:1 83:1 
512 4:1 6:1 18:1 22:1 36:1 40:1 54:1 63:1 67:1 73:1 74:1 76:1 80:1 83:1 
460.2733071461053 2:1 11:1 18:1 19:1 39:1 40:1 52:1 63:1 67:1 73:1 74:1 76:1 78:1 83:1 
512 3:1 6:1 16:1 19:1 39:1 42:1 50:1 64:1 67:1 72:1 74:1 77:1 80:1 83:1 
512 5:1 11:1 17:1 19:1 39:1 41:1 55:1 64:1 71:1 72:1 74:1 76:1 79:1 83:1 
512 5:1 7:1 14:1 22:1 36:1 40:1 56:1 63:1 67:1 73:1 75:1 76:1 80:1 83:1 
512 4:1 7:1 15:1 24:1 38:1 40:1 48:1 63:1 67:1 73:1 74:1 77:1 82:1 83:1 
16.3658018313232 2:1 6:1 16:1 22:1 36:1 40:1 48:1 63:1 67:1 73:1 74:1 76:1 81:1 83:1 
512 3:1 6:1 16:1 19:1 39:1 40:1 52:1 63:1 71:1 73:1 74:1 76:1 82:1 
512 3:1 6:1 16:1 19:1 39:1 44:1 52:1 66:1 67:1 72:1 74:1 76:1 81:1 83:1 
512 5:1 6:1 17:1 20:1 37:1 40:1 50:1 63:1 67:1 73:1 74:1 76:1 80:1 83:1 
194.4500735930002 3:1 6:1 16:1 27:1 35:1 40:1 47:1 63:1 67:1 73:1 74:1 76:1 80:1 103:1 
512 2:1 8:1 17:1 19:1 39:1 40:1 48:1 63:1 67:1 73:1 74:1 76:1 82:1 87:1 
512 3:1 11:1 15:1 19:1 39:1 40:1 50:1 63:1 67:1 73:1 74:1 76:1 80:1 83:1 
512 4:1 10:1 16:1 22:1 36:1 40:1 48:1 63:1 67:1 73:1 74:1 76:1 80:1 83:1 
512 5:1 6:1 16:1 22:1 36:1 40:1 57:1 63:1 67:1 73:1 74:1 76:1 82:1 83:1 
512 5:1 6:1 14:1 19:1 39:1 40:1 47:1 63:1 67:1 73:1 74:1 76:1 80:1 83:1 
512 4:1 7:1 17:1 25:1 38:1 40:1 52:1 63:1 67:1 73:1 74:1 76:1 78:1 83:1 
512 2:1 6:1 15:1 22:1 36:1 40:1 54:1 61:1 67:1 72:1 74:1 76:1 80:1 83:1 
-512 5:1 11:1 15:1 32:1 39:1 40:1 52:1 63:1 67:1 73:1 74:1 76:1 78:1 83:1 
-512 5:1 18:1 19:1 39:1 40:1 63:1 67:1 73:1 74:1 76:1 80:1 83:1 
-512 5:1 6:1 14:1 27:1 35:1 42:1 57:1 64:1 67:1 73:1 74:1 76:1 82:1 83:1 
-512 3:1 6:1 17:1 19:1 39:1 42:1 50:1 64:1 70:1 72:1 74:1 76:1 82:1 83:1 
-512 4:1 6:1 14:1 29:1 39:1 42:1 47:1 64:1 67:1 73:1 74:1 76:1 79:1 83:1 
-512 5:1 6:1 15:1 22:1 36:1 40:1 49:1 63:1 67:1 73:1 74:1 76:1 80:1 83:1 
-512 3:1 6:1 16:1 21:1 35:1 40:1 54:1 63:1 67:1 73:1 75:1 76:1 81:1 83:1 
-512 5:1 7:1 18:1 19:1 39:1 40:1 50:1 63:1 67:1 73:1 74:1 76:1 80:1 87:1 
-512 5:1 6:1 15:1 22:1 36:1 40:1 50:1 63:1 67:1 73:1 74:1 76:1 82:1 83:1 
-512 5:1 6:1 15:1 20:1 37:1 40:1 57:1 63:1 67:1 73:1 74:1 76:1 78:1 83:1 
-512 3:1 6:1 17:1 22:1 36:1 40:1 51:1 63:1 67:1 73:1 74:1 76:1 80:1 83:1 
-512 3:1 6:1 18:1 22:1 36:1 40:1 51:1 63:1 67:1 73:1 74:1 76:1 82:1 83:1 
-512 2:1 6:1 18:1 22:1 36:1 40:1 50:1 63:1 67:1 73:1 74:1 76:1 82:1 83:1 
-512 2:1 6:1 16:1 20:1 37:1 40:1 47:1 63:1 67:1 73:1 75:1 76:1 80:1 83:1 
-512 4:1 6:1 16:1 22:1 36:1 40:1 49:1 61:1 71:1 72:1 74:1 76:1 80:1 83:1 
-512 4:1 6:1 14:1 20:1 37:1 40:1 47:1 63:1 67:1 73:1 74:1 76:1 78:1 83:1 
-512 5:1 10:1 16:1 29:1 39:1 40:1 52:1 63:1 67:1 73:1 74:1 76:1 80:1 83:1 
-512 3:1 7:1 18:1 19:1 39:1 40:1 50:1 63:1 67:1 73:1 74:1 76:1 81:1 83:1 
-512 2:1 6:1 14:1 22:1 36:1 40:1 48:1 63:1 67:1 73:1 74:1 76:1 80:1 83:1 
-512 5:1 10:1 17:1 21:1 35:1 40:1 48:1 63:1 71:1 73:1 74:1 76:1 80:1 83:1 
-512 4:1 6:1 15:1 22:1 36:1 40:1 50:1 63:1 67:1 73:1 74:1 76:1 82:1 83:1 
-512 5:1 6:1 17:1 25:1 38:1 40:1 51:1 63:1 67:1 73:1 74:1 76:1 80:1 88:1 
-512 3:1 6:1 17:1 29:1 39:1 40:1 52:1 63:1 67:1 73:1 74:1 76:1 79:1 83:1 
-512 2:1 10:1 18:1 32:1 39:1 42:1 52:1 64:1 67:1 73:1 74:1 76:1 82:1 103:1 
-512 4:1 6:1 16:1 22:1 36:1 40:1 48:1 63:1 67:1 73:1 75:1 76:1 81:1 83:1 
-512 5:1 7:1 18:1 19:1 39:1 40:1 47:1 61:1 67:1 72:1 74:1 76:1 82:1 83:1 
-512 4:1 6:1 17:1 20:1 37:1 40:1 48:1 63:1 71:1 73:1 74:1 76:1 80:1 83:1 
-512 3:1 6:1 16:1 29:1 39:1 40:1 50:1 63:1 67:1 73:1 74:1 76:1 82:1 83:1 
-512 5:1 6:1 16:1 19:1 39:1 41:1 51:1 64:1 71:1 73:1 75:1 76:1 80:1 83:1 
-512 3:1 6:1 14:1 20:1 37:1 40:1 47:1 63:1 67:1 73:1 74:1 76:1 82:1 83:1 
-512 3:1 6:1 14:1 22:1 36:1 40:1 57:1 63:1 67:1 73:1 75:1 76:1 82:1 83:1 
-512 4:1 6:1 14:1 25:1 38:1 40:1 50:1 63:1 67:1 73:1 74:1 77:1 82:1 83:1 
-512 5:1 9:1 14:1 22:1 36:1 40:1 55:1 63:1 67:1 73:1 74:1 76:1 80:1 83:1 
-512 5:1 16:1 20:1 37:1 40:1 61:1 67:1 72:1 74:1 76:1 81:1 83:1 
-512 5:1 6:1 14:1 22:1 36:1 40:1 53:1 63:1 67:1 73:1 74:1 76:1 80:1 83:1 
-512 4:1 6:1 17:1 22:1 36:1 40:1 47:1 63:1 67:1 73:1 74:1 76:1 81:1 83:1 
-512 5:1 6:1 15:1 24:1 38:1 40:1 51:1 61:1 71:1 72:1 74:1 76:1 80:1 83:1 
-512 2:1 10:1 15:1 19:1 39:1 42:1 52:1 64:1 71:1 73:1 75:1 76:1 81:1 
-512 5:1 7:1 14:1 22:1 36:1 40:1 51:1 63:1 67:1 73:1 75:1 76:1 82:1 83:1 
-512 4:1 8:1 15:1 19:1 39:1 40:1 50:1 63:1 67:1 73:1 74:1 76:1 82:1 83:1 
-512 3:1 8:1 17:1 22:1 36:1 40:1 48:1 63:1 67:1 73:1 74:1 76:1 82:1 
-512 4:1 6:1 18:1 20:1 37:1 40:1 57:1 63:1 67:1 73:1 74:1 76:1 82:1 83:1 
-512 3:1 6:1 17:1 22:1 36:1 40:1 54:1 63:1 67:1 73:1 74:1 76:1 82:1 83:1 
-512 3:1 10:1 17:1 29:1 39:1 40:1 52:1 61:1 67:1 72:1 74:1 76:1 80:1 83:1 
-512 1:1 6:1 16:1 19:1 39:1 40:1 51:1 61:1 67:1 72:1 74:1 76:1 78:1 83:1 
-512 4:1 6:1 15:1 20:1 37:1 40:1 50:1 63:1 67:1 73:1 75:1 76:1 80:1 83:1 
-512 5:1 8:1 17:1 20:1 37:1 40:1 51:1 63:1 67:1 73:1 74:1 76:1 80:1 83:1 
-512 4:1 6:1 15:1 29:1 39:1 40:1 47:1 63:1 67:1 73:1 74:1 76:1 78:1 83:1 
-512 2:1 6:1 15:1 20:1 37:1 40:1 56:1 63:1 67:1 73:1 74:1 76:1 82:1 83:1 
-512 3:1 6:1 15:1 20:1 37:1 40:1 51:1 63:1 67:1 73:1 75:1 76:1 80:1 83:1 
-512 3:1 6:1 17:1 20:1 37:1 40:1 55:1 61:1 67:1 72:1 74:1 76:1 79:1 83:1 
-512 3:1 7:1 14:1 19:1 39:1 40:1 52:1 63:1 67:1 73:1 74:1 76:1 82:1 83:1 
-512 5:1 7:1 14:1 27:1 35:1 45:1 55:1 64:1 67:1 73:1 74:1 76:1 78:1 99:1 
-512 2:1 6:1 16:1 22:1 36:1 40:1 54:1 63:1 67:1 73:1 74:1 76:1 80:1 83:1 
-512 4:1 10:1 17:1 20:1 37:1 40:1 48:1 63:1 67:1 73:1 74:1 76:1 80:1 83:1 
-512 3:1 6:1 15:1 19:1 39:1 40:1 50:1 63:1 67:1 73:1 74:1 76:1 82:1 83:1 
-393.6638921968883 5:1 6:1 18:1 19:1 39:1 40:1 51:1 63:1 67:1 73:1 74:1 76:1 82:1 83:1 
-512 2:1 7:1 17:1 22:1 36:1 40:1 48:1 63:1 67:1 73:1 74:1 76:1 80:1 83:1 
-512 2:1 6:1 15:1 20:1 37:1 40:1 51:1 63:1 67:1 73:1 74:1 76:1 80:1 83:1 
-512 3:1 6:1 17:1 19:1 39:1 40:1 52:1 63:1 67:1 73:1 74:1 76:1 80:1 83:1 
-512 1:1 6:1 18:1 27:1 35:1 42:1 49:1 64:1 67:1 73:1 74:1 76:1 82:1 83:1 
-512 4:1 6:1 14:1 20:1 37:1 40:1 50:1 63:1 67:1 73:1 74:1 76:1 81:1 83:1 
-512 3:1 6:1 15:1 19:1 39:1 40:1 54:1 63:1 67:1 73:1 74:1 76:1 82:1 83:1 
-512 3:1 6:1 17:1 23:1 39:1 43:1 52:1 64:1 67:1 73:1 74:1 76:1 79:1 83:1 
-512 2:1 9:1 18:1 19:1 39:1 40:1 51:1 63:1 67:1 73:1 74:1 76:1 80:1 83:1 
-512 2:1 6:1 17:1 19:1 39:1 40:1 51:1 63:1 67:1 73:1 74:1 76:1 80:1 83:1 
-512 4:1 6:1 16:1 22:1 36:1 40:1 57:1 63:1 67:1 73:1 74:1 76:1 82:1 83:1 
-512 4:1 7:1 16:1 20:1 37:1 40:1 48:1 63:1 67:1 73:1 74:1 77:1 80:1 83:1 
-512 4:1 7:1 14:1 22:1 36:1 40:1 51:1 63:1 67:1 73:1 74:1 76:1 80:1 83:1 
-512 2:1 6:1 16:1 19:1 39:1 46:1 51:1 61:1 67:1 72:1 74:1 76:1 80:1 83:1 
-512 4:1 6:1 15:1 25:1 38:1 40:1 55:1 61:1 67:1 72:1 74:1 76:1 80:1 83:1 
-512 5:1 7:1 16:1 22:1 36:1 42:1 56:1 64:1 67:1 73:1 75:1 76:1 80:1 83:1 
-512 3:1 9:1 16:1 23:1 39:1 42:1 52:1 64:1 67:1 72:1 74:1 76:1 82:1 83:1 
-512 2:1 7:1 16:1 22:1 36:1 40:1 57:1 63:1 67:1 73:1 75:1 76:1 80:1 83:1 
-512 4:1 7:1 14:1 29:1 39:1 40:1 56:1 63:1 67:1 73:1 74:1 76:1 80:1 83:1 
-512 2:1 6:1 17:1 22:1 36:1 40:1 54:1 63:1 67:1 73:1 74:1 76:1 82:1 83:1 
-512 3:1 6:1 14:1 19:1 39:1 40:1 57:1 63:1 67:1 73:1 75:1 76:1 82:1 83:1 
-512 3:1 6:1 18:1 32:1 39:1 42:1 52:1 64:1 67:1 73:1 74:1 76:1 80:1 110:1 
-512 4:1 6:1 16:1 32:1 39:1 42:1 52:1 64:1 67:1 73:1 74:1 76:1 79:1 83:1 
-512 4:1 6:1 17:1 25:1 38:1 40:1 54:1 63:1 67:1 73:1 74:1 76:1 80:1 83:1 
-512 5:1 6:1 14:1 19:1 39:1 40:1 50:1 63:1 67:1 73:1 75:1 76:1 78:1 83:1 
-512 3:1 6:1 17:1 19:1 39:1 40:1 47:1 63:1 67:1 73:1 74:1 76:1 82:1 83:1 
-512 3:1 6:1 16:1 20:1 37:1 40:1 51:1 63:1 67:1 73:1 74:1 76:1 82:1 83:1 
-512 2:1 6:1 17:1 22:1 36:1 40:1 53:1 61:1 67:1 72:1 74:1 76:1 80:1 103:1 
-512 5:1 7:1 14:1 23:1 39:1 40:1 52:1 63:1 67:1 73:1 74:1 76:1 82:1 85:1 
-512 3:1 6:1 18:1 19:1 39:1 40:1 51:1 63:1 67:1 73:1 74:1 76:1 82:1 83:1 
-512 4:1 10:1 15:1 29:1 39:1 41:1 52:1 66:1 71:1 72:1 75:1 76:1 80:1 83:1 
-512 5:1 16:1 22:1 36:1 40:1 63:1 67:1 73:1 74:1 76:1 80:1 83:1 
-512 2:1 10:1 17:1 22:1 36:1 40:1 59:1 63:1 67:1 73:1 74:1 76:1 81:1 83:1 
-512 3:1 6:1 15:1 22:1 36:1 40:1 54:1 63:1 68:1 73:1 74:1 76:1 80:1 
-512 4:1 6:1 16:1 22:1 36:1 40:1 54:1 63:1 67:1 73:1 74:1 76:1 81:1 83:1 
-512 4:1 6:1 14:1 22:1 36:1 40:1 53:1 63:1 67:1 73:1 74:1 76:1 82:1 83:1 
-512 5:1 6:1 16:1 22:1 36:1 40:1 48:1 63:1 67:1 73:1 74:1 76:1 80:1 83:1 
-512 5:1 11:1 14:1 25:1 38:1 41:1 47:1 64:1 67:1 73:1 74:1 77:1 79:1 83:1 
-512 4:1 11:1 15:1 22:1 36:1 41:1 55:1 66:1 67:1 72:1 74:1 76:1 82:1 83:1 
-512 5:1 6:1 18:1 20:1 37:1 40:1 57:1 63:1 67:1 73:1 75:1 76:1 78:1 83:1 
-512 4:1 10:1 17:1 22:1 36:1 40:1 54:1 63:1 71:1 73:1 74:1 76:1 80:1 83:1 
-512 5:1 9:1 16:1 22:1 36:1 40:1 47:1 63:1 67:1 73:1 74:1 77:1 80:1 83:1 
-512 4:1 6:1 16:1 22:1 36:1 40:1 54:1 63:1 67:1 73:1 74:1 76:1 80:1 83:1 
-512 5:1 6:1 14:1 21:1 35:1 40:1 50:1 63:1 67:1 73:1 75:1 76:1 78:1 83:1 
-512 3:1 7:1 14:1 22:1 36:1 41:1 56:1 64:1 67:1 73:1 75:1 76:1 80:1 83:1 
-512 3:1 11:1 14:1 22:1 36:1 40:1 54:1 63:1 67:1 73:1 74:1 76:1 80:1 83:1 
-512 5:1 6:1 15:1 22:1 36:1 40:1 48:1 63:1 67:1 73:1 74:1 76:1 82:1 83:1 
-512 3:1 6:1 14:1 24:1 38:1 40:1 51:1 63:1 67:1 73:1 74:1 76:1 80:1 83:1 
-512 3:1 10:1 14:1 20:1 37:1 40:1 55:1 61:1 67:1 72:1 74:1 76:1 80:1 83:1 
-512 4:1 6:1 15:1 25:1 38:1 40:1 56:1 63:1 67:1 73:1 74:1 76:1 80:1 83:1 
-512 4:1 6:1 18:1 20:1 37:1 40:1 50:1 63:1 67:1 73:1 74:1 76:1 81:1 83:1 
-512 2:1 6:1 16:1 20:1 37:1 40:1 57:1 63:1 67:1 73:1 74:1 76:1 82:1 83:1 
-512 4:1 10:1 15:1 20:1 37:1 40:1 59:1 63:1 67:1 73:1 74:1 76:1 80:1 83:1 
-512 5:1 6:1 18:1 22:1 36:1 40:1 48:1 63:1 67:1 73:1 74:1 76:1 79:1 83:1 
-512 3:1 6:1 18:1 22:1 36:1 41:1 51:1 66:1 67:1 72:1 74:1 76:1 80:1 83:1 
-512 2:1 6:1 17:1 22:1 36:1 40:1 57:1 63:1 67:1 73:1 74:1 76:1 82:1 83:1 
-512 3:1 10:1 16:1 26:1 35:1 40:1 49:1 61:1 67:1 72:1 74:1 76:1 80:1 118:1 
-512 5:1 7:1 15:1 22:1 36:1 41:1 51:1 64:1 67:1 72:1 75:1 76:1 79:1 83:1 
-512 4:1 6:1 16:1 20:1 37:1 40:1 50:1 63:1 67:1 73:1 74:1 76:1 80:1 83:1 
-512 2:1 6:1 16:1 20:1 37:1 40:1 53:1 63:1 67:1 73:1 74:1 76:1 80:1 83:1 
-512 3:1 6:1 17:1 19:1 39:1 40:1 47:1 63:1 67:1 73:1 74:1 76:1 80:1 83:1 
-512 3:1 10:1 17:1 24:1 38:1 40:1 51:1 63:1 67:1 73:1 74:1 76:1 80:1 83:1 
-512 3:1 6:1 16:1 25:1 38:1 40:1 48:1 63:1 67:1 73:1 75:1 76:1 80:1 83:1 
-512 5:1 7:1 15:1 23:1 39:1 40:1 52:1 63:1 67:1 73:1 74:1 76:1 82:1 83:1 
-512 2:1 6:1 15:1 19:1 39:1 40:1 52:1 61:1 67:1 72:1 74:1 77:1 78:1 83:1 
-512 5:1 6:1 14:1 19:1 39:1 42:1 49:1 64:1 68:1 72:1 74:1 76:1 78:1 91:1 
-512 5:1 6:1 17:1 22:1 36:1 40:1 51:1 63:1 67:1 73:1 74:1 76:1 82:1 83:1 
-512 3:1 6:1 15:1 22:1 36:1 40:1 54:1 61:1 67:1 72:1 74:1 76:1 81:1 83:1 
-512 2:1 6:1 15:1 29:1 39:1 43:1 51:1 64:1 67:1 73:1 74:1 77:1 82:1 83:1 
-0.07708718331695508 2:1 6:1 15:1 23:1 39:1 40:1 52:1 61:1 67:1 72:1 74:1 76:1 82:1 83:1 
-512 5:1 6:1 16:1 22:1 36:1 40:1 57:1 63:1 67:1 73:1 74:1 77:1 82:1 83:1 
-512 4:1 9:1 14:1 22:1 36:1 40:1 55:1 63:1 67:1 73:1 74:1 76:1 80:1 83:1 
-512 3:1 9:1 15:1 22:1 36:1 40:1 55:1 63:1 67:1 73:1 74:1 76:1 80:1 83:1 
-512 3:1 6:1 17:1 22:1 36:1 40:1 51:1 63:1 67:1 73:1 74:1 76:1 81:1 83:1 
-512 4:1 10:1 17:1 19:1 39:1 41:1 59:1 64:1 71:1 73:1 74:1 76:1 82:1 83:1 
-512 3:1 10:1 16:1 20:1 37:1 40:1 59:1 63:1 67:1 73:1 74:1 76:1 82:1 83:1 
-512 5:1 6:1 15:1 19:1 39:1 42:1 55:1 64:1 67:1 72:1 75:1 76:1 80:1 83:1 
-512 3:1 6:1 14:1 23:1 39:1 42:1 52:1 64:1 67:1 72:1 75:1 76:1 82:1 83:1 
-512 4:1 9:1 17:1 20:1 37:1 40:1 53:1 63:1 67:1 73:1 74:1 76:1 80:1 83:1 
-512 3:1 6:1 16:1 20:1 37:1 40:1 54:1 63:1 68:1 73:1 74:1 76:1 82:1 83:1 
-512 4:1 9:1 15:1 20:1 37:1 40:1 48:1 63:1 67:1 73:1 74:1 76:1 80:1 83:1 
-512 5:1 11:1 18:1 20:1 37:1 40:1 54:1 63:1 71:1 73:1 74:1 76:1 80:1 83:1 
-512 3:1 6:1 17:1 25:1 38:1 42:1 51:1 64:1 67:1 73:1 74:1 76:1 82:1 83:1 
-512 2:1 8:1 16:1 22:1 36:1 40:1 56:1 63:1 67:1 73:1 74:1 77:1 82:1 83:1 
-512 3:1 6:1 17:1 22:1 36:1 40:1 48:1 63:1 67:1 73:1 75:1 76:1 80:1 83:1 
-512 4:1 7:1 18:1 19:1 39:1 41:1 49:1 66:1 68:1 72:1 74:1 76:1 82:1 93:1 
-512 5:1 6:1 18:1 19:1 39:1 40:1 50:1 63:1 67:1 73:1 74:1 76:1 82:1 83:1 
-512 5:1 8:1 18:1 20:1 37:1 40:1 51:1 63:1 67:1 73:1 74:1 76:1 80:1 83:1 
-512 3:1 7:1 17:1 32:1 39:1 42:1 52:1 64:1 67:1 73:1 74:1 76:1 81:1 83:1 
-512 2:1 6:1 15:1 19:1 39:1 40:1 52:1 61:1 67:1 72:1 74:1 77:1 78:1 83:1 
-512 4:1 6:1 16:1 22:1 36:1 40:1 55:1 63:1 67:1 73:1 74:1 76:1 82:1 83:1 
-512 2:1 6:1 15:1 22:1 36:1 40:1 48:1 63:1 67:1 73:1 74:1 76:1 80:1 83:1 
-260.2484570414475 2:1 7:1 18:1 19:1 39:1 40:1 51:1 61:1 67:1 72:1 74:1 77:1 80:1 83:1 
-512 3:1 6:1 16:1 24:1 38:1 40:1 50:1 63:1 67:1 73:1 74:1 76:1 82:1 83:1 
-512 4:1 6:1 17:1 22:1 36:1 40:1 48:1 63:1 67:1 73:1 74:1 76:1 80:1 
-512 4:1 6:1 14:1 19:1 39:1 40:1 52:1 63:1 67:1 73:1 74:1 76:1 80:1 83:1 
-512 4:1 8:1 15:1 20:1 37:1 40:1 52:1 61:1 67:1 72:1 74:1 76:1 80:1 
-512 4:1 6:1 17:1 22:1 36:1 40:1 51:1 61:1 67:1 72:1 74:1 76:1 80:1 83:1 
-512 2:1 6:1 16:1 19:1 39:1 42:1 52:1 62:1 67:1 72:1 74:1 77:1 80:1 83:1 
-512 3:1 6:1 15:1 25:1 38:1 41:1 48:1 66:1 67:1 73:1 74:1 76:1 82:1 83:1 
-512 2:1 8:1 17:1 22:1 36:1 40:1 50:1 63:1 71:1 73:1 75:1 76:1 80:1 83:1 
-512 4:1 8:1 14:1 24:1 38:1 40:1 52:1 63:1 67:1 73:1 74:1 76:1 82:1 83:1 
-512 1:1 6:1 15:1 21:1 35:1 40:1 57:1 63:1 67:1 73:1 75:1 76:1 80:1 100:1 
-512 4:1 11:1 17:1 32:1 39:1 43:1 52:1 66:1 67:1 72:1 74:1 76:1 80:1 83:1 
-512 4:1 9:1 18:1 20:1 37:1 40:1 51:1 63:1 71:1 73:1 74:1 76:1 80:1 83:1 
-512 3:1 6:1 14:1 19:1 39:1 41:1 51:1 66:1 67:1 72:1 74:1 76:1 82:1 83:1 
-512 5:1 6:1 15:1 22:1 36:1 40:1 48:1 63:1 67:1 73:1 74:1 76:1 80:1 83:1 
-512 5:1 6:1 18:1 19:1 39:1 40:1 51:1 63:1 67:1 73:1 74:1 76:1 80:1 83:1 
-512 2:1 6:1 18:1 19:1 39:1 41:1 51:1 64:1 67:1 72:1 74:1 76:1 82:1 83:1 
-512 5:1 7:1 14:1 19:1 39:1 40:1 51:1 63:1 67:1 73:1 74:1 76:1 82:1 83:1 
-512 3:1 6:1 16:1 29:1 39:1 42:1 55:1 64:1 67:1 73:1 75:1 76:1 82:1 83:1 
-512 2:1 6:1 17:1 22:1 36:1 40:1 48:1 63:1 67:1 73:1 74:1 76:1 80:1 83:1 
-293.9891426845464 4:1 6:1 15:1 25:1 38:1 40:1 47:1 61:1 67:1 72:1 74:1 77:1 78:1 83:1 
-512 5:1 8:1 15:1 20:1 37:1 40:1 50:1 63:1 67:1 73:1 74:1 77:1 79:1 83:1 
-512 5:1 6:1 14:1 22:1 36:1 40:1 47:1 63:1 67:1 73:1 74:1 76:1 80:1 83:1 
-512 5:1 6:1 17:1 20:1 37:1 40:1 59:1 63:1 71:1 73:1 74:1 76:1 82:1 83:1 
-512 4:1 10:1 16:1 29:1 39:1 41:1 59:1 64:1 71:1 73:1 74:1 76:1 82:1 83:1 
-512 4:1 6:1 17:1 19:1 39:1 40:1 52:1 61:1 67:1 72:1 74:1 76:1 78:1 95:1 
-512 5:1 6:1 16:1 22:1 36:1 44:1 51:1 66:1 67:1 73:1 74:1 76:1 79:1 83:1 
-512 3:1 6:1 18:1 29:1 39:1 42:1 55:1 64:1 67:1 72:1 74:1 76:1 82:1 99:1 
-512 4:1 11:1 15:1 22:1 36:1 42:1 57:1 64:1 67:1 72:1 75:1 76:1 80:1 83:1 
-512 3:1 6:1 18:1 25:1 38:1 40:1 57:1 63:1 67:1 73:1 75:1 76:1 82:1 83:1 
-512 4:1 6:1 14:1 19:1 39:1 40:1 48:1 63:1 67:1 73:1 74:1 76:1 81:1 83:1 
-512 5:1 7:1 16:1 23:1 39:1 40:1 52:1 63:1 67:1 73:1 74:1 76:1 78:1 83:1 
-512 5:1 7:1 14:1 22:1 36:1 40:1 56:1 63:1 67:1 73:1 74:1 76:1 82:1 83:1 
-512 3:1 6:1 16:1 19:1 39:1 40:1 50:1 61:1 67:1 72:1 74:1 76:1 79:1 83:1 
-512 4:1 6:1 15:1 22:1 36:1 40:1 53:1 63:1 67:1 73:1 74:1 76:1 80:1 83:1 
-512 5:1 6:1 17:1 20:1 37:1 40:1 55:1 63:1 67:1 73:1 74:1 76:1 81:1 83:1 
-512 5:1 8:1 16:1 20:1 37:1 40:1 57:1 63:1 67:1 73:1 74:1 76:1 80:1 83:1 
-512 4:1 6:1 18:1 20:1 37:1 40:1 48:1 63:1 71:1 73:1 74:1 76:1 81:1 83:1 
-512 3:1 7:1 18:1 20:1 37:1 40:1 52:1 61:1 67:1 72:1 74:1 76:1 82:1 83:1 
-512 5:1 10:1 15:1 22:1 36:1 40:1 55:1 61:1 67:1 72:1 75:1 76:1 78:1 83:1 
-512 4:1 11:1 17:1 19:1 39:1 40:1 51:1 63:1 71:1 73:1 74:1 76:1 80:1 83:1 
-512 1:1 6:1 14:1 19:1 39:1 42:1 52:1 62:1 67:1 72:1 74:1 77:1 80:1 83:1 
-512 2:1 6:1 16:1 21:1 35:1 40:1 53:1 63:1 67:1 73:1 75:1 76:1 80:1 83:1 
-512 5:1 7:1 14:1 22:1 36:1 40:1 56:1 63:1 67:1 73:1 74:1 76:1 82:1 83:1 
-512 5:1 14:1 22:1 36:1 40:1 63:1 67:1 73:1 74:1 76:1 78:1 83:1 
-512 2:1 6:1 16:1 29:1 39:1 40:1 52:1 63:1 67:1 73:1 74:1 77:1 80:1 83:1 
-512 5:1 6:1 14:1 31:1 35:1 40:1 50:1 61:1 68:1 72:1 74:1 76:1 78:1 91:1 
-512 3:1 6:1 18:1 19:1 39:1 40:1 48:1 63:1 68:1 73:1 74:1 76:1 80:1 84:1 
-512 4:1 7:1 14:1 19:1 39:1 40:1 56:1 63:1 67:1 73:1 74:1 76:1 82:1 83:1 
-512 4:1 8:1 14:1 19:1 39:1 40:1 50:1 63:1 67:1 73:1 74:1 76:1 82:1 83:1 
-512 3:1 6:1 15:1 19:1 39:1 40:1 50:1 63:1 67:1 73:1 74:1 76:1 82:1 83:1 
-512 4:1 11:1 17:1 19:1 39:1 40:1 51:1 63:1 67:1 73:1 74:1 76:1 80:1 83:1 
-512 3:1 10:1 18:1 19:1 39:1 40:1 55:1 63:1 67:1 73:1 74:1 76:1 80:1 83:1 
-512 4:1 6:1 17:1 22:1 36:1 40:1 53:1 63:1 67:1 73:1 74:1 76:1 82:1 83:1 
-216.1023088777283 3:1 6:1 16:1 29:1 39:1 40:1 52:1 63:1 67:1 73:1 74:1 77:1 80:1 83:1 
-512 4:1 6:1 18:1 24:1 38:1 40:1 50:1 63:1 67:1 73:1 74:1 76:1 82:1 83:1 
-512 4:1 10:1 18:1 24:1 38:1 40:1 51:1 63:1 71:1 73:1 74:1 76:1 82:1 83:1 
-512 5:1 6:1 17:1 22:1 36:1 40:1 54:1 63:1 67:1 73:1 74:1 76:1 80:1 83:1 
-512 5:1 10:1 14:1 19:1 39:1 40:1 55:1 61:1 67:1 72:1 74:1 76:1 80:1 83:1 
-512 3:1 6:1 14:1 19:1 39:1 40:1 51:1 63:1 67:1 73:1 74:1 76:1 80:1 83:1 
-512 5:1 6:1 15:1 22:1 36:1 40:1 57:1 63:1 67:1 73:1 74:1 76:1 82:1 83:1 
-512 5:1 8:1 14:1 19:1 39:1 40:1 56:1 63:1 67:1 73:1 74:1 77:1 82:1 83:1 
-512 4:1 9:1 18:1 20:1 37:1 40:1 48:1 63:1 67:1 73:1 74:1 76:1 80:1 83:1 
-512 2:1 6:1 16:1 19:1 39:1 42:1 51:1 64:1 67:1 72:1 74:1 76:1 81:1 83:1 
-512 5:1 10:1 15:1 22:1 36:1 40:1 48:1 63:1 67:1 73:1 74:1 77:1 79:1 83:1 
-512 2:1 6:1 14:1 19:1 39:1 40:1 50:1 63:1 67:1 73:1 74:1 76:1 82:1 83:1 
-512 5:1 11:1 17:1 32:1 39:1 40:1 52:1 63:1 67:1 73:1 74:1 76:1 80:1 83:1 
-512 5:1 8:1 15:1 24:1 38:1 40:1 50:1 63:1 67:1 73:1 74:1 76:1 82:1 83:1 
-512 4:1 6:1 14:1 25:1 38:1 40:1 48:1 63:1 67:1 73:1 74:1 76:1 80:1 87:1 
-512 5:1 6:1 17:1 22:1 36:1 40:1 48:1 63:1 67:1 73:1 74:1 76:1 80:1 83:1 
-512 5:1 6:1 14:1 19:1 39:1 40:1 51:1 63:1 67:1 73:1 74:1 76:1 80:1 83:1 
-512 3:1 6:1 16:1 19:1 39:1 40:1 51:1 63:1 67:1 73:1 74:1 76:1 82:1 83:1 
-512 2:1 6:1 17:1 19:1 39:1 40:1 51:1 61:1 67:1 72:1 74:1 76:1 80:1 83:1 
-512 5:1 8:1 17:1 20:1 37:1 40:1 51:1 63:1 67:1 73:1 74:1 76:1 80:1 83:1 
-512 3:1 6:1 17:1 31:1 35:1 40:1 51:1 63:1 67:1 73:1 74:1 76:1 80:1 83:1 
-484.4140404947748 5:1 6:1 15:1 19:1 39:1 40:1 51:1 63:1 68:1 73:1 74:1 76:1 80:1 98:1 
-512 5:1 6:1 15:1 20:1 37:1 40:1 48:1 63:1 67:1 73:1 75:1 76:1 82:1 83:1 
-512 5:1 9:1 18:1 20:1 37:1 40:1 55:1 63:1 67:1 73:1 74:1 76:1 80:1 83:1 
-512 3:1 6:1 14:1 20:1 37:1 40:1 48:1 63:1 67:1 73:1 74:1 76:1 80:1 83:1 
-118.1250803251192 5:1 6:1 18:1 25:1 38:1 40:1 52:1 63:1 67:1 73:1 75:1 76:1 80:1 83:1 
-512 3:1 7:1 15:1 23:1 39:1 40:1 52:1 63:1 67:1 73:1 74:1 76:1 82:1 83:1 
-512 3:1 18:1 19:1 39:1 40:1 61:1 67:1 72:1 74:1 76:1 78:1 83:1 
-512 4:1 6:1 16:1 22:1 36:1 41:1 48:1 64:1 71:1 73:1 75:1 76:1 81:1 83:1 
-512 2:1 6:1 14:1 19:1 39:1 40:1 51:1 63:1 67:1 73:1 74:1 76:1 80:1 83:1 
-512 2:1 6:1 16:1 24:1 38:1 40:1 52:1 63:1 67:1 73:1 74:1 76:1 81:1 83:1 
-512 2:1 6:1 15:1 19:1 39:1 40:1 52:1 63:1 67:1 73:1 74:1 77:1 80:1 83:1 
-512 3:1 6:1 15:1 22:1 36:1 40:1 50:1 63:1 67:1 73:1 74:1 76:1 80:1 83:1 
-512 4:1 6:1 18:1 20:1 37:1 40:1 52:1 63:1 67:1 73:1 75:1 76:1 80:1 83:1 
-512 2:1 6:1 17:1 23:1 39:1 40:1 52:1 63:1 67:1 73:1 74:1 76:1 78:1 83:1 
-512 4:1 6:1 16:1 22:1 36:1 40:1 50:1 63:1 67:1 73:1 74:1 76:1 82:1 83:1 
-512 3:1 8:1 14:1 25:1 38:1 40:1 50:1 63:1 67:1 73:1 74:1 76:1 80:1 83:1 
-512 4:1 6:1 15:1 32:1 39:1 42:1 52:1 64:1 67:1 73:1 75:1 76:1 78:1 83:1 
-512 3:1 11:1 18:1 32:1 39:1 40:1 52:1 63:1 67:1 73:1 74:1 76:1 81:1 88:1 
-512 3:1 6:1 15:1 29:1 39:1 40:1 52:1 61:1 67:1 72:1 74:1 77:1 78:1 83:1 
-512 5:1 7:1 17:1 20:1 37:1 40:1 57:1 63:1 67:1 73:1 74:1 76:1 81:1 83:1 
-512 4:1 6:1 18:1 20:1 37:1 43:1 50:1 64:1 67:1 73:1 74:1 76:1 82:1 83:1 
-512 4:1 6:1 14:1 22:1 36:1 40:1 48:1 63:1 67:1 73:1 74:1 77:1 80:1 83:1 
-512 3:1 10:1 16:1 19:1 39:1 42:1 59:1 64:1 67:1 72:1 75:1 76:1 81:1 83:1 
-512 5:1 6:1 16:1 22:1 36:1 40:1 57:1 63:1 67:1 73:1 74:1 76:1 80:1 83:1 
-512 4:1 6:1 17:1 25:1 38:1 40:1 52:1 63:1 67:1 73:1 74:1 76:1 80:1 83:1 
-512 4:1 11:1 14:1 22:1 36:1 40:1 48:1 63:1 67:1 73:1 74:1 76:1 80:1 83:1 
-435.4331047650854 2:1 6:1 17:1 19:1 39:1 40:1 51:1 63:1 67:1 73:1 74:1 76:1 81:1 83:1 
-512 5:1 8:1 16:1 19:1 39:1 40:1 50:1 63:1 67:1 73:1 74:1 76:1 78:1 83:1 
-512 4:1 10:1 16:1 19:1 39:1 40:1 52:1 61:1 71:1 72:1 74:1 76:1 80:1 83:1 
-512 2:1 7:1 14:1 22:1 36:1 40:1 56:1 63:1 67:1 73:1 74:1 76:1 82:1 83:1 
-512 4:1 6:1 16:1 22:1 36:1 40:1 55:1 61:1 67:1 72:1 74:1 76:1 80:1 83:1 
-512 2:1 6:1 14:1 22:1 36:1 40:1 52:1 63:1 67:1 73:1 74:1 76:1 79:1 83:1 
-512 2:1 9:1 18:1 29:1 39:1 40:1 52:1 63:1 67:1 73:1 74:1 76:1 80:1 83:1 
-512 3:1 11:1 16:1 22:1 36:1 40:1 48:1 63:1 67:1 73:1 74:1 77:1 80:1 83:1 
-512 4:1 7:1 16:1 22:1 36:1 40:1 56:1 63:1 67:1 73:1 74:1 76:1 82:1 83:1 
-512 5:1 8:1 15:1 25:1 38:1 40:1 51:1 63:1 67:1 73:1 74:1 76:1 80:1 92:1 
-512 3:1 6:1 18:1 22:1 36:1 40:1 51:1 63:1 67:1 73:1 75:1 76:1 82:1 83:1 
-512 2:1 10:1 17:1 22:1 36:1 40:1 59:1 63:1 67:1 73:1 74:1 76:1 80:1 83:1 
-512 2:1 6:1 18:1 22:1 36:1 40:1 51:1 63:1 67:1 73:1 74:1 76:1 80:1 83:1 
-512 5:1 6:1 14:1 29:1 39:1 40:1 52:1 63:1 68:1 73:1 74:1 76:1 81:1 90:1 
-512 3:1 6:1 18:1 29:1 39:1 42:1 51:1 64:1 71:1 72:1 74:1 76:1 80:1 83:1 
-512 5:1 9:1 14:1 22:1 36:1 40:1 55:1 63:1 67:1 73:1 74:1 76:1 80:1 83:1 
-512 3:1 6:1 18:1 19:1 39:1 40:1 50:1 63:1 67:1 73:1 74:1 76:1 80:1 83:1 
-512 5:1 6:1 16:1 19:1 39:1 40:1 47:1 63:1 67:1 73:1 74:1 76:1 82:1 83:1 
-512 3:1 6:1 15:1 22:1 36:1 40:1 50:1 63:1 67:1 73:1 74:1 77:1 80:1 83:1 
-52.17914115374843 4:1 6:1 16:1 19:1 39:1 43:1 51:1 66:1 67:1 73:1 75:1 76:1 80:1 83:1 
-512 4:1 7:1 18:1 20:1 37:1 40:1 48:1 63:1 67:1 73:1 74:1 77:1 82:1 83:1 
-512 5:1 10:1 17:1 19:1 39:1 44:1 52:1 66:1 67:1 72:1 74:1 76:1 82:1 83:1 
-512 4:1 6:1 17:1 20:1 37:1 40:1 52:1 63:1 67:1 73:1 74:1 76:1 80:1 83:1 
-512 5:1 6:1 14:1 29:1 39:1 40:1 52:1 63:1 67:1 73:1 74:1 76:1 79:1 87:1 
-512 2:1 7:1 15:1 19:1 39:1 40:1 54:1 63:1 67:1 73:1 74:1 76:1 82:1 83:1 
-512 5:1 7:1 18:1 24:1 38:1 40:1 51:1 61:1 67:1 72:1 75:1 76:1 78:1 83:1 
-512 2:1 10:1 15:1 22:1 36:1 40:1 51:1 63:1 67:1 73:1 74:1 76:1 82:1 83:1 
-512 4:1 6:1 18:1 19:1 39:1 42:1 50:1 64:1 67:1 73:1 74:1 76:1 82:1 83:1 
-512 3:1 6:1 18:1 22:1 36:1 40:1 48:1 63:1 67:1 73:1 74:1 76:1 80:1 83:1 
-512 4:1 10:1 16:1 19:1 39:1 40:1 48:1 63:1 67:1 73:1 74:1 76:1 79:1 83:1 
-512 3:1 6:1 15:1 20:1 37:1 41:1 51:1 64:1 67:1 72:1 74:1 76:1 80:1 83:1 
-365.748462170533 2:1 8:1 14:1 19:1 39:1 40:1 50:1 63:1 67:1 73:1 75:1 76:1 82:1 83:1 
-512 2:1 8:1 16:1 22:1 36:1 41:1 51:1 64:1 67:1 73:1 74:1 76:1 82:1 83:1 
-139.6312641300062 4:1 10:1 17:1 29:1 39:1 40:1 55:1 63:1 67:1 73:1 74:1 76:1 80:1 99:1 
-17.48305992562506 5:1 9:1 15:1 20:1 37:1 40:1 55:1 63:1 67:1 73:1 75:1 76:1 80:1 83:1 
-512 3:1 6:1 17:1 22:1 36:1 41:1 52:1 62:1 67:1 72:1 74:1 76:1 80:1 83:1 
-512 4:1 6:1 17:1 22:1 36:1 40:1 48:1 63:1 67:1 73:1 74:1 76:1 82:1 83:1 
-512 1:1 6:1 18:1 20:1 37:1 40:1 55:1 63:1 67:1 73:1 74:1 76:1 80:1 83:1 
-512 5:1 11:1 15:1 22:1 36:1 40:1 51:1 63:1 67:1 73:1 74:1 77:1 80:1 83:1 
-512 5:1 6:1 16:1 22:1 36:1 40:1 54:1 63:1 67:1 73:1 74:1 76:1 81:1 83:1 
-512 5:1 6:1 15:1 31:1 35:1 40:1 48:1 63:1 67:1 73:1 75:1 76:1 80:1 83:1 
-512 3:1 10:1 14:1 19:1 39:1 40:1 52:1 61:1 67:1 72:1 74:1 76:1 81:1 83:1 
-512 4:1 6:1 14:1 19:1 39:1 40:1 52:1 63:1 67:1 73:1 74:1 76:1 82:1 83:1 
-512 3:1 6:1 17:1 19:1 39:1 40:1 55:1 63:1 67:1 73:1 74:1 76:1 82:1 83:1 
-512 5:1 6:1 16:1 25:1 38:1 40:1 48:1 63:1 67:1 73:1 74:1 76:1 80:1 83:1 
-512 5:1 7:1 14:1 20:1 37:1 40:1 51:1 63:1 67:1 73:1 74:1 76:1 82:1 83:1 
-512 3:1 6:1 18:1 22:1 36:1 40:1 51:1 61:1 67:1 72:1 75:1 76:1 80:1 83:1 
-512 3:1 6:1 15:1 22:1 36:1 40:1 52:1 63:1 67:1 73:1 74:1 76:1 81:1 109:1 
-512 5:1 7:1 14:1 19:1 39:1 41:1 56:1 64:1 67:1 73:1 75:1 76:1 82:1 83:1 
-512 5:1 6:1 16:1 22:1 36:1 40:1 53:1 63:1 67:1 73:1 74:1 76:1 80:1 83:1 
-512 4:1 6:1 15:1 19:1 39:1 40:1 50:1 63:1 67:1 73:1 74:1 76:1 80:1 83:1 
-512 4:1 10:1 15:1 20:1 37:1 40:1 59:1 63:1 67:1 73:1 74:1 76:1 80:1 83:1 
-512 4:1 6:1 18:1 20:1 37:1 40:1 51:1 63:1 67:1 73:1 74:1 76:1 82:1 83:1 
-512 5:1 7:1 18:1 19:1 39:1 40:1 52:1 63:1 67:1 73:1 74:1 76:1 81:1 83:1 
-114.9365541009098 4:1 6:1 18:1 29:1 39:1 40:1 52:1 63:1 67:1 73:1 74:1 76:1 81:1 83:1 
-512 4:1 6:1 17:1 22:1 36:1 40:1 50:1 63:1 67:1 73:1 74:1 76:1 82:1 83:1 
-512 3:1 11:1 16:1 19:1 39:1 40:1 59:1 63:1 67:1 73:1 75:1 76:1 82:1 83:1 
-512 2:1 6:1 15:1 19:1 39:1 42:1 51:1 64:1 67:1 73:1 74:1 76:1 82:1 83:1 
-512 5:1 18:1 22:1 36:1 40:1 63:1 67:1 73:1 74:1 76:1 80:1 83:1 
-512 4:1 9:1 18:1 20:1 37:1 42:1 55:1 64:1 67:1 73:1 75:1 76:1 82:1 83:1 
-512 4:1 8:1 15:1 20:1 37:1 40:1 51:1 63:1 67:1 73:1 74:1 76:1 82:1 83:1 
-512 4:1 6:1 18:1 22:1 36:1 40:1 49:1 63:1 67:1 73:1 74:1 77:1 80:1 83:1 
-512 4:1 8:1 14:1 29:1 39:1 40:1 50:1 63:1 67:1 73:1 74:1 76:1 82:1 
