svm_type c_svc
kernel_type rbf
gamma 2
nr_class 10
total_sv 1133
rho -0.630285 -0.268532 -0.502979 -0.639501 -0.334324 -0.496045 -0.259375 -0.58252 -0.677578 0.700106 0.175485 0.0154936 0.35988 0.249138 0.435848 0.323405 -0.127851 -0.317864 -0.435654 -0.0745825 -0.207371 0.00264405 -0.361421 -0.773949 -0.0835895 0.256563 0.122725 0.410469 0.00163611 -0.223796 0.427923 0.339519 0.414483 0.145384 -0.0689064 -0.136816 0.0750266 -0.216525 -0.400743 0.292626 -0.106194 -0.315803 -0.311533 -0.597416 -0.257352
label 8 2 1 4 6 0 5 9 7 3
nr_sv 195 86 169 88 49 77 110 176 110 73
SV
0 0 0.07204857287713147 0 0.09724762080177651 0.0837746372508219 0.1111528020527586 0 0.02137285763979659 1:0.57 2:0.63 3:1 4:1 6:0.91 7:0.36 8:0.53 9:0.95 10:0.16 11:0.02 13:0.05 14:0.36 15:0.91 16:0.67 
0 0 0 0.1477079120773931 0 0.3751891548255509 0 0.06321432728323535 0 2:0.67 3:0.38 4:0.66 5:0.62 6:0.3 7:0.38 9:0.08 10:0.3 11:0.45 12:0.63 13:1 14:0.9 15:0.58 16:1 
0.3936576321805051 0.8325986964462332 0.4640031966672033 0.2883414275498357 0.5692707653011095 0.3908449686452204 0.6527134862719673 0.349500610893903 0.2565512191060559 1:1 2:1 3:0.14 4:0.9 5:0.74 6:0.55 7:0.79 8:0.97 9:0.37 10:0.62 12:0.39 13:0.36 15:0.39 16:0.44 
0 0 0 0 0 0 0 0.2121587159487362 0 2:0.78 3:0.4 4:1 5:0.97 6:0.78 7:0.69 8:0.39 9:0.44 11:1 12:0.07 13:0.35 14:0.37 15:0.22 16:0.73 
0 0 0 0.004873363535726209 0.7492261430621528 0 0 0 0 1:0.55 2:0.76 3:0.22 4:0.68 5:0.66 6:0.29 7:0.39 9:0.52 10:0.32 11:1 12:0.68 13:0.69 14:1 16:0.86 
0.2044928396304787 0.4350236561305515 0.3172582289278932 0.2315183387745455 0.4142525062873965 0.4615236358368442 0.4719304887905744 0.4734795296540443 0.1960118994345999 1:0.24 2:0.66 3:1 4:0.89 5:0.3 6:0.66 7:0.88 8:0.32 9:0.34 12:0.34 13:0.61 14:0.72 15:0.77 16:1 
0.02830270838410297 0.02441683556485957 0 0 0 0 0.02749945400645909 0 0.01927637473092319 1:0.93 2:1 3:0.05 4:0.96 5:0.42 6:0.65 7:0.85 8:0.32 9:0.58 12:0.14 13:0.36 14:0.47 15:1 16:0.74 
0.01866543588929869 0 0 0 0 0 0 0.03904289013049866 0 1:0.72 2:0.83 3:0.49 4:1 5:0.61 6:0.58 7:0.82 8:0.17 11:0.25 12:0.33 13:1 14:0.61 15:0.75 16:0.92 
0 0 0 0.03232395707961218 0 0.02330367497963967 0 0.08539612214158356 0 1:0.31 2:0.93 3:0.12 4:0.78 5:0.71 6:0.36 7:0.31 9:0.21 10:0.33 11:1 12:0.65 13:0.69 14:1 16:0.78 
0.04188517781441254 0.02305188625024403 0.009565357582417075 0 0 0 0.01882799416067846 0.03978783608660114 0.00542325657086418 1:0.64 2:1 3:0.34 4:0.73 5:1 6:0.39 7:0.94 8:0.03 11:0.38 12:0.38 13:0.9 14:0.74 15:0.76 16:0.95 
0 0 0.07120785734208962 0 0 0 0 0.03233664360965016 0 1:0.53 2:0.79 3:0.44 4:0.55 5:0.22 6:0.1 9:0.32 10:0.36 11:0.66 12:0.69 13:1 14:1 15:0.61 16:0.83 
0.07099998066088976 0 0.1542668095541737 0.112013720632064 0.2287058853340385 0 0 0.08438990560335477 0 2:0.12 3:0.5 4:0.48 5:0.84 6:0.87 7:0.24 8:1 9:0.29 10:0.65 11:1 12:0.35 13:0.84 15:0.09 16:0.11 
0.04480605746525818 0.1354583446516579 0.1413739656902379 0.1157412806933071 1.169717187082759 0 0.1700832494812491 0 0.07066795633336374 1:1 2:0.97 3:0.4 4:1 6:0.65 7:0.35 8:0.27 9:0.39 11:0.4 12:0.38 13:0.87 14:0.73 15:0.87 16:1 
0.09813150990060029 0.1398611281274501 0.1010303522347665 0 0.142925152420839 0 0.1632796224306072 0.07795166784463448 0.08412966052839813 1:0.76 2:0.7 3:0.32 4:1 5:0.1 6:0.71 7:0.85 8:0.41 9:1 10:0.04 11:0.04 14:0.39 15:0.54 16:0.73 
0 0 0 0 0.1602136855675952 0 0 0 0 2:0.82 3:0.37 4:0.62 5:0.83 6:0.3 7:0.65 9:0.46 10:0.32 11:0.81 12:0.66 13:1 14:1 15:0.23 16:0.9 
0 0.004735688729903383 0 0 0.1517955340456875 0 0.05687711870715902 0 0 1:0.16 2:0.38 3:0.67 4:0.29 5:0.43 7:0.22 8:0.25 9:0.66 10:0.57 11:1 12:0.94 13:0.5 14:1 16:0.74 
0.007856873280456169 0.05130491058003853 0.0352003503309227 0.06603831918957476 0.040927595969977 0.1949386694197802 0.05449917044901301 0 0.01869150300009336 1:0.75 2:1 4:0.89 5:0.7 6:0.61 7:1 8:0.26 9:0.32 11:0.07 12:0.31 13:0.63 14:0.63 15:0.95 16:0.99 
0.1870806979568742 0.2592956575040894 0.2182427159787959 0.1471301507885484 0.2984242908899591 0.03647187528058268 0.3727804761767829 0.2191548728550861 0 1:0.03 2:0.57 3:0.83 4:0.7 5:1 6:1 7:0.06 8:0.85 9:0.2 10:0.52 11:0.71 12:0.2 15:0.37 16:0.32 
0.04501860238554852 0.08639468710742848 0.03232305256441521 0.08896351053851481 0.5271907823099643 0.06175153944817579 0.06651282379961203 0.05827229316500387 0.04116428716602339 1:0.19 2:0.78 3:0.29 4:0.36 5:0.13 7:0.08 8:0.27 9:0.58 10:0.49 11:1 12:0.79 13:0.55 14:1 16:0.88 
0 0 0.1562422471990684 0.1415800913498736 0.2479468453868807 0 0.02058323954854819 0 0 1:0.55 2:0.4 3:1 4:0.64 5:0.92 6:1 7:0.48 8:0.81 9:0.45 10:0.4 11:0.55 14:0.04 15:0.11 16:0.38 
0.0152475870325628 0.01583432679167735 0.006582364801566214 0 0 0.02752602506044149 0.02517532017377765 0 0 1:0.45 2:0.74 3:0.23 4:0.68 5:0.92 6:0.35 7:0.77 9:0.45 10:0.28 11:1 12:0.64 13:0.95 14:1 16:0.8 
0 0 0 0 0 0.01136020000837422 0 0 0 1:0.48 2:0.97 3:0.09 4:0.67 5:1 6:0.64 7:0.66 8:1 9:0.24 10:0.57 13:0.87 14:0.08 15:0.15 16:0.41 
0.1471219911488407 0.3498665526789508 0.2530011235920518 0.1775097234460734 0.335115764834296 0.2493731109163384 0.408926345541338 0.1888086468595979 0.1244735990168231 1:1 2:0.95 4:0.78 5:0.93 6:0.59 7:0.81 8:1 9:0.62 10:0.44 11:0.02 12:0.05 13:0.96 15:0.48 16:0.48 
0 0 0.06581818560901405 0 0 0 0 0 0 1:0.73 2:0.96 3:0.5 4:0.7 5:0.38 6:0.24 9:0.29 10:0.41 11:0.7 12:0.77 13:1 14:1 15:0.46 16:0.78 
0.06705231800581582 0.1357000981002697 0.08273949150419382 0.05790615079725597 0 0.06536622486995985 0.1317636838550015 0.1134952205679445 0.07149175678737883 1:0.38 2:0.73 3:0.84 4:0.41 5:1 7:0.53 8:0.07 9:0.73 10:0.49 11:0.98 12:0.9 13:0.54 14:1 16:0.75 
0.2194414147193173 0.5307904828929096 0.296173550448134 0.2082098924880456 0.3941646702276864 0.3488219489479467 0.6635993963646896 0.2000275009083458 0.1351843373623975 1:0.28 2:0.06 3:0.64 4:0.48 5:1 6:0.91 7:0.53 8:1 9:0.22 10:0.59 11:0.8 12:0.31 13:0.66 16:0.02 
0.1920400320884682 0.4708814796289753 0.4524567837967217 1.058776335263323 0.4409559135633182 0.6474061896079989 0.5429750409477414 0.2894885118125084 0.2822755960200486 1:0.37 2:0.71 3:0.79 4:0.71 5:0.49 6:1 8:0.45 9:0.25 10:0.36 11:0.66 13:1 14:0.51 15:0.1 16:0.26 
0 0 0 0 0 0.4457111152248319 0 0 0 1:0.9 2:0.94 3:0.13 4:0.95 5:0.26 6:0.56 7:0.96 8:0.27 9:0.52 12:0.26 13:0.45 14:0.64 15:1 16:1 
0 0 0 0 0 0.1810947250378371 0 0 0 1:0.76 2:0.95 3:0.23 4:1 5:0.36 6:0.6 7:0.68 8:0.22 9:0.23 12:0.33 13:0.46 14:0.65 15:1 16:0.94 
0.3326517283524778 0.6625324902084775 0.4525289350855463 0.3281084586383557 0.9690737466389651 0.4681035912699835 0.6983291265022702 0.379998718191896 0.2907967901295645 1:0.32 2:0.52 3:0.22 5:1 6:0.02 7:0.78 8:0.63 9:0.35 10:0.37 11:0.14 12:1 13:0.71 14:0.92 16:0.73 
0 0.003906737775991407 0 0 0.1109208553307294 0.01552663363276648 0 0 0.002524855977930574 2:0.98 3:0.05 4:0.73 5:0.7 6:0.39 7:1 9:0.43 10:0.09 11:0.53 12:0.5 13:0.84 14:0.9 15:0.26 16:1 
0.1278657797901642 0.2528190995392871 0.1464533276124202 0.1081483885338663 0 0.5291563696177644 0.2542382363436522 0.1236564742347389 0.1108798641308156 1:0.34 2:0.71 3:0.16 4:0.65 5:0.17 6:0.23 9:0.01 10:0.42 11:0.44 12:0.75 13:1 14:1 15:0.46 16:0.91 
0.02558055628217355 0.03248305281917655 0.05504460462746993 0.01325059554114593 0.06373046766006829 0 0.08636780356945573 0 0.03734007298419096 1:0.45 2:0.72 3:0.18 4:1 6:0.64 7:0.64 8:0.33 9:0.98 11:0.07 12:0.05 13:0.26 14:0.41 15:1 16:0.68 
0.1664454583711298 0.3109106723433915 0.2817172740767478 0.272313419617481 0.3355738384080089 0.5446389949469068 0.3632943764145573 0.1814604635259409 0.1661587473347357 1:1 2:0.94 3:0.4 4:1 6:0.68 7:0.43 8:0.35 9:0.92 10:0.05 11:0.23 13:0.03 14:0.34 15:0.46 16:0.68 
0.03720650236341472 0.01354109956576082 0 0.5796695880243133 0 0 0 1.776816457667702 0 1:0.49 2:1 3:0.19 4:0.91 5:0.31 6:0.54 7:0.36 8:0.15 11:0.07 12:0.36 13:0.51 14:0.63 15:1 16:0.87 
0.1617063093054277 0.3194261585164498 0.2327056064476963 0.1748250886727425 0.4209508309716014 0.2165251062025056 0.3151727058717328 0.1892837548621691 0.1409423718227216 1:0.6 2:0.59 3:0.98 4:0.26 5:0.48 7:0.25 8:0.19 9:0.77 10:0.49 11:1 12:0.85 13:0.43 14:1 16:0.7 
0 0 0 0 0 0.6562476677018346 0 0 0 1:0.54 2:0.64 3:0.3 4:0.96 5:0.15 6:0.61 7:0.69 8:0.27 9:0.52 12:0.3 13:0.48 14:0.66 15:1 16:1 
0.005327919759659429 0.01217601422860719 0.0156309033848392 0 0.03102834328782857 0.004050425164135579 0.01780311222534402 0.01623891065972686 0.00157519889491243 1:0.77 2:0.87 3:0.87 4:0.57 5:1 6:0.19 7:0.13 9:0.28 10:0.35 11:0.83 12:0.69 13:0.94 14:1 16:0.79 
0.1810543036377258 0.3603453949046759 0.2429234665322726 0.1661249949390407 0.3665648329251361 0.1981924539579047 0.3627563693314248 0.1733013210968871 0.1582219402954618 2:0.53 3:0.84 4:0.42 5:1 6:0.06 7:0.1 9:0.02 10:0.34 11:0.66 12:0.66 13:0.86 14:1 15:0.05 16:0.84 
0 0.08819118271255486 0 0 0 0 0 0 0.04042674494711299 1:0.39 2:0.73 3:0.76 4:1 5:0.22 6:0.79 7:0.5 8:0.43 9:0.69 10:0.06 13:0.26 14:0.3 15:1 16:0.52 
0 0 0 0.08104619503179926 0 0.02045072418075079 0 0 0 1:0.87 2:1 3:0.31 4:0.76 5:1 6:0.91 7:0.38 8:0.8 9:0.22 10:0.62 13:0.73 14:0.09 15:0.33 16:0.64 
0.137298449001473 0.2246035088717818 0.1431610909774114 0.3543689745952115 0.2090450886346207 0.2640641274653545 0.2325995256820262 0.1757145916916339 0.09067138859309724 1:0.29 2:0.95 3:0.93 4:0.67 5:0.84 6:1 7:0.1 8:0.68 10:0.18 11:0.74 13:1 14:0.44 15:0.17 16:0.44 
0.1423287503782916 0.2758463978728522 0.2099952181640413 0.1846050693502543 0.3177301831147238 0.1873181103579677 0.2843132636990293 0.1589740100311629 0.1212365741581318 1:1 2:1 3:0.09 4:0.95 6:0.52 7:0.98 8:0.26 9:0.48 11:0.46 12:0.45 13:0.98 14:0.9 15:0.18 16:0.71 
0.08387429253138223 0 0.126718391396183 0.09993025758734102 0.09161886234526528 0.3878607743376967 0.4570000110999563 0.05581570731918556 0 2:0.31 3:0.52 4:0.59 5:0.46 6:1 7:0.11 8:0.81 9:0.65 10:0.52 11:1 12:0.17 13:0.38 15:0.09 16:0.26 
0 0 0 0.0166510266428273 0 1.134516465049152 0 0 0 1:1 2:0.94 3:0.53 4:0.8 5:0.68 6:0.39 7:0.68 11:0.17 12:0.36 13:0.62 14:0.69 15:0.88 16:1 
0.07955405175200669 0.1422561890237283 0.1003376234828856 0.02386801454703187 0.1115552252938778 0 0.163447710619582 0.004823665043440771 0.0300545289132793 1:0.04 2:1 3:0.23 4:0.65 5:0.89 6:0.36 7:1 9:0.2 10:0.08 11:0.32 12:0.49 13:0.79 14:0.85 16:0.89 
0.2708412992844217 0.3973987396343395 0.2267427331789491 0.1470491002774803 0.2923404454530802 0.2302243302066821 0.2954057673821974 0.114354234916129 0.1133368895997422 1:0.19 2:0.93 3:0.09 4:0.74 5:1 6:0.94 7:0.25 8:1 9:0.01 10:0.49 13:0.93 14:0.16 15:0.46 16:0.6 
0.07949032646709471 0.1822729226802549 0.1710226688278319 0.976046712205251 0.3499385524558599 0.2167236461603839 0.2095214561430153 0.4683874034279876 0.09940439166596418 1:0.62 2:1 3:1 4:0.98 5:0.77 6:0.61 7:0.45 8:0.28 9:0.39 11:0.79 12:0.25 13:0.5 14:0.57 16:0.72 
0 0 0 0 0 2.216105838350384 0 0 0 1:0.7 2:0.92 4:0.83 5:0.57 6:0.49 7:1 8:0.13 9:0.16 11:0.05 12:0.37 13:0.48 14:0.74 15:0.64 16:1 
0 0.08883857825783389 0 0 0 0 0 0 0 1:0.12 2:0.14 3:0.56 4:0.48 5:1 6:0.84 7:0.53 8:1 9:0.32 10:0.65 11:0.8 12:0.3 13:0.62 16:0.17 
0.05811683618997572 0.1156397884613422 0.08282063717602399 0.06302489130794728 0 0.0286992419737034 0.1189954609053786 0.06745389741527889 0.0471253085386746 1:0.67 2:0.99 3:0.62 4:0.62 5:0.97 6:0.13 9:0.07 10:0.34 11:1 12:0.59 13:1 14:1 15:0.1 16:0.93 
0.08471145919222133 0 0 0 0 0 0 0 0 1:0.42 2:0.85 3:0.85 4:1 5:1 6:0.68 7:0.76 8:0.32 9:0.45 11:0.5 12:0.01 13:0.38 14:0.4 16:0.65 
0 0 0.008697124240487389 0 0.1550523658513869 0 0.02063245799352824 0 0 2:0.66 3:0.48 4:1 5:1 6:0.83 7:0.69 8:0.41 9:0.37 11:0.81 12:0.26 13:0.76 14:0.69 15:0.08 16:0.93 
0.04666066419332488 0 0.02354244434994855 0 0.02496149513748936 0 0.03979233187271311 0 0 1:0.64 2:1 3:1 4:0.92 5:0.94 6:0.56 7:0.72 8:0.22 9:0.72 11:0.91 12:0.31 13:0.52 14:0.59 16:0.8 
0.04087005045133175 0.08638186065898013 0.06595754447337608 0.05201255089578023 0.2549210533952921 0 0.08002862700760482 0.09716488883546988 0.03943151695397085 1:0.12 2:0.76 3:0.27 4:0.98 5:0.45 6:0.48 7:0.28 10:0.14 11:0.54 12:0.56 13:1 14:1 15:0.3 16:0.96 
0 0.121649255239887 0.08773371769100383 0 0.1399994938553755 0.1037905279038523 0.1095985759191198 0 0.02377635217814664 1:0.61 2:0.9 3:0.67 4:0.61 5:0.99 6:1 7:0.09 8:0.71 9:0.17 10:0.56 13:1 14:0.25 15:0.17 16:0.61 
0 0 0 0 0 0 0 0.1022435850674111 0 2:0.88 3:0.65 4:0.55 5:1 6:0.16 7:0.45 9:0.43 10:0.4 11:0.9 12:0.77 13:0.68 14:1 15:0.08 16:0.69 
0.1860728646250602 0.381224005243181 0.2596356487461441 0.1322486736632878 0.3595115221363764 0 0.3854311282008979 0.1897434366261598 0.1628679270463626 1:0.88 2:0.88 3:0.53 4:0.78 5:1 6:0.4 7:0.91 10:0.01 11:0.05 12:0.39 13:0.57 14:0.76 15:0.18 16:1 
0.02956486137599285 0.1776648903463247 0.09656299130886087 0 0.1318026512904073 0.3574638633921967 0.3531382565061006 0.0821381036215683 0.120849986767946 1:0.22 2:1 3:0.66 4:0.5 5:1 6:0.94 7:0.45 8:0.95 9:0.05 10:0.41 11:0.58 13:0.78 14:0.42 16:0.46 
0.06634696653159693 0.1128012772192146 0.1703288456034405 0.1939505301643916 0.1714827161140608 0.1820091163613202 0.2190627571459283 0.05124371574434824 0 1:0.36 2:0.53 3:1 4:0.82 5:0.55 6:1 7:0.02 8:0.69 9:0.36 10:0.34 11:0.74 14:0.14 15:0.62 16:0.44 
0.07743733289310771 0.1613705663889745 0.1011846783137276 0.05771310751662292 0.1319364823689999 0.1457564774100565 0.154613888896771 0.06225019200844406 0.07652558540850209 1:0.76 2:0.97 3:0.64 4:0.62 5:1 6:0.15 7:0.14 10:0.35 11:0.9 12:0.59 13:0.98 14:1 16:0.98 
0 0.02155785167850267 0.1032643618965654 0.07912007330363813 0.1607180487251106 0.04684794003719924 0.1772240377170177 0 0.06319048078594658 1:0.05 2:0.55 3:0.79 4:0.87 5:0.05 6:1 7:0.38 8:0.53 9:0.67 10:0.06 13:0.27 14:0.47 15:1 16:0.84 
0.02260470577833464 0 0.005607384713308877 0 0 0 0.5737784225214642 0.004340210991527528 0 2:0.26 3:0.57 4:0.56 5:0.98 6:0.94 7:0.31 8:1 9:0.45 10:0.63 11:1 12:0.31 13:0.78 15:0.09 16:0.16 
0 0.01587979010526315 0.02604686218307642 0.06851993675784925 0.06179906475651448 0.07341400777809406 0 0 0 1:0.37 2:1 4:0.6 5:0.94 6:0.94 7:0.03 8:0.89 9:0.29 10:0.54 13:1 14:0.28 15:0.08 16:0.38 
0.1697151842156826 0 0 0 0 0 0 0.1360092260725127 0.1145125579863928 1:0.6 2:1 3:0.14 4:0.67 5:1 6:0.55 7:0.8 8:0.98 9:0.39 10:0.56 12:0.13 13:0.8 15:0.5 16:0.45 
0.05823934715874647 0.1321555594110443 0.07930164337693592 0.05130884749413703 0.1334056873742748 0 0.1333479669741933 0 0.06207672211335501 1:0.57 2:0.87 4:1 5:0.17 6:0.63 7:1 8:0.28 9:0.94 11:0.2 12:0.34 13:0.89 14:0.71 15:0.37 16:0.87 
0 0.006375986914505474 0.03002652604645307 0 0 0 0.05359875914456201 0 0.0184640844714208 1:1 2:1 3:0.21 4:0.86 5:0.45 6:0.47 7:0.86 8:0.11 9:0.03 12:0.33 13:0.65 14:0.65 15:0.99 16:0.96 
0.001762901288240268 0.008003595032959169 0.001827555068559646 0.1261271959282813 0 0 0.006109785795615406 0 0.002760952477832707 1:0.48 2:0.97 3:0.07 4:0.76 5:0.22 6:0.35 9:0.05 10:0.31 11:0.49 12:0.65 13:1 14:0.95 15:0.52 16:1 
0.08704225481323716 0.1698087837525103 0.1115393492950565 0.0793048966426578 0.007762731606209499 0.1485233137997553 0.1667130283580678 0.1012795239067529 0.0737308184531535 1:0.25 2:0.46 3:1 4:0.31 5:0.8 8:0.09 9:0.38 10:0.45 11:0.89 12:0.78 13:0.54 14:1 15:0.2 16:0.68 
0 0.2339569093092316 0 0 0 0 0 0 0 2:0.2 3:0.57 4:0.51 5:0.94 6:0.89 7:0.38 8:1 9:0.44 10:0.61 11:1 12:0.3 13:0.76 15:0.12 16:0.14 
0.08793247846989109 0.1750851393573583 0.1571336769947805 0.08038804290543056 0.2928613193837604 0.08432307880589561 0.1891136095970254 0.1309464654025941 0.09768043372592437 1:0.35 2:1 4:0.88 5:0.58 6:0.44 7:0.55 9:0.3 10:0.39 11:1 12:0.73 13:0.94 14:0.97 15:0.28 16:0.84 
0 0 0 0 0.01974521456352589 0.02875675826763393 0.1016973179955715 0.03463380359839625 0.04249006698846929 1:0.66 2:0.93 3:0.5 4:0.56 5:0.8 6:1 8:0.55 9:0.17 10:0.35 11:0.59 13:1 14:0.52 16:0.29 
0 0 0 0 0.2943184284998919 0 0 0 0 1:0.7 2:0.99 3:0.42 4:0.69 5:0.35 6:0.3 9:0.19 10:0.29 11:0.6 12:0.58 13:1 14:0.88 15:0.54 16:1 
0.05146489610967198 0.1088645822669524 0.1598955836394742 0.01051426213714618 0.4837018823513147 0.2182143902892784 0.1397822035893962 0.04831655253720474 0.046737566347361 1:0.44 2:0.75 3:0.21 4:0.38 7:0.18 8:0.28 9:0.56 10:0.6 11:1 12:0.9 13:0.82 14:1 15:0.28 16:0.81 
0.04724885991707872 0.1072092583991754 0.1021381699271729 0 0.1486360689414259 0 0.1519116292128052 0 0.06415588474176843 1:1 2:1 3:0.39 4:0.84 5:0.58 6:0.51 7:0.88 8:0.2 9:0.25 12:0.24 13:0.42 14:0.54 15:0.98 16:0.81 
0.1921609975013588 0.5788815033961779 0.3285211233809232 0.2335488429476889 0.3813769888874532 0.3908589530122697 0.5106924568797698 0 0.4351107991242487 1:0.54 2:0.85 3:0.94 4:1 5:0.96 6:0.61 7:0.79 8:0.22 9:0.84 11:1 12:0.32 13:0.53 14:0.52 16:0.58 
0 0 0 0.09646125591796974 0 0 0 0 0 1:0.22 2:0.93 4:0.7 5:0.69 6:0.37 7:1 9:0.15 10:0.2 11:0.51 12:0.6 13:0.77 14:0.94 15:0.42 16:1 
0.02410614806961139 0 0.02525978657609965 0 0.03016563841796471 0 0.002567470256906517 0 0 1:0.16 2:0.78 3:0.66 4:1 5:1 6:0.75 7:0.46 8:0.39 11:0.66 12:0.04 13:0.24 14:0.45 15:0.23 16:0.85 
0 0 0.05496312581059911 0 0.01036329469455139 0.05607497071853927 0.1677529743448598 0.08690749050812077 0.08387809491165947 1:0.55 2:0.65 3:1 4:0.87 5:0.61 6:1 7:0.53 8:0.66 9:0.71 10:0.29 11:0.4 14:0.21 15:0.39 16:0.47 
0.1952196748874977 0.5621870132889724 0.0461787983011284 0 0 0 0 0 0 1:0.59 2:0.72 3:0.36 4:1 6:0.72 7:0.23 8:0.36 9:0.52 12:0.01 13:0.44 14:0.27 15:1 16:0.55 
0.03392949117195613 0.04764296008612192 0.04274030492731504 0 0.04543504954528318 0.05433925184986541 0.1172324839480772 0.1370256735429752 0.03737351554719395 1:0.35 2:0.9 3:0.24 4:0.61 5:1 6:1 7:0.12 8:0.84 10:0.29 11:0.49 13:0.96 14:0.57 15:0.07 16:0.28 
0.04765475558286757 0.07623766406497881 0.04682012632643225 0 0 0.1160885744851107 0.07694159862082185 0.06840267291574763 0.03308409834977984 1:0.52 2:0.98 3:0.69 4:0.67 5:0.78 6:0.28 7:0.13 10:0.26 11:0.54 12:0.58 13:1 14:0.93 15:0.54 16:1 
0 0 0.08947293986063035 0.01351237508970171 0.1296170054447717 0.1038933008486551 0.1660644616737931 0.04031583056974199 0.1695134511029203 1:0.07 2:0.6 3:1 4:0.79 5:0.76 6:1 7:0.24 8:0.71 9:0.8 10:0.36 11:0.84 14:0.14 15:0.47 16:0.5 
0 0 0 0 0 0.4156749726467371 0 0 0 1:0.83 2:0.85 3:0.17 4:0.98 5:0.37 6:0.57 7:0.94 8:0.19 9:0.38 12:0.38 13:0.65 14:0.71 15:1 16:1 
0.07813900805141413 0.1551858533281164 0.09057988083828132 0.05284334271501848 0.02001673967716456 0.02079866827188949 0.1529633779977912 0.02713728897615624 0.06696973698514476 1:0.12 2:0.75 3:0.03 4:0.59 5:0.67 6:0.25 7:0.2 9:0.27 10:0.36 11:0.95 12:0.68 13:1 14:1 16:0.95 
0.02102713396277167 0.0376642388197005 0.005707069615966051 0.01249853875294273 0 0 0.04082371614463667 0.01198931194343303 0.0152526212959262 1:0.15 2:0.92 4:0.96 5:0.38 6:0.47 7:0.79 9:0.04 10:0.08 11:0.46 12:0.58 13:1 14:1 15:0.12 16:0.86 
0.009448110586028615 0.01960660629382594 0.02389335551960787 0.08306085351921788 0.09036245741559694 0 0.02726141776524664 0.0230412223255359 0.001667172733040767 1:1 2:1 3:0.21 4:0.86 5:0.64 6:0.41 7:0.71 9:0.13 10:0.23 11:0.73 12:0.66 13:0.74 14:1 16:0.7 
0 0 0.04867383681514129 0 0.06704950412545929 0.01298038229799415 0.09157856448549555 0 0.04592068047638158 1:1 2:0.51 3:0.72 4:1 6:0.88 7:0.28 8:0.42 9:0.77 11:0.02 12:0.11 13:0.05 14:0.55 15:0.78 16:0.82 
0 0.9114326649998278 0 0 0 0 0 0 0.5596321817694776 2:0.3 3:0.46 4:0.6 5:0.59 6:1 7:0.21 8:0.81 9:0.67 10:0.5 11:1 12:0.16 13:0.38 15:0.07 16:0.28 
0.08134390749014944 0.2023006514200748 0.08931381744767149 0.2457661441627778 0.1156116508782106 0.0658957793561423 0.01655129629462676 0.07419302351740968 0.0684734437024825 1:0.5 2:0.83 3:0.26 4:0.62 5:0.58 6:1 7:0.14 8:0.6 9:0.02 10:0.3 11:0.5 13:1 14:0.51 16:0.34 
0 0 0 0 0 0 0 3.167439468802184 0 1:0.44 2:0.73 3:0.77 4:1 5:1 6:0.68 7:0.78 8:0.28 9:0.68 11:1 12:0.33 13:0.56 14:0.51 16:0.53 
0.1841855627384483 0.2346100922855693 0.3067586732920036 0.1602682595606984 0.3547334638910721 0 0.1723231974895147 0.2362835465947548 0 2:0.2 3:0.38 4:0.56 5:0.46 6:1 7:0.06 8:0.81 9:0.58 10:0.56 11:1 12:0.24 13:0.5 15:0.07 16:0.15 
0.05159465212050516 0.1224261330516901 0.07955485623970283 0.07487984786901529 0.1005520983271146 0 0.100641015028372 0 0.04017722304294991 1:0.62 2:0.76 4:1 5:0.22 6:0.68 7:0.9 8:0.37 9:1 11:0.13 12:0.08 13:0.13 14:0.47 15:0.68 16:0.81 
0 0 0 0 0 0 0 0.1718207696965009 0 1:0.23 2:1 3:0.46 4:0.57 5:1 6:0.79 7:0.49 8:0.89 10:0.48 11:0.2 13:0.79 14:0.22 15:0.24 16:0.53 
0 0 0.03210788721559758 0.05974208439930444 0.05320885618899615 0 0 0 0 1:0.7 2:0.81 3:0.25 4:1 6:0.74 7:0.42 8:0.4 9:0.77 10:0.05 11:0.4 13:0.53 14:0.4 15:1 16:0.7 
0.01773695680782683 0.5398027003408652 0.01059513587856095 0 0 0.2568761574792084 0.03557626081579477 3.609448056677606 1.035545866832934 1:0.02 2:0.77 3:0.54 4:1 5:1 6:0.79 7:0.86 8:0.47 9:0.59 10:0.16 11:0.63 13:0.73 14:0.27 16:0.43 
0.2051578944774489 0.4072731543167505 0.3028223559113413 0.213306020090433 0.5402702596063339 0.3194508659692939 0.4058255221958783 0.1956106028888245 0.1805967977241311 1:0.2 2:0.6 4:0.83 5:0.15 6:0.39 7:1 8:0.09 9:0.3 11:0.47 12:0.54 13:0.67 14:1 15:0.02 16:0.59 
0 0 0 0 0.07973532913806014 0 0 0 0 1:0.82 2:0.86 4:0.67 5:0.38 6:0.29 7:0.96 9:0.25 10:0.2 11:0.65 12:0.61 13:1 14:1 15:0.18 16:0.73 
0 0.1723391865108464 0.001660151573174546 0.1877911394763947 0.02640142520872944 0 0.0415120588696973 0 0.001405116816997865 1:1 2:0.86 3:0.49 4:1 5:0.03 6:0.79 7:0.37 8:0.43 9:0.59 10:0.05 11:0.09 14:0.4 15:0.43 16:0.7 
0 0.0100849127363772 0 0.004846983948560715 0 0 0.01293903673000717 0 0.003753253966279127 1:1 2:0.7 3:0.46 4:0.94 5:0.32 6:0.51 7:0.87 8:0.09 11:0.38 12:0.46 13:0.8 14:0.91 15:0.19 16:1 
0 0 0 0 0 0.1417192987423089 0 0 0 1:1 2:0.92 3:0.2 4:0.9 5:0.07 6:0.42 7:0.65 10:0.1 11:0.18 12:0.58 13:0.78 14:1 15:0.45 16:0.97 
0.03510894707098717 0.07281426791591999 0 0 0 0.5128592458433445 0.07456678374522123 0 0.0304877739561029 1:0.55 2:0.9 3:0.44 4:0.56 5:0.29 6:0.13 9:0.28 10:0.38 11:0.64 12:0.69 13:1 14:1 15:0.63 16:0.99 
0.1989001244658231 0 0.003156713684127114 0 0.1830342906024379 0 0 0.8234948964294082 0 1:0.56 2:0.71 3:0.31 4:1 5:0.16 6:0.66 7:0.24 8:0.23 11:0.17 12:0.34 13:0.57 14:0.57 15:1 16:0.76 
0.13558561194698 0.2630442504089786 0.1515935176838263 0.1687754612629299 0.7257900596045236 0 0.2555394652804669 0.1594803255147165 0.1160199718423027 1:0.54 2:0.77 3:0.3 4:0.37 7:0.13 8:0.25 9:0.55 10:0.54 11:1 12:0.8 13:0.89 14:1 15:0.37 16:0.86 
0 0 0 0 0 0 0.1258983731687975 0 0.0435467929617712 1:0.61 2:0.83 3:0.19 4:1 5:0.03 6:0.62 7:0.15 8:0.21 12:0.4 13:0.47 14:0.62 15:1 16:0.79 
0 0.01860605048550363 0.04100176397339542 0.07554994934954452 0.1136894430696509 0 0.06053610705047729 0 0.04026138564046491 1:1 2:0.91 3:0.44 4:1 6:0.76 7:0.1 8:0.37 9:0.3 11:0.03 12:0.25 13:0.25 14:0.61 15:0.72 16:0.86 
0 0 0 0 0 0.2165420723133933 0 0 0 1:0.54 2:0.97 3:0.2 4:0.73 5:0.48 6:0.34 7:0.35 10:0.22 11:0.5 12:0.5 13:1 14:0.78 15:0.71 16:1 
0 0 0 0 0 0 0.003509194187079077 0 0 1:1 2:0.87 3:0.09 4:1 6:0.67 7:0.74 8:0.37 9:0.94 11:0.21 12:0.15 13:0.6 14:0.56 15:0.93 16:0.94 
0 0 0 0 0.5236606815286541 0 0 0 0 1:0.64 2:0.97 3:0.32 4:0.67 5:0.19 6:0.26 9:0.3 10:0.36 11:0.67 12:0.67 13:1 14:1 15:0.47 16:0.88 
0 0.006125375008676918 0.02511018225675554 0.02732051466413983 0.408291039001994 0 0.01679390149483357 0 0.008497520706313169 1:0.51 2:0.91 3:0.05 4:0.86 6:0.43 7:0.22 9:0.08 10:0.24 11:0.5 12:0.61 13:1 14:0.93 15:0.45 16:1 
0.01441723687137582 0.0146386341231704 0.001087330257753619 0.004449694847872827 0 0 0.01439981002493282 0 0.00239083470937015 1:0.72 2:0.97 3:0.04 4:0.91 5:0.14 6:0.45 7:0.29 10:0.3 11:0.61 12:0.65 13:1 14:1 15:0.2 16:0.86 
0.6054013623102111 1.145959825006853 0 0 0 0 0 0.3329454510338976 0.1397595347990048 1:0.59 2:0.61 3:0.91 4:1 5:0.37 6:0.92 7:0.36 8:0.46 9:0.45 12:0.06 13:0.35 14:0.36 15:1 16:0.38 
0 0 0 0 0 0 0 0 0.03123202184318056 1:0.17 2:0.97 3:0.25 4:0.59 5:0.85 6:1 8:0.82 9:0.27 10:0.51 11:0.23 13:1 14:0.36 15:0.19 16:0.33 
0.1790276911369352 0.3139712953219576 0.2268010142059798 0.1196740891500939 0.2485825204453497 0 0.312958148061791 0.1916341113333113 0.1332839931950857 1:0.69 2:0.82 4:1 5:0.22 6:0.64 7:0.96 8:0.36 9:0.96 11:0.33 12:0.2 13:0.93 14:0.53 15:1 16:0.79 
0.1380714990713994 0.2176971477403881 0.1523352008874977 0.1657343757771616 0.2676242762991405 0.2387680233036568 0.2051657732772351 0.2453289770758671 0.09455638845062879 1:0.31 2:1 4:0.82 5:0.47 6:0.46 7:0.97 8:0.12 9:0.44 11:0.31 12:0.33 13:0.95 14:0.61 15:1 16:0.91 
0 0 0 0 0 0 0 0.5095591012727599 0 1:0.49 2:0.75 3:0.44 4:1 5:0.23 6:0.73 7:0.43 8:0.37 9:0.47 12:0.16 13:0.4 14:0.45 15:1 16:0.68 
0.7959216631115701 1.77729021598903 0.09304494842528117 0.1177489719288455 0.1097352090415087 0.5699551169779618 0.4067123408072957 0.3924508454038469 0.7922689079248989 1:0.53 2:0.61 3:1 4:0.73 5:0.92 6:1 7:0.55 8:0.72 9:0.58 10:0.36 11:0.51 12:0.01 15:0.29 16:0.31 
0 0 0.1996211796410896 0.1426283025012827 0.2872386299492999 0.1521795909592409 0.2987708612194179 0 0.07271880054314309 1:0.49 2:0.49 3:1 4:0.79 5:0.54 6:1 7:0.08 8:0.68 9:0.35 10:0.27 13:0.06 14:0.35 15:0.71 16:0.63 
0 0 0.007587940761685074 0.1238977125453794 0.07835162731131506 0 0 0 0 1:0.77 2:0.99 3:0.43 4:0.77 5:0.34 6:0.36 9:0.23 10:0.34 11:0.66 12:0.68 13:1 14:1 15:0.39 16:0.78 
0 0.08490459817130611 0.07303014711975225 0.05365543690798161 0.05857312837864154 0 0.1148658706742578 0 0.0401052590417512 1:1 2:0.75 3:0.49 4:1 5:0.24 6:0.61 7:1 8:0.27 9:0.91 12:0.18 13:0.66 14:0.55 15:0.93 16:0.85 
0.06812531366075451 0.1273785092605882 0.1586053623172813 0.1029710236266157 0.2910344143681399 0.1617526305738945 0.2474167739725899 0.05456814380880229 0.08667248391466602 1:0.76 2:0.56 3:0.75 4:1 6:0.9 7:0.35 8:0.53 9:0.95 10:0.21 11:0.47 13:0.57 14:0.44 15:1 16:0.85 
0.08498390819581828 0.1627183569638526 0.1227909947603272 0.08066675122505756 0.5921393108989083 0.1313630238395525 0.1711682123198578 0.00686176238573378 0.05296958944913655 1:0.35 2:0.74 3:0.71 4:0.42 5:1 6:0.09 7:0.62 9:0.76 10:0.38 11:0.89 12:0.76 13:0.48 14:1 16:0.82 
0.3721625741170627 0.629224302801048 0.2938930233592713 0.2243734634608574 0.3932107330250441 0.2696782045462336 0.4465192722795623 0.5104124887467707 0.2194054822729189 2:0.33 3:0.66 4:0.6 5:1 6:1 7:0.48 8:0.78 9:0.84 10:0.37 11:0.52 13:0.3 14:0.32 15:0.85 16:0.68 
0 0 0 0 0 0 0 0 0.0286643670745045 1:0.37 2:0.55 3:1 4:0.72 5:0.94 6:1 7:0.52 8:0.75 9:0.57 10:0.37 11:0.57 14:0.02 15:0.09 16:0.36 
0 0 0 0.1939393259882701 0 0.1784364579684024 0 0 0 1:0.56 2:0.66 3:1 4:0.94 5:0.44 6:1 7:0.35 8:0.64 9:0.63 10:0.29 11:0.37 14:0.22 15:0.42 16:0.54 
0.07922175353551962 0.1593523406773601 0.1031535853645498 0.007532331807663301 0 0 0.1616823197289379 0.07570675239686137 0.07172424827875029 1:0.64 2:0.83 3:0.16 4:0.87 5:0.11 6:0.43 9:0.05 10:0.33 11:0.54 12:0.68 13:1 14:1 15:0.25 16:0.9 
0.249989027706195 0.1195268474861203 0.07271546692199245 0.3141183779351545 0.0850715951993308 0.1101495678731991 0.1380240514374357 0.1515608465055223 0.05665573409589725 1:0.68 2:0.94 3:0.67 4:0.75 5:1 6:1 7:0.39 8:0.7 10:0.42 11:0.2 13:0.97 14:0.25 15:0.33 16:0.65 
0.01078092200726032 0.02076073573174636 0.01364662704793604 0 0 0.02851106774457744 0.01794531891803088 0.00150380147687839 0.01008190528598483 1:0.65 2:0.81 3:1 4:0.48 5:0.88 6:0.1 7:0.07 9:0.4 10:0.35 11:0.97 12:0.68 13:0.78 14:1 16:0.87 
0 0 0 0 0 1.746991563604421 0 0 0 1:0.59 2:0.99 3:0.08 4:1 5:0.24 6:0.58 7:0.81 8:0.28 9:0.57 12:0.25 13:0.39 14:0.64 15:1 16:0.93 
0.1790359617060839 0.3483230228186152 0.2334212509736801 0.1562195926396033 0.2519998695756349 0 0.3510648592119222 0.1879578075831136 0.1547672558846512 1:1 2:0.94 3:0.04 4:1 5:0.02 6:0.57 7:0.87 8:0.19 11:0.07 12:0.44 13:0.78 14:0.87 15:0.07 16:0.91 
0.03690562832753592 0.1443562638536177 0.009697660513019409 0 0 0.1298664351233507 0 0 0.24532007437159 1:0.05 2:0.66 3:0.16 4:1 5:1 6:0.98 7:0.69 8:0.58 9:0.29 10:0.2 11:0.75 13:0.21 14:0.32 16:0.71 
0.08359506617786931 0 0.1135362292299944 0.1035029941837458 0.1570865351339293 0.01692584436675721 0.1282674189430704 0 0 1:0.13 2:0.69 3:0.78 4:1 5:1 6:0.73 7:0.59 8:0.36 9:0.11 11:0.87 12:0.11 13:0.87 14:0.45 16:0.69 
0.09387643525238941 0.1835234459802917 0.09963147742747692 0.08361712365132311 0.1104936190241078 0.01311168758773379 0.1882995288320257 0.1177969455386562 0.08144112280619006 1:0.91 2:0.9 3:0.59 4:0.64 5:0.5 6:0.16 9:0.21 10:0.44 11:0.94 12:0.73 13:1 14:1 15:0.11 16:0.92 
0.000581469889217174 0 0 0 0 0 0 0.172074010827087 0 1:0.27 2:0.5 3:0.79 4:0.68 5:1 6:1 7:0.46 8:0.85 9:0.42 10:0.42 11:0.51 12:0.01 15:0.35 16:0.33 
0.05752075279462144 0.1125334839489315 0.07157213657520073 0.04197402272941466 0 0.08005026640659518 0.1140340530267238 0.01580229925521917 0.04806559120752728 1:0.83 2:0.63 3:0.77 4:0.55 5:1 6:0.15 7:0.35 9:0.23 10:0.38 11:0.7 12:0.73 13:0.63 14:1 16:0.78 
0.3148205358132944 0.58631180574388 0.2331209541606744 0.1399436147972319 0.2893928376940678 0.2807181882560599 0.4145089709841035 0.3412797576726826 0.2383468701201968 1:0.54 2:0.82 3:0.26 4:0.63 5:1 6:0.76 7:0.28 8:1 9:0.61 10:0.5 12:0.36 13:0.49 15:0.55 16:0.54 
0 0 0 0 0 0 0 2.80354362955143 0 1:0.25 2:0.8 3:0.75 4:1 5:0.92 6:0.69 7:0.72 8:0.35 9:0.52 11:1 12:0.18 13:0.61 14:0.48 16:0.65 
0.2177623076233936 0.520909432635219 0 0 0.004717602029533834 0 0 0.7225636912924696 0 1:0.42 2:0.63 3:1 4:0.85 5:0.54 6:1 7:0.42 8:0.62 9:0.62 10:0.22 14:0.27 15:0.73 16:0.51 
0 0.01377523916142875 0 0 0 0.9953449965177629 0.7699793923970976 0.03253486436040233 0.4096900731045745 2:0.39 3:0.62 4:0.67 5:0.86 6:1 7:0.06 8:0.87 9:0.38 10:0.54 11:1 12:0.26 13:0.72 15:0.01 16:0.17 
0.04457100690180897 0.01120217689925012 0 0 0 0 0 0.07483405260297127 0 1:0.07 2:0.91 3:0.34 4:0.6 5:0.77 6:1 8:0.69 9:0.08 10:0.39 11:0.32 13:1 14:0.43 15:0.08 16:0.39 
0 0.1538937134662263 0 0 0 0 0 0.006791357453450048 0.1894667212841177 1:0.03 2:0.15 3:0.44 4:0.51 5:0.88 6:0.88 7:0.46 8:1 9:0.42 10:0.63 11:1 12:0.31 13:0.72 16:0.17 
0 0 0 0 0 0 0.03909176154210337 0 0.06251124960941559 1:0.28 2:0.68 3:0.37 4:1 5:0.96 6:0.94 7:0.82 8:0.47 9:0.66 11:1 12:0.06 13:0.46 14:0.36 16:0.7 
0.06193773581460374 0 0 0 0 0 0.01977557916974781 0.0682657280805328 0.000782917810150263 2:0.18 3:0.39 4:0.59 5:0.82 6:1 7:0.34 8:1 9:0.34 10:0.62 11:1 12:0.36 13:0.68 15:0.14 16:0.19 
0.3773718410665237 0.3375760694530235 0.2593850664022636 0.1297716524426059 0.2545037163490166 0.1513245172251464 0.3609167323677479 0.3185091247205158 0.3055684088135632 2:0.7 3:0.33 4:1 5:1 6:0.94 7:1 8:0.59 9:0.75 10:0.25 11:0.47 13:0.69 14:0.34 15:0.14 16:0.61 
0 0 0 0.07066387770786133 0.1949112901784557 0 0 0 0 1:0.49 2:1 3:0.57 4:0.55 5:0.4 6:0.09 9:0.44 10:0.4 11:1 12:0.77 13:0.77 14:1 15:0.14 16:0.69 
0 0 0.06565379399001617 0.005042284380654795 0.1151857937408887 0.009581570115126092 0.08013349280403417 0 0 1:0.08 2:0.44 3:0.3 4:0.84 5:1 6:1 7:0.97 8:0.59 9:0.66 10:0.19 11:0.67 13:0.61 14:0.38 16:0.69 
0 0.0278211709585359 0.2605497223731373 0.4179362338725895 0.3049305680783742 0.1402462983973347 0.3364590422658928 0 0.06259629117598565 1:0.91 2:0.67 3:0.83 4:1 5:0.25 6:0.86 7:0.24 8:0.43 9:0.41 12:0.06 13:0.36 14:0.33 15:1 16:0.36 
0.02679527350422805 0.02033088371765722 0.02315282745885214 0 0 0.05290161071959538 0.04732212716623699 1.0127766037946 0 1:0.05 2:0.92 3:0.82 4:1 5:1 6:0.67 7:0.57 8:0.32 9:0.12 11:0.8 12:0.11 13:0.7 14:0.46 16:0.66 
0 0.5480295793581285 0 0.1531359077101918 0 0.1332825727072246 0.05893946715893973 0 0.4691658318286599 1:0.49 2:0.62 3:0.71 4:1 5:1 6:0.81 7:0.83 8:0.39 9:0.57 10:0.01 11:0.78 13:0.51 14:0.33 16:0.49 
0.1816623433144715 0.4644125120293683 0.3192552139703927 0.2279757356885763 0.4393062526420971 0.3203863608229247 0.4896134567486654 0.1872235369910724 0.2116056505814138 1:0.55 2:1 3:0.43 4:0.41 5:1 6:0.42 7:0.61 8:0.96 9:0.45 10:0.43 11:0.1 13:0.98 14:0.2 16:0.27 
0 0 0.006297163334197959 0 0 0.009267827562499378 0 0.02271093226455237 0 1:0.78 2:0.97 3:0.44 4:0.68 5:1 6:0.3 7:0.65 9:0.38 10:0.35 11:0.84 12:0.77 13:0.76 14:1 16:0.72 
0.05610004290081936 0.1850086777238019 0.05980019699462987 0.01248830762808305 0.05933428292285089 0 0.04784011413007345 0 0.0293792363298696 1:1 2:1 3:0.41 4:0.92 5:0.2 6:0.6 7:0.38 8:0.24 12:0.24 13:0.47 14:0.48 15:0.97 16:0.71 
0.245084702761057 0.4854863426000388 0.3679697124729855 0.238113557038582 0.3791545359022326 0.3459037914309004 0.4920558090983989 0.2748756234115243 0.2156903147127231 1:0.21 2:0.64 3:0.55 4:0.29 5:0.07 8:0.32 9:0.55 10:0.65 11:1 12:1 13:0.2 14:0.93 15:0.12 16:0.57 
0.09378045848552816 0.2113421600289821 0.126890071719312 0 0.13575698072437 0.1062334969500706 0.2924415427476821 0.0312585304141967 0.09484529791508683 1:0.31 2:0.87 3:0.22 4:0.49 5:0.83 6:1 8:0.74 9:0.45 10:0.67 11:0.23 13:1 14:0.37 15:0.15 16:0.38 
0 0 0 0.07215251797793977 0 0 0 0 0 1:0.6 2:0.65 3:0.95 4:1 5:1 6:0.76 7:0.67 8:0.38 9:0.37 11:0.76 12:0.08 13:0.57 14:0.44 16:0.62 
0.06725726112353919 0.4041226116146217 0.1079363411403533 0.1509375579569449 0.1320563542797187 0.1102452869929914 0.1819865381897471 2.242702727955969 0.1574973269663483 1:0.01 2:0.74 3:0.23 4:1 5:0.83 6:0.87 7:0.75 8:0.42 9:0.49 11:1 12:0.02 13:0.55 14:0.34 16:0.64 
0.05011082664188093 0.1372721930295233 0.07594481116017497 0.01352630967123718 0.01560685990303644 0 0.1240367196863209 0 0.05696312213336327 1:0.95 2:0.83 3:0.17 4:0.87 5:0.51 6:0.48 7:0.92 8:0.1 11:0.25 12:0.37 13:1 14:0.69 15:0.94 16:1 
0.1572483747984739 0.4197952413299846 0.3381981442146036 0.07717439710792673 0.2712926421187095 0 0.282131237101085 0 0.1345603854146309 1:0.49 2:0.82 3:0.06 4:1 6:0.65 7:0.19 8:0.27 9:0.15 11:0.08 12:0.38 13:0.48 14:0.62 15:1 16:0.68 
0 0.05354058563452742 0.05436847513427839 0 0 0 0.1243955012619345 0 0.04296722098173465 1:1 2:1 3:0.42 4:1 5:0.01 6:0.71 7:0.18 8:0.33 9:0.14 12:0.32 13:0.36 14:0.64 15:0.83 16:0.92 
0.04541467383801193 0.1221125200010132 0.05917723689521075 0.106825272925649 0.03960421119558471 0 0.09354533401097712 0 0.04246040030566633 1:1 2:1 3:0.19 4:0.93 6:0.53 7:0.27 8:0.11 9:0.01 11:0.29 12:0.41 13:0.79 14:0.77 15:0.54 16:0.96 
0.05334016474305723 0 0.1366628467466997 0.04688145184497156 0.1795230155881563 0.03042152130710771 0.1888774292892233 0 0 1:0.28 2:0.6 3:0.15 4:1 5:1 6:0.98 7:0.74 8:0.5 9:0.21 10:0.06 11:0.76 13:0.23 14:0.43 16:0.87 
0 0 0 0 0 0 0 0.0579396133018447 0.01424089981553646 1:0.39 2:1 3:0.75 4:0.61 5:1 6:0.98 7:0.34 8:0.81 9:0.09 10:0.3 11:0.72 13:0.83 14:0.45 16:0.5 
0.1038267522945902 0.221041641021149 0.1502147818609808 0.1071540550289573 0.1551582589287518 0.005261430326803518 0.2315592540800853 0.03015521560181372 0.1044073789932571 1:0.85 2:0.52 3:0.85 4:0.98 6:0.79 7:0.65 8:0.39 9:1 11:0.09 12:0.13 13:0.62 14:0.56 15:1 16:1 
0.06332264013926688 0.1265138531768319 0.08953550619514432 0.06807159004673355 0.1746712087651371 0.10238090207448 0.1455293725330703 0.04683482646244828 0.05829156889473693 2:0.63 3:0.56 4:0.35 5:0.98 7:0.41 8:0.01 9:0.62 10:0.39 11:1 12:0.74 13:0.69 14:1 15:0.1 16:0.74 
0.05613056159692616 0.1278911166834485 0.08507574454033801 0.0268060654908812 0.08870126760691413 0 0.134892594755458 0 0.05464429400079419 1:0.62 2:1 4:0.96 5:0.4 6:0.62 7:1 8:0.3 9:0.43 11:0.06 12:0.27 13:0.38 14:0.73 15:0.13 16:0.99 
0.2335157720934209 0.450638115797557 0.3081700032578418 0.2999251999880166 0.4256634457362864 0.5812808333964367 0.4634653790958352 0.2806250454386038 0.2008443897209485 2:0.79 3:0.25 4:0.5 5:0.98 6:0.25 7:0.71 9:0.1 10:0.16 11:0.5 12:0.47 13:1 14:0.76 15:0.83 16:1 
0 0 0 0 0 5.075655276862243 0 0 0 1:0.67 2:1 3:0.1 4:0.92 5:0.29 6:0.53 7:0.5 8:0.14 9:0.01 12:0.37 13:0.45 14:0.67 15:1 16:0.87 
0.08749067523295738 0.1640391285908373 0.2231352968554211 0.1825055030194025 0.3484553503421498 0.100041231381668 0.2110959579011507 0.6412655435728553 0.04781683587218713 1:0.29 2:1 4:0.75 5:0.53 6:0.54 7:1 8:0.3 9:0.78 11:0.56 12:0.25 13:0.66 14:0.63 15:0.15 16:0.71 
0.1467388582755832 0.2773608610719037 0.2018151997170956 0.1444912072800728 0.3371227245119616 0 0.2831547942881986 0.1157549952952631 0.1225262773083581 1:1 2:0.84 3:0.57 4:0.88 5:0.73 6:0.43 7:0.63 10:0.06 11:0.45 12:0.45 13:0.99 14:0.8 15:0.83 16:1 
0 0 0 0 0 0.004962503555078211 0 0 0 1:0.4 2:0.56 3:1 4:0.92 5:0.26 6:1 7:0.15 8:0.51 9:0.77 10:0.09 13:0.16 14:0.46 15:1 16:0.8 
0.02714970847037175 0.05713231164897775 0.03749210709178948 0.01376008005658197 0 0.08186557088866173 0.05394213495937746 0.00353809229128209 0.0274397117192653 1:0.35 2:0.55 3:0.46 4:0.55 5:1 6:0.23 7:0.6 9:0.05 10:0.28 11:0.32 12:0.64 13:0.65 14:1 16:0.79 
0 0.4014385977334926 0 0 0 0.9118237136630627 0.3828523380146663 0 0.3936648781981161 1:0.23 2:0.49 3:0.81 4:0.69 5:1 6:1 7:0.35 8:0.87 9:0.33 10:0.53 11:0.68 12:0.21 13:0.13 16:0.28 
0 0 0 0.03881170578543194 0 0.07713581140565606 0 0 0 1:0.03 2:0.97 3:0.42 4:0.63 5:1 6:0.31 7:0.61 10:0.19 11:0.38 12:0.57 13:0.8 14:0.95 15:0.32 16:1 
0.02417996090182167 0.09582839777394828 0.005815436025518261 0.02857834148509748 0.0005292224725266342 0 0 0.01103161977620743 0.01331552145730454 1:1 2:1 3:0.46 4:0.9 5:0.57 6:0.55 7:0.91 8:0.23 9:0.46 12:0.17 13:0.35 14:0.5 15:0.85 16:0.75 
0.003774531333390466 0 0.009745010528929003 0 0 0.002618647687636072 0.09372731355456629 0.3339344567602104 0.1234082275288036 1:0.2 2:0.86 4:0.73 5:0.82 6:0.85 7:0.35 8:1 9:0.19 10:0.45 11:0.3 13:1 14:0.33 15:0.24 16:0.54 
0 0 0 0 0 0 0 0.1797690521418052 0 2:1 3:0.31 4:0.67 5:0.98 6:0.38 7:0.86 9:0.15 10:0.08 11:0.65 12:0.45 13:1 14:0.84 15:0.26 16:0.86 
0 0.5025946518275003 0.06115629247446074 0 0.08977868744606321 0 0.01314568981513517 0.1631038894273099 0 1:0.24 2:0.49 3:0.98 4:0.7 5:1 6:1 7:0.49 8:0.74 9:0.84 10:0.35 11:0.69 14:0.18 15:0.69 16:0.45 
0.1902245429484487 0.399304867233317 0.2400314626138079 0.1677585676914503 0.2853584686619414 0.2492923720578385 0.3147628151026575 0.1703137258221677 0.1476834387404601 1:0.09 2:0.41 3:0.73 4:0.8 6:1 7:0.28 8:0.56 9:0.92 10:0.16 11:0.35 13:0.22 14:0.42 15:1 16:0.74 
0.04141431510307297 0.08814483240472851 0.05459747396702728 0.1666526928277707 0.07378107223905106 0.5108428274526373 0.08217344070413929 0.11859893238851 0.04255091402887622 1:0.41 2:0.94 3:0.22 4:0.69 5:0.9 6:0.42 7:1 8:0.03 9:0.2 12:0.37 13:0.47 14:0.73 15:0.4 16:1 
0.1940419790029307 0.3511236855141964 0.2006829499291269 0.177680701700453 0.2731935074629958 0.2603475562612673 0.3125570047981939 0.3962662372984527 0.01056935663133066 1:0.05 2:0.76 3:0.29 4:1 5:1 6:0.81 7:0.55 8:0.39 11:0.61 12:0.03 13:0.15 14:0.44 15:0.21 16:0.83 
0.07650314242974966 0.2291656004264171 0.1593551201621502 0.06985096008214992 0.2139826107399028 0.1377912772872384 0.2315270487063087 0.04009464870460316 0.06954261264362287 1:0.77 2:0.99 4:0.73 5:1 6:1 7:0.12 8:0.84 9:0.06 10:0.48 11:0.12 13:0.99 14:0.39 15:0.16 16:0.51 
0 0 0 0 0 0.3485824273930508 0 0 0 1:0.53 2:0.79 4:0.92 5:0.19 6:0.58 7:0.8 8:0.27 9:0.57 11:0.26 12:0.34 13:0.8 14:0.68 15:1 16:1 
0.2671100004890716 0 0 0 0 0 0 0.3554879897340197 0 1:1 2:0.87 3:0.7 4:1 5:0.5 6:0.66 7:0.69 8:0.28 9:0.35 12:0.17 13:0.44 14:0.46 15:0.92 16:0.72 
0.02066792834159992 0.0560784153701703 0.02999460303961027 0 0 0 0.04581221470742872 0 0.01858920010628195 2:0.86 3:0.35 4:0.67 5:0.98 6:0.33 7:0.81 9:0.24 10:0.22 11:0.74 12:0.6 13:1 14:1 15:0.15 16:0.99 
0 0 0 0 0.01235793521673051 0.028564429984932 0 0 0 2:0.45 3:0.53 4:0.36 5:0.62 7:0.07 8:0.06 9:0.52 10:0.38 11:1 12:0.7 13:0.71 14:1 15:0.11 16:0.84 
0.03479734246444422 0.08094781895199901 0.05308333983346195 0.003363037927668558 0 0 0.07168765855741434 0 0.05335599119496839 1:0.11 2:1 3:0.17 4:0.71 5:0.73 6:0.37 7:1 9:0.09 10:0.11 11:0.27 12:0.48 13:0.92 14:0.79 16:0.95 
0 0 0 0 0.01614267776992269 0 0.002243376684723145 0 0 1:0.66 2:0.48 3:1 4:0.82 5:0.52 6:1 7:0.39 8:0.64 9:0.79 10:0.29 11:0.43 14:0.26 15:0.59 16:0.56 
0 0 0.02066267957742302 0 0 0.009687278972478874 0.02468688240478467 0 0 1:0.01 2:0.67 3:0.44 4:1 5:1 6:0.75 7:0.64 8:0.36 9:0.17 11:1 12:0.18 13:0.42 14:0.52 16:0.88 
0.01139347573217788 0.02102426112467662 0.0196462562716103 0 0 0 0.02616733641194999 0 0.01024504675975105 2:0.83 3:0.18 4:0.5 5:0.63 6:0.16 7:0.23 9:0.03 10:0.35 11:0.5 12:0.68 13:1 14:1 15:0.13 16:0.95 
0.1786804331271678 0.358795416494532 0.2342699882958395 0.127929850338855 0.1624041114738912 0.2099092997932141 0.3621745433847882 0.1872305205659217 0.1626440851673025 1:0.96 2:0.9 3:0.02 4:0.68 5:0.78 6:0.32 7:0.85 9:0.15 10:0.26 11:0.72 12:0.67 13:1 14:1 16:0.71 
0.01312600617018263 0.04106576611653989 0.01804917946142223 0.02661665729554295 0 0 0.002676917591042791 0.04873772442324413 0.01315432095316027 1:0.59 2:1 3:0.06 4:0.57 5:1 6:0.72 7:0.26 8:0.86 9:0.64 10:0.46 13:0.91 14:0.1 15:0.35 16:0.34 
0.0480411029093448 0.0945225022206964 0.06655808353183565 0.02087960040937958 0 0.00248471131718848 0.08908061241613688 0.06520881340616157 0.04467692074851467 2:0.69 3:0.49 4:0.35 5:0.63 7:0.01 8:0.06 9:0.41 10:0.41 11:1 12:0.72 13:0.99 14:1 15:0.19 16:0.76 
0 0 0 0 0 0 0 0.4665589327086319 0 1:0.45 2:0.71 3:0.63 4:1 5:0.2 6:0.78 7:0.44 8:0.39 9:0.51 12:0.11 13:0.4 14:0.4 15:1 16:0.52 
0.1311610991628842 0.1929589347817834 0.1033351593228547 0.08671125472717151 0.1431408272904471 0.4732044107182358 0.1720276195556512 0.4054737120060807 0.0964566253987212 1:0.32 2:0.68 4:1 5:0.38 6:0.71 7:1 8:0.37 9:0.75 11:0.13 12:0.18 13:0.35 14:0.59 15:0.9 16:0.95 
0 0 0.01117558808735776 0 0.04492141130054257 0.001884794753260329 0.02403270331542665 0 0 1:0.78 2:0.96 3:0.09 4:0.75 5:1 6:0.66 7:0.82 8:1 9:0.17 10:0.54 13:0.81 14:0.18 15:0.24 16:0.61 
-0 0 0 0 0 0 0 0 0.23994067936808 2:0.73 3:0.19 4:0.99 5:0.72 6:1 7:0.7 8:0.73 9:0.32 10:0.48 11:0.05 12:0.18 13:0.46 15:1 
-0 1.05732359027863 0 0 0 0 0 0 0 2:0.74 3:0.28 4:1 5:0.69 6:0.99 7:0.79 8:0.63 9:0.59 10:0.28 11:0.28 13:0.57 15:1 16:0.02 
-1.115432182468109 8 1.276358099614415 0.6710377101671018 0.9098822951532586 0.8889590255132066 1.51242633097943 8 7.970047459094344 2:0.79 3:0.31 4:0.94 5:0.68 6:1 7:1 8:0.88 9:0.94 10:0.62 11:0.74 12:0.39 13:0.51 14:0.18 15:0.64 
-0 3.020052723556684 0 0 0 0 0 0 0 1:0.51 2:0.91 3:0.86 4:1 5:0.7 6:0.66 7:0.43 8:0.34 9:0.08 10:0.06 12:0.11 13:0.49 14:0.1 15:1 
-0 0 0 0 0 0 0 0 1.183693280962946 2:0.99 3:0.5 4:1 5:0.77 6:0.77 7:0.59 8:0.5 9:0.29 10:0.26 12:0.02 13:0.48 15:1 16:0.04 
-0.138840928026373 0 0.1426906458575897 0.1497314630361607 0.1303722940319874 0.09367508400421461 0.1203912637688203 0 0.06688298334219267 1:0.26 2:0.76 3:0.23 4:1 5:0.52 6:0.68 7:0.43 8:0.3 10:0.12 11:0.49 12:0.05 13:0.97 15:1 16:0.32 
-0 0 0 0 0 0 0 1.736150991196152 0 1:0.26 2:0.87 3:0.64 4:1 5:0.66 6:0.57 7:0.39 8:0.21 11:0.15 12:0.29 13:0.57 14:0.21 15:1 16:0.21 
-0 0 0 0 0 0 0 0 0.2068009039411017 1:0.3 2:0.82 3:0.52 4:1 5:1 6:0.85 7:0.81 8:0.53 9:0.38 10:0.28 12:0.26 13:0.56 14:0.17 15:0.97 
-0 0 0 0 0 0 0 0 0.09242650105417742 1:0.5 2:0.6 3:0.47 4:1 5:0.92 6:0.95 7:0.88 8:0.47 9:0.48 10:0.15 13:0.49 14:0.05 15:1 16:0.03 
-0 0 0 0 0 0 0 0.6448944644682988 0 2:0.63 3:0.23 4:1 5:0.56 6:0.78 7:0.48 8:0.34 9:0.19 11:0.11 12:0.13 13:0.55 14:0.23 15:1 16:0.11 
-0 0.8479434165386628 0 0 0 0 0 2.563902945296349 0 2:0.78 3:0.4 4:1 5:0.8 6:0.86 7:0.7 8:0.42 9:0.4 10:0.07 11:0.14 13:0.56 14:0.18 15:1 16:0.03 
-0 3.442794112480517 0 0 0 0 0 0 0 1:0.53 2:0.81 3:0.86 4:1 5:0.98 6:0.69 7:0.83 8:0.37 9:0.52 10:0.09 12:0.03 13:0.47 15:1 16:0.02 
-0 0 0 0 0 0 0 0.9906646953180126 0 2:0.93 3:0.43 4:1 5:0.93 6:0.9 7:0.89 8:0.63 9:0.6 10:0.39 11:0.28 12:0.17 13:0.44 15:1 16:0.04 
-1.186242157515861 1.03182702632222 0.8521301643650241 0.7178332132778976 0.9656260495099682 0.8860201090328669 1.162211106534238 1.134688729722683 1.505014433082516 1:0.46 2:0.95 4:0.94 5:0.18 6:1 7:0.94 8:0.92 9:0.59 10:0.61 11:0.04 12:0.32 13:0.49 14:0.07 15:1 
-0 0 0 0 0 0 0 0 4.605522836403265 2:0.78 3:0.23 4:1 5:0.77 6:0.99 7:1 8:0.75 9:0.7 10:0.5 11:0.3 12:0.28 13:0.29 14:0.06 15:0.84 
-0.6304790205287751 0.8644050026965019 0.2775757744443412 0.393953575792953 0.5049884806662137 0.4626168502679969 0.5119671124329086 0 0.1104514912757245 1:0.16 2:0.37 3:0.08 4:0.82 5:0.49 6:1 7:0.55 8:0.56 9:0.26 10:0.17 13:0.5 14:0.03 15:1 16:0.03 
-0 2.272989135915991 0 0 0 0 0 0 0 1:0.32 2:0.71 3:0.55 4:1 5:0.72 6:0.77 7:0.56 8:0.44 9:0.32 10:0.12 12:0.04 13:0.43 14:0.13 15:1 
-0.7579887195822721 0 0.5777093968776916 0.5170737152733217 0.6715679045663683 0.5764701815925868 0.6991193201941071 0 0.4132602055722016 1:0.85 2:0.69 3:0.81 4:1 5:1 6:0.66 7:0.76 8:0.3 9:0.36 10:0.05 13:0.5 14:0.07 15:0.99 16:0.05 
-0 0 0 0 0 0 0 0.3872038273440384 0 2:0.71 3:0.24 4:1 5:0.64 6:0.99 7:0.69 8:0.63 9:0.53 10:0.29 11:0.28 13:0.57 14:0.05 15:1 16:0.1 
-0.2538061908015112 0 0 0.05722074531918335 0.1999151863808007 0.1999274347050444 0.2043656093767811 0.1741677587905181 0.09242511486021505 1:0.01 2:0.68 3:0.04 4:1 5:0.55 6:0.77 7:0.55 8:0.31 9:0.07 10:0.02 12:0.06 13:0.6 15:1 16:0.19 
-0 0 0 0 0 0 0 0.4728086166944707 0 1:0.18 2:0.83 3:0.53 4:1 5:0.67 6:0.75 7:0.43 8:0.47 9:0.12 10:0.22 13:0.5 14:0.11 15:1 16:0.22 
-0 0.803780957431376 0 0 0 0 0 0 0 1:0.54 2:0.69 3:0.78 4:1 5:0.7 6:0.55 7:0.39 8:0.18 11:0.16 12:0.23 13:0.58 14:0.18 15:1 16:0.1 
-0 0.1405856050541154 0 0 0 0 0 0 0 1:0.12 2:0.66 3:0.51 4:0.92 5:1 6:1 7:0.74 8:0.7 9:0.36 10:0.42 12:0.15 13:0.35 15:1 16:0.09 
-0 1.019943966016028 0 0 0 0 0 0 0 2:0.86 3:0.35 4:1 5:0.66 6:0.81 7:0.66 8:0.55 9:0.51 10:0.3 11:0.26 12:0.08 13:0.49 15:1 16:0.01 
-0 0 0 0 0 0 0 0 0.1305923313267175 1:0.23 2:0.8 3:0.14 4:0.8 5:0.77 6:1 7:1 8:0.7 9:0.66 10:0.39 12:0.19 13:0.23 14:0.12 15:0.97 
-0 0.6769544888974964 0 0 0 0.00658303417824558 0 0 0.1926762217775551 1:0.4 2:0.8 3:0.63 4:1 5:1 6:0.91 7:0.84 8:0.67 9:0.52 10:0.46 11:0.18 12:0.28 14:0.06 15:0.47 
-0 6.811961981610188 0 0 0 0 0 0 0 1:0.05 2:0.68 3:0.22 4:1 5:0.47 6:0.75 7:0.35 8:0.35 9:0.08 10:0.01 12:0.02 13:0.5 14:0.04 15:1 
-0 0 0 0.04531074933305339 0 0 0 0 0 1:0.35 2:0.98 3:0.6 4:1 5:0.47 6:0.63 7:0.25 8:0.3 10:0.04 11:0.34 12:0.02 13:0.68 15:1 16:0.03 
-0 0 0 0 0 0 0 0.07022156853973868 0 1:0.31 2:0.65 4:0.88 5:0.4 6:1 7:0.68 8:0.72 9:0.56 10:0.32 11:0.28 13:0.57 14:0.01 15:1 16:0.06 
-0.3725568831371688 0.5533544939023595 0.2227511612872451 0.1906961198445866 0.2373692581927429 0.2302598193376528 0.2431349671380647 0.1888857879963104 0 1:0.32 2:0.53 3:0.41 4:0.9 5:1 6:1 7:0.94 8:0.6 9:0.56 10:0.25 13:0.3 14:0.09 15:0.99 16:0.11 
-0 2.261410052650774 0 0 0 0 0 0 0 1:0.72 2:0.77 3:0.97 4:1 5:1 6:0.73 7:0.74 8:0.42 9:0.4 10:0.16 13:0.36 14:0.06 15:0.82 16:0.04 
-0.6614563322019051 1.566048448837596 0.8915935116391802 0.401553650747052 0.5297102614176308 0.5192798500430761 0.7022832044569924 0.8338069822587681 1.365035060178779 2:0.8 3:0.17 4:1 5:0.41 6:0.99 7:0.6 8:0.83 9:0.53 10:0.52 11:0.56 12:0.2 13:0.77 14:0.07 15:1 
-0 0 0 0.07997021900401358 0.1038308429495197 0 0 1.838382842696981 0 1:0.06 2:0.89 3:0.52 4:1 5:1 6:0.91 7:0.93 8:0.65 9:0.62 10:0.43 11:0.25 12:0.23 14:0.02 15:0.55 
-0.3102617136471214 0.4510350760898267 0 0.006202673983927176 0 0.0196140055577338 0.00403728007818371 2.697358697317492 0 1:0.63 2:0.81 3:0.95 4:1 5:0.95 6:0.62 7:0.66 8:0.26 9:0.21 12:0.15 13:0.48 14:0.35 15:1 16:0.15 
-0.4019585967001446 1.664792251341338 0 0.3529268464309895 0.3409978437375831 0.2921916324099347 0.3670620261712289 0.1101532951528001 0.3125161408029964 2:0.72 3:0.19 4:1 5:0.27 6:0.6 7:0.1 8:0.21 9:0.02 10:0.01 11:0.35 13:0.68 14:0.01 15:1 16:0.08 
-0 0 0 0 0 0 0 2.589840464668782 0 1:0.26 2:0.93 3:0.7 4:1 5:0.75 6:0.55 7:0.44 8:0.17 11:0.06 12:0.24 13:0.54 14:0.24 15:1 16:0.12 
-0 1.544342311705156 0 0 0 0 0 0 0 2:0.93 3:0.52 4:1 5:0.94 6:0.87 7:0.8 8:0.63 9:0.53 10:0.42 11:0.23 12:0.2 13:0.42 14:0.03 15:1 
-0 0 0 0 0 0 0 0 0.05263426148642165 1:0.32 2:0.63 3:0.52 4:1 5:0.86 6:0.69 7:0.7 8:0.24 9:0.24 12:0.04 13:0.53 14:0.02 15:1 16:0.01 
-0 0 0 0 0 0 0 0 0.4918950413669096 2:0.62 3:0.22 4:0.89 5:0.69 6:1 7:0.86 8:0.77 9:0.59 10:0.5 11:0.28 12:0.26 13:0.47 14:0.04 15:1 
-0.7384846274998782 0 0.6287155193797638 0.5702431854061475 0.6871542291964722 0.6347365941867623 0.7195448284346374 0 0.3785394763968986 1:0.61 2:1 3:0.96 4:0.98 5:0.83 6:0.49 7:0.46 8:0.14 11:0.06 12:0.29 13:0.54 14:0.27 15:1 16:0.08 
-0 0 0 0 0 0 0 1.649025564272158 0 2:0.83 3:0.3 4:1 5:0.78 6:0.96 7:1 8:0.74 9:0.7 10:0.51 11:0.37 12:0.3 13:0.35 14:0.07 15:0.83 
-0 0 0.6075637570373188 0.1062461367038841 0 0 0 0 0 2:0.95 3:0.27 4:1 5:0.32 6:0.63 7:0.15 8:0.31 9:0.11 10:0.1 11:0.41 12:0.07 13:0.7 14:0.03 15:1 
-0 0.5298937205605547 0 0 0 0 0 0 0 1:0.38 2:0.68 3:0.56 4:1 5:0.54 6:0.5 7:0.32 8:0.08 11:0.28 12:0.16 13:0.63 14:0.02 15:1 16:0.08 
-0 3.906396912568987 0 0 0 0 0 0 0 2:0.79 3:0.28 4:1 5:0.54 6:0.9 7:0.46 8:0.62 9:0.28 10:0.36 11:0.18 12:0.09 13:0.52 15:1 16:0.05 
-0 2.76168318565174 0 0 0 0 0 0.2730579934944286 0 1:0.07 2:0.57 3:0.15 4:0.93 5:0.65 6:1 7:0.67 8:0.63 9:0.44 10:0.27 13:0.36 14:0.11 15:1 16:0.11 
-0 0.7004157447729822 0.9063529368541492 0 0 0 0 0 0 2:0.8 3:0.22 4:1 5:0.24 6:0.66 7:0.07 8:0.34 10:0.14 11:0.34 12:0.09 13:0.69 14:0.04 15:1 
-0 0 0 0 0 0 0 0 5.056878066653599 1:0.08 2:0.91 3:0.63 4:1 5:1 6:0.82 7:0.79 8:0.55 9:0.42 10:0.31 12:0.11 13:0.37 14:0.01 15:1 
-0 0.2187412638793621 0 0 0 0 0 0 0 1:0.12 2:0.8 3:0.57 4:1 5:0.76 6:0.74 7:0.56 8:0.41 9:0.28 10:0.1 12:0.04 13:0.42 14:0.13 15:1 
-0 0 0.488428741404198 0 0 0 0.01460344421223041 0 0 1:0.02 2:0.85 3:0.28 4:1 5:0.53 6:0.81 7:0.31 8:0.54 10:0.35 11:0.35 12:0.35 13:0.67 14:0.17 15:1 
-0 0 0.7523113777996325 0 0 0 0 0.244580879720686 0 2:0.68 3:0.08 4:1 5:0.33 6:0.9 7:0.37 8:0.5 9:0.25 10:0.11 11:0.45 13:0.72 14:0.06 15:1 16:0.13 
-0 0 0 0.007186046117329492 0 0 0 0 0 1:0.17 2:1 3:0.46 4:0.89 5:0.4 6:0.58 7:0.17 8:0.34 10:0.08 11:0.33 12:0.05 13:0.67 14:0.04 15:1 
-0.09398459181274001 0 0 0.02427391192670677 0.05900755039483166 0.07550446740862772 0.08730851008749073 0 0.03393031431755109 1:0.3 2:0.59 3:0.46 4:1 5:0.49 6:0.47 7:0.27 8:0.05 10:0.07 11:0.33 12:0.16 13:0.66 15:1 16:0.04 
-0.45186675805274 6.551127043230829 0 0.2658310182738114 0.3209649432156104 0.2944657798479555 0.3359385913181888 0 0.1537646652960909 1:0.01 2:0.55 3:0.07 4:1 5:0.3 6:0.92 7:0.2 8:0.45 10:0.04 11:0.23 13:0.61 14:0.1 15:1 16:0.12 
-0 0.2094796198392751 0 0 0 0 0 0 0 1:0.5 2:0.85 3:0.84 4:1 5:0.76 6:0.6 7:0.48 8:0.24 9:0.07 12:0.02 13:0.5 14:0.04 15:1 16:0.04 
-0.3384177596333903 0 0 0.1489590792797478 0.2985623722148042 0.294058247178433 0.2941040445012953 0.583036067630584 0.09148613931162948 2:0.9 3:0.15 4:1 5:0.24 6:0.67 7:0.11 8:0.34 9:0.02 10:0.11 11:0.35 12:0.05 13:0.67 14:0.02 15:1 
-0.008730640151526759 0 0 0 0 0 0 0 0 1:0.51 2:0.63 3:0.59 4:1 5:0.79 6:0.7 7:0.56 8:0.31 9:0.2 12:0.06 13:0.47 14:0.24 15:1 16:0.19 
-0.5608481572935073 0 0.4153949768702322 0.4160795613635536 0.3900853556379556 0.4240786486450608 0.5507964584900953 0 0.2314139073133401 1:0.68 2:0.94 3:0.49 4:1 5:0.78 6:0.88 7:0.42 8:0.61 10:0.37 11:0.25 12:0.16 13:0.79 14:0.08 15:1 
-0 2.791534624102134 0 0 0 0 0 2.710353412527893 0 1:0.16 2:0.67 3:0.35 4:1 5:0.5 6:0.7 7:0.36 8:0.34 9:0.15 12:0.21 13:0.48 14:0.2 15:1 16:0.09 
-0.01075885800926034 0.9284226233968167 0 0 0 0 0 0.2554346526654482 0 2:0.63 3:0.36 4:1 5:0.81 6:0.93 7:0.66 8:0.44 9:0.3 10:0.05 13:0.47 14:0.19 15:1 16:0.1 
-0.3346595146269828 0 0.3383168497753245 0.2751023857316454 0.3570309151099428 0.2974937336030681 0.3755170009833014 0 0.1254161793798925 1:0.2 2:0.82 3:0.11 4:0.97 5:0.93 6:1 7:1 8:0.76 9:0.61 10:0.52 11:0.11 12:0.3 14:0.07 15:0.85 
-0.4108890314449701 0.5158173322626738 0.2524356065079107 0.348164535020157 0.3537955885438878 0.3159091261142487 0.3632162348313819 0 0.2158114164862408 1:0.39 2:0.96 3:0.63 4:1 5:0.52 6:0.43 7:0.28 10:0.04 11:0.33 12:0.15 13:0.66 15:1 
-0 0 0 0 0 0 0 0 0.04379200531545337 1:0.14 2:0.78 3:0.38 4:1 5:0.82 6:0.81 7:0.69 8:0.46 9:0.24 10:0.24 12:0.3 13:0.54 14:0.21 15:1 
-0 3.564123057283426 0 0 0 0 0 0 0 2:0.66 3:0.24 4:0.96 5:0.56 6:1 7:0.45 8:0.63 9:0.24 10:0.3 11:0.15 13:0.57 14:0.04 15:1 16:0.07 
-0 0.738586694491575 0 0 0 0 0 0.5520268134551261 0 2:0.99 3:0.27 4:1 5:0.49 6:0.83 7:0.51 8:0.55 9:0.43 10:0.29 11:0.44 12:0.03 13:0.72 15:1 16:0.02 
-0 0 0 0 0 0 0 0 0.9763434093400342 1:0.04 2:0.82 3:0.47 4:1 5:0.84 6:0.85 7:0.77 8:0.5 9:0.44 10:0.21 12:0.13 13:0.53 14:0.16 15:1 
-0 0 0 0 0 0 0 0.4160025455295891 0 1:0.46 2:0.95 3:0.87 4:1 5:0.92 6:0.56 7:0.59 8:0.2 9:0.15 12:0.12 13:0.5 14:0.14 15:1 16:0.11 
-0 0 0 0 0 0 0 0.9654794883147477 0 1:0.5 2:0.84 3:0.85 4:1 5:1 6:0.64 7:0.73 8:0.27 9:0.32 12:0.18 13:0.45 14:0.31 15:0.81 
-0 0.2844727458242923 0 0 0 0 0 0 0 2:0.66 3:0.3 4:0.9 5:0.69 6:1 7:0.65 8:0.62 9:0.39 10:0.29 11:0.12 12:0.01 13:0.57 15:1 16:0.03 
-0 0 0 0 0 0 0 0.5285016008822134 0 1:0.13 2:0.67 4:0.93 5:0.78 6:1 7:1 8:0.71 9:0.6 10:0.41 11:0.09 12:0.15 13:0.09 15:0.89 16:0.06 
-0.03508333464777701 0 0 0 0 0 0 0.8043486384108324 0 1:0.22 2:0.76 3:0.54 4:1 5:0.62 6:0.58 7:0.39 8:0.2 11:0.13 12:0.24 13:0.57 14:0.27 15:1 16:0.23 
-0 0 0 0 0 0 0 0.5152457016655905 0 1:0.45 2:0.78 3:0.75 4:1 5:1 6:0.76 7:0.82 8:0.43 9:0.48 10:0.16 13:0.33 14:0.08 15:0.88 16:0.1 
-0.7390335786720599 2.939490154442118 0.4398840300839115 0.411568649979505 0.5564368889114091 0.5034856911605404 0.5624677359907324 0 0 1:0.06 2:0.48 3:0.32 4:0.77 5:0.75 6:1 7:1 8:0.79 9:0.73 10:0.51 11:0.33 12:0.26 14:0.01 15:0.62 
-0.6379225204813755 0 0.2424704067543749 0.4197409697113185 0.5129617168637862 0.543309643829616 0.5838255372682634 0 0.331236837359018 1:0.04 2:0.92 3:0.62 4:1 5:1 6:0.81 7:0.53 8:0.55 10:0.32 11:0.18 12:0.12 13:0.84 14:0.07 15:0.88 
-0 1.974305816136273 0 0 0 0 0 0 0.04641723862622965 2:0.52 3:0.2 4:0.83 5:0.56 6:1 7:0.79 8:0.84 9:0.58 10:0.52 11:0.36 12:0.2 13:0.59 14:0.01 15:1 
-0 0 0 0 0 0 0 0.8471146692703841 0 2:0.8 3:0.17 4:1 5:0.53 6:0.94 7:0.75 8:0.73 9:0.77 10:0.47 11:0.63 12:0.23 13:0.61 14:0.01 15:1 
-1.43722355683191 2.828643309329974 0.8797754397751275 0.9164130368741551 1.040302221733465 1.195997354909436 1.117765818496312 1.117598735140417 0.9023616772107609 1:0.68 2:0.93 3:1 4:1 5:0.97 6:0.76 7:0.72 8:0.57 9:0.43 10:0.38 11:0.13 12:0.21 14:0.01 15:0.39 
-0 8 0 0 0 0 0 0 0 1:0.41 2:0.73 3:0.6 4:1 5:0.72 6:0.73 7:0.61 8:0.4 9:0.37 10:0.1 13:0.49 14:0.01 15:1 16:0.02 
-0.4635485666563559 0 0.3403534585061146 0.2932450722377776 0.4076810737337764 0.3060512241962116 0.4175217163503085 1.322427310485307 0.3274302698488386 1:0.02 2:0.95 3:0.64 4:1 5:1 6:0.78 7:0.87 8:0.5 9:0.51 10:0.25 12:0.06 13:0.2 15:0.89 16:0.03 
-0 5.232740252376286 0 0 0 0 0 0 0 1:0.3 2:0.83 3:0.62 4:1 5:0.51 6:0.69 7:0.29 8:0.4 10:0.14 11:0.01 13:0.5 14:0.08 15:1 16:0.1 
-0.603960442890176 0 0.5343801883978856 0.5743117207749546 0.4534994585625711 0.3903006195299368 0.4056055817443134 0.2555057521106202 0.281169007810833 1:0.42 2:0.88 3:0.49 4:1 5:0.6 6:0.58 7:0.37 8:0.2 10:0.28 11:0.46 12:0.15 13:0.89 15:1 16:0.4 
-0 0.1356878979167397 0 0 0 0 0 0 0 2:0.88 3:0.31 4:1 5:0.65 6:0.9 7:0.62 8:0.68 9:0.45 10:0.48 11:0.38 12:0.26 13:0.62 14:0.09 15:1 
-0 2.514999211313547 0 0 0 0 0 0 0.2489855729221997 2:0.79 3:0.47 4:0.96 5:1 6:1 7:0.8 8:0.74 9:0.39 10:0.51 11:0.05 12:0.26 13:0.25 14:0.04 15:0.82 
-0.2000085892540622 0 0.04316110880688165 0.04430797377094817 0.09493106589435697 0.07433952681466161 0.1027279585514901 0 0 1:0.58 2:0.67 3:0.24 4:0.85 5:0.86 6:1 7:0.92 8:0.7 9:0.48 10:0.42 12:0.14 13:0.29 15:1 16:0.07 
-0 0.9161890554426203 0 0 0 0 0 0 0 1:0.27 2:0.75 3:0.64 4:1 5:1 6:0.99 7:0.79 8:0.7 9:0.45 10:0.44 11:0.06 12:0.2 15:0.64 16:0.06 
-0 2.080670785967166 0 0 0 0 0 0 0 1:0.63 2:0.77 3:0.95 4:1 5:0.92 6:0.63 7:0.64 8:0.28 9:0.26 10:0.02 13:0.5 14:0.04 15:1 16:0.07 
-0.3418406168094034 1.185208225207298 0.1626280680511315 0 0.07553609721536439 0.3412815303634571 0.2030504809387041 1.350022636276462 0.06219489279770785 1:0.24 2:0.88 3:0.59 4:1 5:1 6:0.91 7:0.89 8:0.64 9:0.61 10:0.42 11:0.28 12:0.22 15:0.47 16:0.02 
-0.7455595215715766 -0.08417715347215567 0.4325728385574625 0.1938490669397988 0.5262891947387353 0.5967602080890121 0.7492062045728118 0.3808679456084895 0.135657841831492 1:1 2:0.84 3:0.31 4:1 6:0.88 7:0.08 8:0.7 9:0.15 10:0.53 11:0.15 12:0.35 14:0.17 
-0 -0 0.1326692773530183 0 0.3130594199616196 0 0.08517864100660096 0 0 1:0.29 2:0.38 3:0.61 4:0.6 5:0.92 6:0.83 7:1 8:1 9:0.73 10:0.76 11:0.49 12:0.5 13:0.25 14:0.25 
-0.8040902064244901 -0.08332734786596235 0.3001005111642226 0.3132562234604871 1.076312514954107 0.3392022709416158 0.896221071026621 0 0 1:0.88 2:0.8 3:0.12 4:0.8 5:1 6:1 7:1 8:0.91 9:0.65 10:0.68 11:0.29 12:0.46 13:0.06 14:0.23 
-0.4273612483094847 -0.3548611335310196 0.4326205555264986 0.1793721705804471 0.368872271381034 0.244959739411898 0.4405069747814078 1.11236798719685 3.875960663468653 2:1 3:0.73 4:0.97 5:0.95 6:0.8 7:1 8:0.64 9:0.95 10:0.48 11:0.82 12:0.31 13:0.64 14:0.15 15:0.23 
-0.00517955132431501 -0 0.1588720104801281 0.01456842341888677 0.01814519985020639 0.07976600371173623 0.2984739520579898 0 0 2:0.7 3:0.53 4:0.88 5:0.64 6:1 7:0.62 8:0.78 9:0.7 10:0.57 11:0.83 12:0.36 13:1 14:0.14 15:0.98 
-0 -0 0 0 0 0 0 1.527399979753918 0 2:0.67 3:0.16 4:0.8 5:0.64 6:1 7:0.85 8:0.99 9:0.85 10:0.74 11:0.89 12:0.49 13:0.95 14:0.24 15:1 
-0 -1.442729945064961 0 0 0 0 0 5.732648872119125 0 2:0.75 3:0.29 4:0.79 5:0.71 6:0.91 7:1 8:1 9:0.82 10:0.74 11:0.68 12:0.48 13:0.57 14:0.21 15:0.58 
-0.1466817817724755 -0 0.07886708121417811 0.1859337362973647 0 0 0 0 0 1:1 2:1 3:0.92 4:0.85 5:0.75 6:0.71 7:0.58 8:0.57 9:0.58 10:0.42 11:0.33 12:0.28 13:0.08 14:0.14 
-0.4888213402415408 -0 0 0 0.05812642252894889 0 0 0 0 1:0.14 2:0.55 3:0.4 4:0.61 5:0.59 6:1 7:0.58 8:0.62 9:0.59 10:0.21 11:1 12:0.14 13:0.48 14:0.05 
-0 -1.052188917940111 0 0 0 0 0 0 0 1:0.28 2:0.55 3:0.63 4:0.78 5:1 6:1 7:0.75 8:0.71 9:0.56 10:0.42 11:0.35 12:0.13 15:0.25 
-0.004474938713181321 -0 0 0 0 0 0 0 0 1:0.21 2:0.82 3:0.13 4:0.55 5:0.54 6:1 7:0.27 8:0.87 9:0.38 10:0.37 11:0.4 14:0.07 15:1 16:0.05 
-0 -0 0.1822677857104198 0 0 0 1.470320900649931 0 0.4323082005948585 1:0.36 2:0.63 4:0.67 5:0.53 6:0.84 7:1 8:1 9:0.83 10:0.74 11:0.66 12:0.47 13:0.53 14:0.21 15:0.51 
-0.5890795998201741 -0.6924393773596409 0.1762155498065809 0.2574452292328607 0.4254799816846035 0.3589382691983268 1.484056949793977 1.116017866637434 0.1705191247552057 1:0.44 2:0.6 4:0.77 5:0.47 6:0.99 7:1 8:1 9:0.84 10:0.75 11:0.75 12:0.5 13:0.75 14:0.24 15:1 
-0 -0 0.1006357502581695 0 0 0 0 2.074146894756927 0 2:0.58 3:0.04 4:0.67 5:0.42 6:0.83 7:0.79 8:1 9:1 10:0.98 11:0.81 12:0.66 13:0.65 14:0.34 15:0.66 
-0 -2.245901132113265 0 0 0 0 0 0 0 2:0.65 3:0.37 4:0.82 5:0.82 6:1 7:1 8:0.9 9:0.86 10:0.65 11:0.7 12:0.39 13:0.55 14:0.14 15:0.49 
-0 -0 0 0 0 0 0 0 0.827085141031167 1:0.29 2:0.75 3:0.29 4:0.85 5:1 6:1 7:0.85 8:0.81 9:0.59 10:0.61 11:0.38 12:0.41 13:0.15 14:0.2 
-0.4553001399599119 -0.1054673912787107 0.4808069309920128 1.795626552741682 0.4508989464386016 0.5297222945078437 0.1635793170833032 0.2052925384566465 0 1:0.15 2:0.73 3:0.42 4:1 5:0.32 6:0.72 7:0.27 8:0.39 9:0.44 10:0.07 11:1 13:0.52 14:0.05 16:0.03 
-0.4648329801382615 -8 0.5464051413816193 0.2492623209959449 0.3381153153418283 0.2868126300673603 0.3525420057514465 0.5646033553264629 0 2:0.62 3:0.21 4:1 5:0.27 6:0.8 7:0.26 8:0.35 9:0.04 10:0.04 11:0.12 13:0.55 14:0.02 15:1 16:0.05 
-0 -0.8495300434139471 0 0 0 0 0 0 0 2:0.54 3:0.49 4:0.75 5:0.96 6:1 7:0.91 8:0.75 9:0.69 10:0.45 11:0.51 12:0.16 13:0.27 15:1 16:0.06 
-0 -0.01828174797231246 0 0 0 0 0 0 0 2:1 3:0.82 4:0.95 5:1 6:0.79 7:1 8:0.64 9:0.91 10:0.48 11:0.82 12:0.32 13:0.55 14:0.15 15:0.55 
-0.3697120975806242 -0 0.05194228914509168 0.08238813986765184 0.09808370799680113 0.1576993249249413 0.08978059674218151 0.2428693636853212 0.3224299717079271 1:0.55 2:0.83 3:1 4:1 5:0.93 6:0.83 7:0.82 8:0.56 9:0.84 10:0.28 11:0.71 12:0.02 15:0.73 16:0.03 
-0.1240655826979022 -0 0.02438284366841041 0.1359587792977362 0.05706620767808584 0.214147926733653 0.1747054896017671 0.009614687222724709 0 1:1 2:0.84 3:0.27 4:1 6:0.85 8:0.68 9:0.13 10:0.51 11:0.2 12:0.34 13:0.27 14:0.17 15:0.6 
-0 -0 0 0.3871107393454235 0 0.2567538551692508 0 0 0 1:1 2:1 3:1 4:0.92 5:0.8 6:0.76 7:0.65 8:0.61 9:0.5 10:0.45 11:0.4 12:0.3 13:0.15 14:0.15 
-0 -4.963985681254905 0 0 0 0 0 0 0 1:0.55 2:0.7 3:0.73 4:1 5:0.62 6:0.66 7:0.49 8:0.26 9:0.3 12:0.02 13:0.5 14:0.03 15:1 16:0.06 
-0.8377936861684847 -0.1394447222628434 0.4580642811129118 0.3490027813720283 0.5816106092346999 0.6177890081703397 0.8942579005626803 0.3589333128882503 0.0819332993604175 1:0.83 2:0.85 3:0.57 4:0.77 5:0.6 6:0.83 7:0.65 8:1 9:0.72 10:0.55 11:0.87 12:0.1 15:1 16:0.02 
-0.2623608719937895 -0 0.2546811760441756 0.1051019181346003 0.1906693354563136 0.1827244571196186 0.2358901655795055 0.1991799661011121 0.04565145715532066 1:0.1 2:1 3:0.04 4:0.67 5:0.11 6:0.7 7:0.02 8:0.8 9:0.19 10:0.33 13:0.21 14:0.08 15:1 16:0.12 
-0.2224173302507707 -0.2433948405493988 0.300048685472714 0 0.1869448684235937 0 0.1103800090827694 0.8136545635331113 2.385383331796942 2:0.76 3:0.42 4:1 5:0.51 6:0.91 7:0.43 8:0.52 9:0.46 10:0.13 11:1 12:0.07 13:0.71 14:0.02 15:0.31 
-0 -1.430461183042108 0 0 0.0141731406049607 0.01965677295530117 0 0 0.06272400452781404 1:0.48 2:1 3:0.18 4:0.59 5:0.43 6:0.74 7:0.53 8:0.82 9:0.41 10:0.22 13:0.38 14:0.01 15:1 
-0.0225868783499997 -0 0 0.01522009806310184 0.006399268506992965 0.03421075694393428 0 0 0 1:0.34 2:0.29 4:0.51 5:0.37 6:0.76 7:0.92 8:1 9:1 10:0.8 11:0.84 12:0.53 13:0.74 14:0.26 15:0.74 
-0 -0 0 0 0.02899288876022651 0.03467597545122482 0.04633073169229767 0.3695147732829787 0 1:0.21 2:1 3:0.19 4:0.7 5:0.32 6:1 7:0.45 8:0.52 9:0.63 10:0.07 13:0.34 14:0.08 15:1 16:0.13 
-0.3468640530105369 -0.4590749559022372 0.07085970518412771 0.3354568567170337 0.08634285141839435 0 0.09879350531088985 0.2354081934758227 0 1:1 2:1 3:0.79 4:0.89 5:0.57 6:0.75 7:0.36 8:0.6 9:0.14 10:0.44 12:0.29 14:0.13 15:0.29 
-0.4903083556535179 -0 0.339761387621336 0.2851964419332256 0.4722439544049974 0.339307165334189 0.5149064081340256 0 0.179974086226011 1:0.07 2:0.78 3:0.78 4:1 5:1 6:0.93 7:0.98 8:0.51 9:0.98 10:0.09 11:0.22 14:0.01 15:0.93 16:0.02 
-0.3161237728994902 -0.2852099444395823 0.1288292798553122 0.1242045047361814 0.2152428732804161 0.1714658211098505 0.5508828995339776 0.1932408909627749 0.1152759006898296 1:0.49 2:0.93 4:0.55 5:0.28 6:0.74 7:0.63 8:1 9:0.62 10:0.5 11:0.59 12:0.03 13:0.24 14:0.01 15:1 
-0.4093215789143391 -0 0 0 0 0 0 0 0 1:0.39 2:0.59 3:0.74 4:0.78 5:1 6:1 7:0.76 8:0.77 9:0.62 10:0.51 11:0.57 12:0.24 13:0.38 16:0.02 
-0 -0 0.04132776309253548 0.013710620945145 0 0.868538108402262 1.761087480197765 0 8 1:0.47 2:0.73 3:0.82 4:0.95 5:1 6:1 7:0.89 8:0.75 9:0.79 10:0.49 11:0.76 12:0.24 13:0.47 16:0.02 
-0 -0 0 0 0.02223055038006287 0 0 0 0.0216135043793224 2:0.78 3:0.6 4:1 5:0.64 6:0.97 7:0.56 8:0.64 9:0.52 10:0.3 11:0.04 12:0.05 15:1 16:0.02 
-0.04762511781131201 -0 0.08604276865471498 0.01195822465608239 0 0 0.1293174207165993 0 0 2:0.24 3:0.43 4:0.47 5:0.75 6:0.73 7:1 8:1 9:0.71 10:0.82 11:0.43 12:0.55 13:0.18 14:0.28 15:0.03 
-0.4408433299642438 -0 0.09552704256868837 0.1354549401031932 0.2626331388237585 0.2144880048621681 0.2790272077939611 0.04216088279393407 0 2:0.37 3:0.14 4:0.7 5:0.27 6:1 7:0.26 8:0.64 9:0.24 10:0.28 11:0.03 13:0.18 14:0.05 15:1 16:0.12 
-0.3737172683181072 -0 2.639095718723023 0.1700937016964002 0.5575381907674224 0.4644773715435363 1.097443002160628 0 0.03892087332414797 1:0.35 2:0.94 4:0.74 5:0.75 6:0.97 7:1 8:1 9:0.7 10:0.75 11:0.45 12:0.5 13:0.25 14:0.25 
-0 -2.566344981018714 0 0 0 0 0 2.180984339516165 2.793085197546116 2:0.69 3:0.23 4:0.83 5:0.82 6:1 7:1 8:0.95 9:0.86 10:0.7 11:0.75 12:0.44 13:0.62 14:0.19 15:0.64 
-0 -6.536014895802396 0 0 0 0 0 0 0 2:0.62 3:0.3 4:0.9 5:0.7 6:1 7:0.57 8:0.61 9:0.48 10:0.22 11:0.07 13:0.36 14:0.02 15:1 16:0.03 
-0 -4.926045715446786 0 0 0 0 0 0 0 2:0.64 3:0.21 4:1 5:0.27 6:0.86 7:0.24 8:0.43 9:0.08 10:0.04 11:0.06 13:0.53 14:0.02 15:1 16:0.06 
-0 -0 0 0 0 0 0 0.3346961935670384 0.7312246515309734 2:0.93 3:0.6 4:1 5:0.7 6:0.83 7:0.7 8:0.67 9:0.7 10:0.5 11:0.8 12:0.33 13:0.8 14:0.16 15:1 
-0 -0 0.05423080456380171 0 0 0 0.02462935653726916 0 0 1:0.32 2:0.59 3:0.7 4:0.77 5:0.98 6:1 7:1 8:0.83 9:0.87 10:0.58 11:0.79 12:0.33 13:0.57 14:0.09 
-0.1497487249728844 -0.05923341364664618 0.2913426755913291 0.1803622014324273 0.3199052926736146 0 0.2646631024364656 0 0 1:0.19 2:0.63 3:0.58 4:1 5:0.52 6:0.74 7:0.47 8:0.27 9:0.91 11:1 12:0.05 13:0.25 14:0.08 16:0.09 
-0.4953797718931371 -0 0 0 0 0 0 0 0 1:0.33 2:0.66 3:0.72 4:0.86 5:1 6:1 7:0.76 8:0.71 9:0.7 10:0.4 11:0.55 12:0.1 15:0.13 16:0.06 
-0.2003309866397535 -0 0.1630446482273342 0.1390694872298369 0.2608759924523552 0.2004831469140502 0.240992605885317 0 0 2:0.34 3:0.43 4:0.67 5:0.74 6:1 7:0.68 8:0.54 9:0.59 10:0.09 11:0.05 12:0.01 13:0.32 15:1 16:0.03 
-0 -3.524291751100303 0 0 0 0 0 1.525138137176501 0.4090768001085687 2:0.69 3:0.42 4:0.87 5:1 6:1 7:0.75 8:0.79 9:0.5 10:0.59 11:0.25 12:0.39 13:0.17 14:0.19 15:0.67 
-0.3227021640433228 -0 0.1327327690645492 0.1332229060417477 0.2450799572878588 0.1999516200383162 0.5249645815303545 0 0 2:0.04 3:0.74 4:0.29 5:1 6:0.62 7:0.88 8:0.95 9:0.74 10:1 11:0.74 12:0.67 13:0.74 14:0.33 15:0.76 
-0.3415613385134878 -0 0.3354575547515474 0.5205829318206038 0.4062750022950944 0.3467437816490948 0.447506924801003 0 0 1:0.39 2:0.76 3:0.68 4:1 5:0.49 6:0.61 7:0.4 8:0.21 9:0.19 12:0.04 13:0.5 14:0.06 15:1 16:0.05 
-0 -0 0 0.1359953964821016 0 0 0 0 0 1:1 2:1 3:0.38 4:0.87 5:0.25 6:0.72 7:0.19 8:0.58 9:0.12 10:0.43 11:0.06 12:0.28 14:0.14 15:0.06 
-0 -0.8974856767180915 0 0 0 0 0 0 0 1:0.33 2:0.65 3:0.81 4:0.88 5:1 6:1 7:0.88 8:0.7 9:0.74 10:0.41 11:0.52 12:0.13 15:0.81 16:0.01 
-0 -0 0.01020217306798252 0.02734576181912063 0.06237398693140009 0.04607352514915113 0.05101336171196498 0 0 1:0.45 2:0.8 3:0.37 4:0.48 5:0.55 6:1 7:0.4 8:0.67 9:0.58 10:0.14 12:0.01 13:0.35 15:1 16:0.02 
-0 -0 0 0 0 0 0 1.075076529693137 0 1:0.15 2:0.77 3:0.75 4:1 5:1 6:1 7:0.91 8:0.58 9:0.91 10:0.16 11:0.49 14:0.06 15:0.78 16:0.04 
-0.01435203548199376 -0 0.02234188940556918 0.02164310151710894 0.04462231686327012 0 0 0 0.09507936424744026 1:0.09 2:0.79 3:0.81 4:0.99 5:1 6:1 7:0.81 8:0.73 9:0.77 10:0.45 11:0.74 12:0.17 15:0.15 16:0.03 
-0 -0 0 0 0 0.01893677947479274 0 0 0 1:0.08 2:0.56 3:0.53 4:0.77 5:1 6:1 7:1 8:0.99 9:0.79 10:0.71 11:0.74 12:0.42 13:0.6 14:0.14 
-0 -1.272323587296418 0 0 0 0 0 0 0.006938142566444424 1:0.23 2:0.85 3:0.69 4:1 5:0.62 6:0.68 7:0.53 8:0.27 9:0.32 12:0.02 13:0.5 14:0.05 15:1 16:0.03 
-0 -4.866372003045554 0 0 0 0 0 0 0.1780700493654485 1:0.58 2:0.74 3:1 4:1 5:0.94 6:0.75 7:0.85 8:0.35 9:0.59 10:0.02 13:0.29 14:0.02 15:0.88 16:0.03 
-0 -0 0 0 0 0 0 1.111857115610457 0 2:0.66 3:0.47 4:1 5:0.81 6:0.98 7:0.79 8:0.5 9:0.85 11:0.27 13:0.23 14:0.08 15:1 
-0 -0.2941637594754551 0 0 0 0 0 0 0 1:1 2:1 3:1 4:0.96 5:0.79 6:0.8 7:0.5 8:0.64 9:0.36 10:0.48 11:0.14 12:0.31 14:0.16 15:0.07 
-0.3432288455202941 -0 0.3582440599789161 0.1696047328245404 0.4886992634824376 0.240291721515534 0.3581464556386896 0 0 1:0.26 2:0.25 3:0.23 4:0.41 5:0.62 6:0.71 7:1 8:1 9:0.88 10:0.93 11:0.55 12:0.62 13:0.24 14:0.31 
-0.269647487286778 -0.7907115238909654 0 0 0 0 0 0 0 1:0.74 2:0.69 3:1 4:1 5:0.84 6:0.86 7:0.7 8:0.51 9:0.47 10:0.19 13:0.36 14:0.07 15:0.98 16:0.1 
-0.03822037654668974 -0 0 0 0 0 0 0 0 2:0.2 3:0.47 4:0.42 5:0.78 6:0.7 7:1 8:1 9:0.88 10:0.86 11:0.66 12:0.56 13:0.4 14:0.27 15:0.07 
-0.6581863547757628 -0.2718872542786525 0.6405226284958107 0.1321004043405557 0.6814194918343995 1.627434172328499 1.595700201701669 0.3554084953557142 2.742214515656356 1:1 2:1 3:0.96 4:0.97 5:0.93 6:0.8 7:0.82 8:0.63 9:0.71 10:0.46 11:0.46 12:0.3 13:0.25 14:0.14 
-0 -0 0.5277796536843176 0 0 0 0 0 0 1:0.03 2:0.7 4:0.58 5:0.57 6:0.8 7:1 8:1 9:0.84 10:0.75 11:0.81 12:0.5 13:0.81 14:0.25 15:0.97 
-0.3659741040488836 -0 0 0.09053178594966647 0.158612907677098 0.1877729514039044 0.8263998911315967 0 0 2:0.51 3:0.51 4:0.75 5:0.9 6:1 7:0.56 8:0.92 9:0.46 10:0.66 11:0.51 12:0.4 13:0.77 14:0.15 15:1 
-0.8751423634189819 -0.08420876542170889 0.2564084433507568 0.3871523515672689 0.697306164415386 0.5364433038049538 1.079873982101708 0.1237651581687899 0 3:0.18 4:0.27 5:0.48 6:0.49 7:0.76 8:0.73 9:1 10:1 11:0.94 12:0.73 13:0.82 14:0.4 15:0.82 16:0.09 
-0.1776617901625991 -0 0 0 0.1296241982271186 1.149916966902843 0 0 0 1:0.54 2:0.73 3:0.92 4:0.92 5:1 6:1 7:0.65 8:0.8 9:0.42 10:0.61 11:0.19 12:0.41 13:0.08 14:0.2 
-0 -0 0 0 0 0 0 0 0.3047844921344356 2:0.63 3:0.19 4:0.73 5:0.58 6:0.97 7:0.65 8:1 9:0.58 10:0.73 11:0.5 12:0.48 13:0.54 14:0.22 15:1 
-0 -0.3382402974464052 0 0 0 0 0 0 0 2:0.62 3:0.31 4:0.82 5:1 6:1 7:1 8:0.8 9:0.81 10:0.6 11:0.38 12:0.4 13:0.06 14:0.2 15:0.12 
-0 -0 0 0 0 0.002939248108458632 0 0 0 2:0.17 4:0.41 5:0.61 6:0.7 7:1 8:1 9:1 10:0.96 11:0.89 12:0.64 13:0.79 14:0.32 15:0.68 
-0 -5.84464696932289 0 0 0 0 0 0.8924043048651726 1.513323647524348 2:0.82 3:0.42 4:1 5:0.73 6:1 7:0.63 8:0.58 9:0.52 10:0.16 11:0.19 12:0.08 13:0.5 14:0.03 15:1 
-0 -3.884675804933557 0 0 0 0 0 0 0.2700070587996555 1:0.49 2:0.73 3:0.83 4:1 5:0.76 6:0.91 7:0.59 8:0.57 9:0.37 10:0.24 13:0.38 14:0.07 15:1 16:0.06 
-0.02067685486154296 -0.5536111968928569 0.08638765871418046 0 0 0 0 0.5056101794997545 0.7940565982695851 1:0.38 2:1 3:1 4:0.92 5:0.88 6:0.77 7:0.75 8:0.62 9:0.5 10:0.46 11:0.25 12:0.3 13:0.12 14:0.15 
-0 -0 0 0 0 0 0 2.232803678927385 0 2:0.79 3:0.39 4:0.85 5:1 6:1 7:0.95 8:0.92 9:0.8 10:0.69 11:0.73 12:0.46 13:0.63 14:0.23 15:0.59 
-0.3779135570832054 -0 0 0.1556701441260714 0.24921684743868 0.1671269089349152 0 0 0 2:0.54 3:0.62 4:0.77 5:1 6:1 7:0.75 8:0.77 9:0.75 10:0.53 11:0.85 12:0.3 13:1 14:0.06 15:0.98 
-0.3949410309357253 -0.1391053822171535 0.3428024199582483 0.1977189610390614 0.3056362726341253 0.256085520268859 0.1878064725179804 0.3383065648211357 0.2319652588771712 1:0.1 2:0.93 4:0.54 5:0.21 6:0.74 7:0.52 8:1 9:0.65 10:0.46 11:0.53 13:0.26 14:0.04 15:1 16:0.05 
-0.3327359914808485 -0 0 0.1226244874627653 0.2080428611776617 0.2106560788353262 0 0 0 2:0.29 3:0.04 4:0.45 5:0.41 6:0.71 7:0.78 8:0.96 9:1 10:1 11:0.75 12:0.67 13:0.5 14:0.33 15:0.25 
-0.7847329739888028 -0 0.01169333540586615 0.04822793392209505 0 0 0.05606732969585103 0 0 1:0.59 2:0.54 3:1 4:0.82 5:0.84 6:1 7:0.68 8:0.62 9:0.57 10:0.24 13:0.02 15:0.84 16:0.04 
-0.2034587432640101 -0 0.07767703163566057 0.0844501970574342 0.1203332016887679 0.1019079913378178 0.08648385723828923 0 0 2:0.34 3:0.55 4:0.65 5:0.89 6:1 7:0.82 8:0.58 9:0.82 10:0.17 11:0.39 12:0.01 13:0.09 15:1 16:0.01 
-0 -0 0 0 0 4.566468231653198 0 0 4.181267430046423 1:0.48 2:0.74 3:0.88 4:0.95 5:1 6:1 7:0.78 8:0.75 9:0.66 10:0.49 11:0.64 12:0.23 13:0.32 16:0.01 
-0 -0 0.3863094330150159 0 0.004049715495567273 0 0 0 0 2:0.37 3:0.25 4:0.5 5:0.5 6:0.63 7:0.74 8:0.81 9:0.97 10:1 11:1 12:0.78 13:0.88 14:0.4 15:0.79 
-0 -0.5937245434850217 0 0 0 0.1411316297386596 0.1538811491751725 0 0 1:0.39 2:0.76 3:0.83 4:0.94 5:1 6:1 7:0.65 8:0.8 9:0.3 10:0.6 11:0.09 12:0.41 14:0.2 15:0.22 
-0.1332832168750294 -0 0.07713876815614418 0.0319382144477188 0.06739696885635685 0.05520173201681719 0.0565057726103262 0 0 1:0.34 2:1 4:0.51 5:0.18 6:0.87 7:0.12 8:0.97 9:0.36 10:0.44 11:0.16 13:0.34 14:0.08 15:1 16:0.14 
-0 -0 0 0 0.210400069747279 0 0 0 0 1:0.33 2:0.57 3:0.5 4:0.75 5:0.97 6:0.98 7:1 8:1 9:0.7 10:0.75 11:0.4 12:0.5 13:0.13 14:0.25 
-0 -0.3592632809132075 0 0 0 0 0 0 0 2:0.7 3:0.35 4:0.87 5:0.59 6:1 7:0.61 8:0.79 9:0.64 10:0.58 11:0.72 12:0.37 13:0.81 14:0.17 15:1 
-0.1944925385092388 -0 0.3419815678503505 0.2116148985384346 0.3103972477588872 0.2546279010662562 0.3252889753145443 0.2823552912535194 0 1:0.19 2:1 3:0.16 4:0.55 5:0.1 6:0.96 7:0.16 8:0.48 9:0.24 10:0.02 13:0.5 14:0.11 15:1 16:0.16 
-0 -3.509659557558106 0 0 0 0 0 0 0 1:0.18 2:0.6 3:0.39 4:1 5:0.45 6:0.82 7:0.46 8:0.32 9:0.2 12:0.01 13:0.5 14:0.04 15:1 16:0.11 
-0 -0.4712631524689909 0 0 0 0 0 0 0 2:0.43 3:0.26 4:0.68 5:0.7 6:1 7:0.73 8:0.8 9:0.67 10:0.41 11:0.55 12:0.03 13:0.27 15:1 
-0 -0.3467737417344515 0 0 0 0 0 0 0 1:0.75 2:1 3:1 4:0.99 5:0.83 6:0.83 7:0.75 8:0.66 9:0.5 10:0.49 11:0.25 12:0.33 13:0.08 14:0.17 
-0.8935421478981245 -0 0.03749284757307739 0.2845024174077397 0.1093263519192102 0.1490441067744274 0.121451693971239 1.354441698948909 1.222657510761618 1:0.39 2:0.68 3:0.67 4:1 5:0.74 6:0.78 7:0.78 8:0.38 9:0.86 11:1 12:0.04 13:0.39 14:0.07 16:0.14 
-0.4538400647355641 -0 0 0 0 0 0 0.341535175124987 0 1:0.11 2:0.47 3:0.58 4:0.7 5:1 6:1 7:0.73 8:0.7 9:0.5 10:0.34 11:0.28 14:0.12 15:0.7 16:0.1 
-0.0629406476664548 -0 0 0.01081659807404339 0.01606035627637767 0 0 0 0 1:0.01 2:0.52 3:0.23 4:0.75 5:0.74 6:1 7:0.52 8:0.69 9:0.51 10:0.36 11:0.45 12:0.04 15:1 16:0.07 
-0 -0.06966465949713879 0 0 0 0 0 8 0 2:0.84 3:0.46 4:0.86 5:0.91 6:1 7:1 8:0.94 9:0.85 10:0.7 11:0.72 12:0.45 13:0.61 14:0.2 15:0.62 
-0.1824380064443945 -0 0.2510525867497634 0 0.09784523656697448 2.560301990750531 1.414390736047993 0 1.829532191253358 1:0.12 2:0.77 3:0.36 4:0.9 5:0.44 6:1 7:0.37 8:0.63 9:0.46 10:0.27 11:1 12:0.21 13:0.47 14:0.08 
-0 -0 0.6691467086507272 0 0 0 0.09314110844187871 0 0 2:0.71 3:0.36 4:0.67 5:0.73 6:0.77 7:1 8:1 9:0.98 10:0.95 11:0.86 12:0.62 13:0.74 14:0.3 15:0.6 
-0.426171227920843 -0 0 0 0.08636320637920579 0 0 0 0 2:0.66 3:0.43 4:1 5:0.49 6:0.89 7:0.19 8:0.42 9:0.48 10:0.1 11:1 12:0.05 13:0.38 14:0.01 15:0.03 
-0 -0.4731423054227148 0 0 0 0 0 0 0 1:0.33 2:0.7 3:0.68 4:1 5:0.68 6:0.78 7:0.61 8:0.36 9:0.42 10:0.05 12:0.02 13:0.5 14:0.02 15:1 
-0.7991317354732075 -0 0 0 0 0.01832430650553006 0 0 0 1:0.36 2:0.74 3:0.77 4:1 5:0.69 6:0.68 7:0.5 8:0.24 9:0.35 12:0.09 13:0.5 14:0.12 15:1 16:0.18 
-0 -0 0 0 0 0 0 0 0.2388548938230755 1:0.04 2:0.79 3:0.65 4:1 5:0.67 6:0.86 7:0.67 8:0.58 9:0.67 10:0.29 11:0.23 12:0.05 15:1 16:0.05 
-0.6284148778501779 -0 0.3084870702390505 0.2595030494051739 0.4223936777541585 0.2454064080270651 0.4108197036842858 0 0 1:0.45 2:0.36 3:0.76 4:0.67 5:1 6:1 7:0.96 8:0.74 9:0.92 10:0.39 11:0.86 12:0.09 15:0.92 
-0 -0 0 0 0.01834884212047411 0 0 0 0 1:0.67 2:0.63 3:0.78 4:0.83 5:1 6:1 7:0.83 8:0.8 9:0.61 10:0.6 11:0.33 12:0.4 13:0.11 14:0.2 
-0.9109408776360146 -0 0 0.07665127295154762 0.009773289046517062 0.02825407519891184 0 0 0 1:0.31 2:0.96 3:0.44 4:0.76 5:0.24 6:1 7:0.41 8:0.5 9:0.48 10:0.07 13:0.49 14:0.14 15:1 16:0.23 
-0.1615880049997242 -0 0 0.01009438672694867 0.03235935136155749 0.01093846511866848 0 0.01255842648155294 0 1:0.39 2:1 3:0.16 4:0.74 5:0.4 6:0.57 7:0.14 8:0.8 9:0.32 10:0.35 12:0.07 13:0.18 15:1 16:0.08 
-0.5991712445615793 -0.2075185654391986 0.1360312682822366 0.3956146386970312 0.4141329446764785 0.2253668286478754 0.2581375680764793 0.3118901932208648 0.1004830554581451 1:1 2:1 4:0.86 6:0.72 8:0.57 10:0.43 12:0.28 13:0.5 14:0.14 15:0.5 
-0 -0 0 0 0 0.4463832098736615 0.2133092019360456 0 0.8238197484595496 1:0.35 2:0.64 3:0.64 4:1 5:0.66 6:0.85 7:0.59 8:0.38 9:1 10:0.06 11:0.86 12:0.06 13:0.23 14:0.04 
-0 -0 0.293204024337631 0 0 0 0 0 0 2:0.82 3:0.32 4:0.75 5:0.7 6:0.88 7:1 8:1 9:0.89 10:0.75 11:0.75 12:0.5 13:0.61 14:0.25 15:0.54 
-0 -0 0 0 0 0 0 0.6491801833674422 0.5652388575427371 2:0.86 3:0.49 4:0.96 5:0.65 6:1 7:0.53 8:0.56 9:0.53 10:0.11 11:1 12:0.02 13:0.53 15:0.08 16:0.09 
-0 -0 0.08099287545450219 0 0 0 0 0.1953582582511392 0 1:0.05 2:1 3:0.1 4:0.71 5:0.33 6:0.71 7:0.33 8:0.8 9:0.48 10:0.37 11:0.4 14:0.04 15:1 16:0.06 
-0 -0 0 0 0 0 0 0 0.07441569659477303 1:0.07 2:0.64 3:0.57 4:0.8 5:1 6:1 7:0.87 8:0.85 9:0.74 10:0.59 11:0.67 12:0.34 13:0.52 14:0.09 
-0.3768926063025592 -1.049024269804635 0.2535238184390791 0.06052833167421068 0.3924045466322938 0 0.003387869160821839 0.2790079543006323 0 1:0.67 2:1 3:0.67 4:0.85 5:1 6:0.71 7:0.67 8:0.57 9:0.33 10:0.42 12:0.28 14:0.14 
-0 -1.974496792789645 0.008924065901456507 0 0 0 0 0 0 2:0.51 3:0.25 4:0.74 5:0.49 6:1 7:0.49 8:0.81 9:0.52 10:0.54 11:0.56 12:0.28 13:0.68 14:0.02 15:1 
-0.6464372189326202 -0.1594894166655661 0.7494466755790578 0.4220673574352332 0.4508960600771432 0.548653291401642 0.75426175829417 0.278219469170771 0.1392077020910933 1:1 2:1 4:0.87 6:0.73 7:0.17 8:0.58 9:0.33 10:0.44 11:0.33 12:0.29 13:0.5 14:0.15 15:0.67 
-0 -0 0 0 0 0.004366335659788425 0 0 0 1:0.33 2:0.63 3:0.69 4:0.82 5:1 6:1 7:0.78 8:0.78 9:0.71 10:0.54 11:0.69 12:0.29 13:0.57 14:0.06 
-0.1116696554499505 -0 0 0.03712947951247957 0.0705252931249763 0.02863369474925334 0 0 0 2:0.42 3:0.21 4:0.66 5:0.33 6:0.91 7:0.64 8:1 9:0.7 10:0.74 11:0.73 12:0.49 13:0.73 14:0.23 15:1 
-0 -0 0 0 0 0 0 0.4869243232108345 0 1:0.55 2:0.72 3:1 4:1 5:0.97 6:0.96 7:0.81 8:0.59 9:0.72 10:0.22 11:0.19 12:0.03 15:0.74 16:0.06 
-0.6624158487828715 -0 0.1192198337344773 0.1265071993613363 0.1298169228615356 2.226000814446546 1.011299755713585 0 0 2:0.67 3:0.45 4:0.8 5:1 6:1 7:0.5 8:0.85 9:0.32 10:0.64 11:0.23 12:0.42 13:0.18 14:0.21 15:0.14 
-0.1836758430853203 -0 0 0 0 0 0 0 0 1:0.58 2:0.5 3:0.88 4:0.84 5:1 6:1 7:0.84 8:0.6 9:0.8 10:0.19 11:0.4 14:0.04 15:0.64 16:0.05 
-0 -0 0 0 0 0 0 0 0.05059003142298075 1:0.49 2:0.72 3:0.99 4:0.97 5:1 6:1 7:0.81 8:0.6 9:0.66 10:0.2 13:0.09 14:0.03 15:0.99 16:0.08 
-0.3782320103403052 -0 0 0 0 0 0.1421473552593449 0 0 2:0.65 3:0.51 4:0.62 5:0.69 6:1 7:0.6 8:0.66 9:0.58 10:0.25 11:1 12:0.09 13:0.51 14:0.02 15:0.1 
-0 -0.7564624618786333 0 0 0 0 0 0 0.2775366181621506 1:0.2 2:0.65 3:0.43 4:0.94 5:0.76 6:1 7:0.58 8:0.64 9:0.44 10:0.27 12:0.01 13:0.18 14:0.04 15:1 
-0.2146285145276959 -0 0.1983963418737571 0.8357355396193319 0.2440430435669373 0 0.01748999435010103 0.1309835597283309 0.05240505980279205 1:1 2:1 3:0.67 4:0.9 5:0.33 6:0.75 7:0.25 8:0.6 10:0.45 12:0.3 14:0.15 
-0 -0 0 0 0 0 0 0 1.004482403542135 2:0.67 3:0.47 4:0.91 5:0.78 6:1 7:0.64 8:0.59 9:0.49 10:0.18 11:0.02 13:0.37 14:0.04 15:1 16:0.05 
-0.2821458387622579 -0 0.07687361071601734 0.1657766916326348 0.2620149554906517 0.204984435434418 0.2885658558841845 0.0899342360555835 0 1:0.03 2:1 4:0.58 5:0.4 6:0.98 7:0.2 8:0.85 9:0.28 10:0.35 11:0.02 12:0.03 13:0.02 15:1 16:0.04 
-0 -0 0 0.09649105220220701 0 0 0 0 0 1:0.3 2:0.71 3:0.43 4:1 5:0.44 6:0.9 7:0.38 8:0.37 9:0.56 11:1 12:0.1 13:0.42 14:0.06 16:0.05 
-0.2880800563286734 -0 0 0.09306213049296434 0.1532324839276388 0.1154462222468798 0.9762768756117769 0.2396078631484838 2.783808075635977 2:0.55 3:0.2 4:0.77 5:0.53 6:1 7:0.73 8:0.91 9:0.93 10:0.68 11:1 12:0.45 13:0.93 14:0.22 15:0.47 
-0.2424956572295831 -0 0 0.1159397061773602 0.1913831190834573 0.1656317505979851 0 0 0 2:0.63 3:0.21 4:0.63 5:0.63 6:0.8 7:0.99 8:1 9:1 10:0.8 11:0.99 12:0.52 13:0.99 14:0.24 15:0.96 
-0 -0 0 0 0 0 0 0.8490035012385836 0.3757651092037345 1:0.17 2:0.81 3:0.46 4:0.9 5:1 6:1 7:0.83 8:0.8 9:0.59 10:0.6 11:0.37 12:0.4 13:0.13 14:0.2 
-0.3013236724966631 -0 0.202325993905564 0.1779427864043816 0.3806789368043247 0.2064296978755379 0.03515383986845686 0 0 1:0.21 2:0.85 3:0.92 4:1 5:1 6:0.99 7:0.71 8:0.79 9:0.46 10:0.59 11:0.21 12:0.39 14:0.19 15:0.04 
-0 -0 0.06690105527530983 0 0 0 0 3.60605247524252 5.617203447315282 2:0.8 3:0.35 4:0.84 5:0.84 6:1 7:1 8:0.89 9:0.82 10:0.67 11:0.63 12:0.44 13:0.41 14:0.22 15:0.22 
-0 -4.380058683360269 0 0 0 0 0 0 0 2:0.74 3:0.29 4:1 5:0.37 6:0.94 7:0.3 8:0.62 9:0.23 10:0.3 11:0.12 13:0.47 14:0.1 15:1 16:0.12 
-0 -0 0 0 0 0.1283078898629927 0.1951711799669425 0 0 2:0.63 3:0.6 4:0.78 5:1 6:1 7:0.93 8:0.91 9:0.86 10:0.67 11:0.86 12:0.41 13:0.79 14:0.16 15:0.24 
-0 -0 0.1634239662067866 0.06987150136590364 0.2157664830011654 0.1069209911991509 0.2033199320155194 0 0 1:0.58 2:0.54 3:0.98 4:0.85 5:0.96 6:1 7:0.79 8:0.64 9:0.52 10:0.27 13:0.1 14:0.03 15:1 16:0.05 
-0.3577203107950515 -0 0 0.1563453263730643 0.1122908441978873 0 0.220011331254482 0 0 1:0.02 2:0.55 3:0.5 4:0.76 5:0.93 6:1 7:1 8:0.98 9:0.9 10:0.7 11:0.83 12:0.42 13:0.62 14:0.14 
-0 -0 0 0 0 0 0 0 7.98332775289579 1:0.23 2:0.65 3:0.67 4:0.85 5:1 6:1 7:0.87 8:0.75 9:0.77 10:0.49 11:0.72 12:0.23 13:0.46 
-0.1761255392882176 -0.2137601779445714 0 0 0 0 0 0 0.2454797569368792 1:0.35 2:0.78 3:0.92 4:1 5:1 6:0.96 7:0.85 8:0.68 9:0.88 10:0.4 11:0.79 12:0.13 15:0.27 16:0.04 
-0 -0 0 0 0 0 0 2.488104592876828 0 1:0.23 2:0.73 3:0.6 4:1 5:0.54 6:0.76 7:0.4 8:0.34 9:0.22 12:0.15 13:0.5 14:0.14 15:1 16:0.14 
-0.319252211853702 -0 0.2618618604251617 0.141226429657424 0.3484634402613498 0 0.4106678333856437 0 0 1:0.33 2:0.45 3:0.75 4:0.7 5:0.79 6:1 7:0.72 8:0.44 9:1 10:0.1 11:0.94 12:0.09 13:0.37 14:0.08 
-0.355125568399332 -1.974102468197621 0.3159132988438588 0.1661366371012834 0.2719996461154351 0.244187649005282 0.3120308479547842 0.2355800154571561 0.2848945390038236 2:0.82 3:0.38 4:1 5:0.62 6:0.95 7:0.31 8:0.75 9:0.23 10:0.57 11:0.23 12:0.37 13:0.46 14:0.18 15:1 
-0.4052153002414753 -0 0.1623970745214159 0 0.2616145866030622 0.0971330470089892 0.311715514150377 0.02825657560926939 0 1:0.9 2:1 3:1 4:0.94 5:0.5 6:0.79 7:0.4 8:0.63 9:0.2 10:0.47 11:0.1 12:0.32 14:0.16 
-0 -0 0 0 0 0 0 1.064688262561745 0 2:0.77 3:0.44 4:0.85 5:1 6:1 7:0.88 8:0.84 9:0.71 10:0.63 11:0.6 12:0.41 13:0.58 14:0.2 15:0.77 
-0 -2.114973552946725 0 0.003427387374062185 0.08377586343789845 0.08872241338299187 0.07377457365562415 3.227485147233618 0.7354456742169428 1:0.36 2:0.87 3:0.81 4:1 5:0.8 6:0.74 7:0.61 8:0.31 9:0.44 12:0.1 13:0.5 14:0.11 15:1 16:0.15 
-0 -0 0 0 0 0 0 0.4095812439466637 0 1:0.41 2:0.89 3:0.75 4:0.99 5:1 6:1 7:0.83 8:0.79 9:0.59 10:0.59 11:0.35 12:0.39 13:0.1 14:0.19 
-0 -0 0 0 0 0 0 0 0.137277425667304 2:0.82 3:0.51 4:0.83 5:0.86 6:1 7:0.56 8:0.74 9:0.42 10:0.49 11:0.4 12:0.23 13:0.16 15:1 16:0.01 
-0.05521922105547357 -0 0 0.02007600601206565 0 0 0 0 0 2:0.63 3:0.58 4:0.85 5:1 6:1 7:0.78 8:0.74 9:0.67 10:0.46 11:0.64 12:0.19 15:0.03 16:0.03 
-0 -0 0 0.1544616752176075 0 0 0 0 0 1:1 2:1 3:0.74 4:0.86 5:0.48 6:0.73 7:0.29 8:0.59 9:0.16 10:0.44 11:0.06 12:0.29 14:0.15 
-0.0288314652275152 -0 0 0.0291830780095277 0.05884568919089506 0.03588928575571374 0 0 0 2:0.69 3:0.56 4:0.76 5:0.85 6:0.99 7:0.98 8:1 9:1 10:0.75 11:0.97 12:0.5 13:0.92 14:0.25 15:0.92 
-0.7077740217662192 -0 0.2903246285027094 0.2984008175778763 0.4716403087677792 0.3959693794237907 0.5281219531859129 0 0 2:0.17 3:1 4:0.38 5:0.96 6:0.69 7:0.91 8:1 9:0.78 10:0.94 11:0.7 12:0.62 13:0.65 14:0.31 15:0.7 
-0 -0.1455248891400374 0 0 0 0 0 4.306151346726569 0 1:0.31 2:0.88 3:0.03 4:0.84 5:0.77 6:1 7:1 8:0.96 9:0.69 10:0.72 11:0.37 12:0.49 13:0.14 14:0.24 
-0 -0.08703074011727635 0 0 0 0 0 0.594819203493506 2.992546367127147 2:0.78 3:0.44 4:1 5:0.68 6:0.85 7:0.66 8:0.46 9:0.8 10:0.08 11:1 13:0.38 14:0.02 15:0.01 16:0.07 
-0.05387077848343155 -1.439838982043952 0.8177025999095608 0.1490044012004333 0.08140014773379574 0.1265951426538673 0.2317051895266089 0.7099685604814417 0.2419648136810233 2:1 3:0.54 4:0.93 5:0.57 6:0.77 7:0.57 8:0.61 9:0.61 10:0.46 11:0.61 12:0.3 13:0.68 14:0.14 15:1 
-0 -0 0 0 0 1.136014350945364 0.4556369369637716 0 0 1:1 2:0.98 3:0.67 4:1 5:0.48 6:0.84 7:0.38 8:0.68 9:0.27 10:0.51 11:0.19 12:0.33 13:0.09 14:0.16 
-0 -0 0 0 0 0 0 0 0.709754248014395 2:0.66 3:0.57 4:0.8 5:1 6:1 7:0.97 8:0.89 9:0.87 10:0.64 11:0.89 12:0.4 13:0.84 14:0.15 15:0.34 
-0.5734933463338423 -0.8798366078530375 0.220214343277066 0.2252040106504788 0.3983164291145703 0.3287789097583834 0.4429945212865176 1.073977456416093 0 2:1 3:0.57 4:0.94 5:1 6:0.78 7:1 8:0.63 9:1 10:0.47 11:0.86 12:0.31 13:0.71 14:0.15 15:1 
-0 -0 0.08423281351595852 0 0 0 0 0 0 2:0.6 3:0.17 4:0.92 5:0.25 6:1 7:0.29 8:0.63 9:0.34 10:0.26 11:0.15 13:0.55 14:0.03 15:1 16:0.05 
-0 -0 0.08788140588358082 0 0 0 0 0 0 2:0.6 3:0.09 4:0.62 5:0.54 6:0.81 7:0.99 8:1 9:1 10:0.82 11:0.76 12:0.55 13:0.52 14:0.28 15:0.33 
-0 -0 0 0 0 0.1071957510651301 0 0 0 1:0.04 2:0.55 3:0.6 4:0.77 5:1 6:1 7:0.8 8:0.92 9:0.56 10:0.7 11:0.4 12:0.46 13:0.32 14:0.23 
-0 -0 0 0.01039554518783388 0.002033141989547697 0.02111528538760636 0.07100148877089389 0 0 3:0.54 4:0.27 5:0.8 6:0.57 7:1 8:0.89 9:0.95 10:1 11:0.85 12:0.68 13:0.8 14:0.36 15:0.78 16:0.04 
-0 -0.1676773025458092 0 0 0 0 0 0 0 1:0.43 2:1 3:0.22 4:0.6 5:0.38 6:0.63 7:0.31 8:0.64 9:0.41 10:0.19 13:0.45 14:0.02 15:1 16:0.07 
-0 -0.8169339292389883 0 0 0 0 0 0 0 2:0.57 3:0.14 4:0.73 5:0.54 6:0.9 7:1 8:1 9:1 10:0.74 11:0.8 12:0.47 13:0.55 14:0.22 15:0.49 
-0 -0 0 0 0 0 0 0 0.557061193361744 2:0.62 3:0.48 4:0.8 5:0.89 6:1 7:0.96 8:0.78 9:1 10:0.55 11:0.96 12:0.33 13:0.96 14:0.1 15:0.85 
-0 -8 0 0.00671940254163664 0 0 0 0 0 1:0.34 2:0.79 3:0.69 4:1 5:0.6 6:0.75 7:0.41 8:0.26 9:0.13 12:0.08 13:0.5 14:0.07 15:1 16:0.05 
-0.1204189264310513 -0 0.5391876196024716 0.06163051075570125 0.1294024832203572 0.07366396682686618 0.5211051897286998 0 0 1:0.14 2:0.52 4:0.56 5:0.36 6:0.78 7:0.74 8:1 9:1 10:0.96 11:0.79 12:0.64 13:0.58 14:0.32 15:0.39 
-0 -0 0 0 0 0 0 0 5.187268813649676 1:0.18 2:0.76 3:0.5 4:0.86 5:1 6:1 7:0.93 8:0.8 9:0.7 10:0.6 11:0.48 12:0.4 13:0.23 14:0.2 
-0.1486480286466553 -0 0.1722355090226533 0.1720595230068843 0.3044251694627969 0 0.004845109150461474 0 0 2:0.64 3:0.24 4:0.78 5:1 6:1 7:0.76 8:0.96 9:0.41 10:0.72 11:0.12 12:0.47 13:0.06 14:0.23 15:0.35 
-0.02415850909933573 -0 0 0.02377899760812581 0 0 0 0.1546008151567188 0 2:0.54 4:0.72 5:0.42 6:0.9 7:0.91 8:1 9:1 10:0.76 11:0.74 12:0.51 13:0.48 14:0.26 15:0.26 
-0.3725560390162542 -0 0.3473062758311917 0.3366940084219554 0.4540395838314854 0.3918157021168298 0.4964019162260241 0 0 1:0.8 2:0.65 3:1 4:1 5:0.86 6:0.82 7:0.72 8:0.43 9:0.53 10:0.06 13:0.41 14:0.02 15:0.97 16:0.01 
-0 -0.05011534085881905 0.2571326824390016 0 0 0 0 0 0 2:0.58 3:0.06 4:0.67 5:0.53 6:0.85 7:1 8:1 9:0.76 10:0.75 11:0.52 12:0.51 13:0.34 14:0.26 15:0.4 
-0.4452922596559313 -0 0.01252574513839101 0.1832340562469315 0.1986366587214677 0.1643256504869827 0.1470422195413696 0 0 2:0.17 3:0.24 4:0.44 5:0.64 6:0.73 7:1 8:1 9:0.68 10:0.84 11:0.32 12:0.57 13:0.24 14:0.28 15:0.16 
-0 -0 -0 0 0 0 0 0 0.2144522580332753 2:1 3:0.07 4:0.92 5:0.05 6:0.68 7:0.19 8:0.45 9:0.86 10:0.34 11:1 12:0.45 13:0.74 14:0.23 15:0.67 
-0.8967238683117086 -0.5935278199224691 -1.664908340826077 0.5132884795641123 1.606931590945488 0.9591289377521904 4.179400674867985 0.7533870744513166 1.068454472344638 1:0.63 2:1 3:0.4 4:0.73 5:0.7 6:0.63 7:1 8:0.77 9:0.79 10:0.74 11:0.55 12:0.48 13:0.29 14:0.23 
-0 -0 -0.08610836843661852 0 0 0 0.06568389682318668 0 0 2:0.87 3:0.37 4:1 5:0.19 6:0.7 7:0.05 8:0.42 9:0.88 10:0.49 11:1 12:0.58 13:0.84 14:0.28 15:0.88 
-0.1056808787180602 -0.03295712400775845 -0.08350747838287705 0 0.06667344810985547 0.04176952748260904 0 0.07084953936414676 0.02319718371875476 1:0.8 2:1 3:0.6 4:0.76 5:0.26 6:0.52 8:0.28 9:0.46 10:0.11 11:0.97 12:0.29 13:1 14:0.24 15:1 
-0.02868934362750352 -0.05704565446776571 -0.05351545905959372 0 0 0 1.330848710553322 0.1291954597075607 0 1:0.51 2:1 4:0.9 5:0.05 6:0.57 7:0.92 8:0.61 9:1 10:0.7 11:0.85 12:0.82 13:0.68 14:0.4 15:0.86 
-0 -0 -0 0 0 0 0 0 0.03986191898385465 1:0.45 2:1 3:0.01 4:0.67 6:0.24 7:0.69 8:0.24 9:1 10:0.48 11:0.73 12:0.98 13:0.8 14:0.53 15:0.9 
-0 -0 -0 0 0 0 0.2382077798811823 0 0 1:0.39 2:1 4:0.82 5:0.22 6:0.55 7:1 8:0.63 9:0.62 10:0.99 11:0.62 12:0.81 13:0.59 14:0.4 15:0.6 
-0.3856381576147207 -0 -0 0.2761220923188807 0.1632937572325221 0.3084185075173822 0 0 0.007820164220580489 1:0.15 2:0.97 4:0.76 5:0.33 6:0.46 7:0.95 8:0.59 9:1 10:1 11:0.83 12:0.83 13:0.87 14:0.41 15:0.97 
-0 -0 -0 0 0.4155523479751139 0.06316482315223661 0 0 0.03063154837029948 1:1 2:1 3:0.5 4:0.76 6:0.36 7:0.76 8:0.35 9:0.99 10:0.62 11:0.89 12:0.96 13:0.8 14:0.45 15:0.72 
-0.7237139018903215 -0.3718157502045356 -0.5278362395003567 0.2849616436595376 0.8422006718578257 0.4124140708720656 1.892468282821281 0.3752683171206309 0.2389781946866749 1:1 2:1 3:0.24 4:0.77 6:0.56 7:0.96 8:0.57 9:1 10:0.86 11:0.79 12:0.7 13:0.37 14:0.35 15:0.04 
-0 -0 -0 0 0 0 3.013355718718482 0 0 1:0.56 2:0.97 3:0.42 4:1 6:0.74 7:0.52 8:0.6 9:1 10:0.81 11:0.74 12:0.6 13:0.5 14:0.3 15:0.33 
-0.5697760003261028 -2.050862238545798 -0.9998687092339121 0.6344253179009605 0.4697365775893159 0.3757915845264426 0.6110377680968393 0.6384795098338371 0.8712735748736841 2:0.81 3:0.15 4:1 5:0.2 6:0.76 7:0.19 8:0.52 9:0.24 10:0.28 11:0.71 12:0.21 13:0.88 14:0.23 15:1 
-0.4914233883817834 -0.2934503469675886 -0.4264186462648494 0 0.2173367738529949 0.2807552729787571 0.0989642186878316 0.284779415792331 0.1116830666876121 1:0.22 2:1 3:0.09 4:0.68 6:0.35 7:0.22 8:0.16 9:1 10:0.18 11:0.88 12:0.37 13:0.5 14:0.33 15:0.57 
-0 -0 -0 1.308952322487966 0.1615327313479715 0 0 0 0 1:0.56 2:1 3:0.17 4:0.77 6:0.46 7:0.45 8:0.27 9:1 10:0.42 11:0.83 12:0.53 13:0.38 14:0.28 15:0.06 
-0 -0 -0 0.02657993855730251 0 0 0 0 0 1:0.25 2:1 4:0.63 5:0.08 6:0.3 7:0.82 8:0.39 9:1 10:0.7 11:0.79 12:0.9 13:0.89 14:0.44 15:1 
-0 -0 -0 0 0 0 0 0 0.02491468465991903 1:0.11 2:1 3:0.07 4:0.95 6:0.73 7:0.11 8:0.51 9:0.71 10:0.5 11:1 12:0.44 13:0.85 14:0.22 15:0.78 
-0.2654625269305711 -0.1492148935222842 -0.3342810483523708 0 0 0.7120889034822848 0 0.1535370547139338 0.1909108139768549 1:1 2:1 3:0.64 4:0.79 5:0.27 6:0.59 8:0.38 9:0.71 10:0.45 11:0.98 12:0.41 13:0.6 14:0.21 15:0.44 
-0 -0 -0 0 0 0 0 0 0.06919712093835176 2:0.95 3:0.46 4:1 5:0.14 6:0.63 7:0.3 8:0.49 9:1 10:0.63 11:0.94 12:0.67 13:0.8 14:0.29 15:0.72 
-0.865361161396579 -0.4736149741775198 -0.735145603607441 0 0.751336543864062 0.5661510482591338 0.7747647424627568 0.5676175923978033 0.4516080148804782 1:0.88 2:1 3:0.82 4:0.82 5:0.45 6:0.49 8:0.22 9:0.38 10:0.34 11:0.94 12:0.36 13:1 14:0.42 15:0.98 
-0.01498370603794959 -0 -0.1707213244883986 0 0 0 0 0 0 1:0.16 2:1 4:0.65 5:0.43 6:0.57 7:1 8:0.7 9:0.99 10:0.87 11:0.97 12:0.76 13:0.84 14:0.38 15:0.73 
-0 -0 -0 0 0.2731832612788214 0 0 0 0 1:0.56 2:1 3:0.09 4:0.63 6:0.45 7:0.76 8:0.5 9:1 10:0.73 11:0.59 12:0.97 13:0.35 14:0.48 15:0.1 
-0.1264813130949559 -0.0581514428132418 -0.1208806906690872 0 0.01659646107123241 0 0 0.06903480892893166 0.06229287153980561 1:0.95 2:0.96 3:0.56 4:0.84 6:0.47 7:0.57 8:0.39 9:1 10:0.55 11:0.93 12:1 13:0.86 14:0.48 15:0.81 
-0.08120452883171997 -0 -0.001705721314318158 0 0.1004906756930329 0.1044906007891641 0.03913821198629053 0.02713423382863391 0 2:0.99 3:0.42 4:1 5:0.23 6:0.75 7:0.02 8:0.5 9:0.23 10:0.27 11:0.93 12:0.43 13:0.81 14:0.25 15:1 
-0 -0 -0 0 0.2424083525198145 0.429601200900226 0.4741518266045042 0 0 1:0.92 2:1 3:0.49 4:0.88 5:0.08 6:0.59 7:0.56 8:0.45 9:1 10:0.69 11:0.82 12:0.56 13:0.39 14:0.29 
-0.6519559990542316 -0.3918191841737719 -0.6193067817826716 0.1595624643531826 0.4230028554230148 0.3538408481561975 0 0.4944592019924631 0.6588456400388311 1:0.05 2:1 3:0.31 4:0.93 6:0.63 7:0.52 8:0.5 9:1 10:0.72 11:0.62 12:0.61 13:0.31 14:0.31 15:0.01 
-0.2837815603565079 -0.2546302878693038 -0.4130082455676602 0.06230825295032856 0.2162511625455058 0.2091132740156826 0.04953844917001667 0.3924059955894543 0.1917235576417591 2:1 3:0.01 4:0.77 5:0.25 6:0.58 7:0.66 8:0.56 9:1 10:0.69 11:0.92 12:0.48 13:0.9 14:0.24 15:0.94 
-0 -0 -0 0 0 0 4.578806594554525 0 0 1:0.9 2:1 3:0.43 4:0.79 6:0.56 7:0.51 8:0.58 9:1 10:0.69 11:0.97 12:0.61 13:0.79 14:0.28 15:0.6 
-0.3561197316349218 -0.2008517767718884 -0.2768627347088864 0 0.1458928158447791 0 0.4884559598785799 0.2209457108504402 0 1:0.71 2:0.99 3:0.55 4:1 6:0.72 7:0.29 8:0.56 9:1 10:0.7 11:0.73 12:0.66 13:0.35 14:0.33 15:0.06 
-0.8467653241432694 -0.9333947631330499 -0.8252625292940635 0 0.6069601853129337 0.7319588273440388 0.9039872267263511 0.5831330456183074 0.4094424069000121 1:0.41 2:0.9 3:0.62 4:1 5:0.29 6:0.74 7:0.02 8:0.47 10:0.22 11:0.64 12:0.33 13:1 14:0.28 15:0.88 
-0.2045537390473936 -0.1176213581879099 -0.05722783323930954 0 0.2823180545795242 0.04072443132434975 0 0.08728216927181646 0 1:0.23 2:1 3:0.14 4:0.76 5:0.11 6:0.41 7:0.94 8:0.35 9:1 10:0.51 11:0.52 12:0.71 13:0.24 14:0.35 
-0.01465986332256147 -0 -0 0 0.1040678788472763 0 0 0 0 1:0.51 2:1 3:0.29 4:0.82 5:0.1 6:0.6 8:0.35 9:0.27 10:0.2 11:0.69 12:0.22 13:1 14:0.25 15:1 
-0 -0 -0 0 0 0 0.08279111800195273 0 0 1:0.43 2:0.75 3:0.71 4:1 5:0.38 6:0.68 8:0.37 9:0.6 10:0.32 11:1 12:0.51 13:0.82 14:0.34 15:0.54 
-0.01920775775990004 -0 -0 0 0 0 0 0.007804913581027755 0 1:1 2:1 3:0.56 4:0.65 6:0.36 7:0.03 8:0.34 9:0.8 10:0.33 11:0.99 12:0.54 13:0.68 14:0.38 15:0.36 
-0 -0.03212416071226622 -0 0 0 0 0 0.06779478692634572 0.04031948950863445 1:0.04 2:1 4:1 5:0.07 6:0.69 7:0.56 8:0.55 9:1 10:0.67 11:0.86 12:0.6 13:0.62 14:0.31 15:0.55 
-0.4740208402396319 -0.2567497574455862 -0.38603498379569 0 1.177456056070198 0 0 0.3222200728540301 0.143088475739287 1:1 2:1 3:0.56 4:0.66 6:0.37 7:0.08 8:0.34 9:0.83 10:0.43 11:0.86 12:0.71 13:0.57 14:0.35 15:0.24 
-0.2105906087094042 -0.02175628527219359 -0.1562290497469618 0 0.1655008913765769 0.164681487622985 0.2444036073261039 0.08917314838930139 0.002127578524799782 1:0.1 2:1 3:0.16 4:0.77 6:0.39 7:0.37 8:0.18 9:0.94 10:0.22 11:1 12:0.5 13:0.99 14:0.39 15:0.93 
-0.9418804854738319 -0.4389425530210593 -2.258139563047005 0.567307001983718 0.8111112488399165 0.7124926599547635 0.2302124849423186 1.589180278897279 0.8819733596843378 1:0.09 2:1 4:0.75 5:0.78 6:0.72 7:1 8:0.92 9:0.74 10:0.93 11:0.56 12:0.62 13:0.38 14:0.31 15:0.21 
-0.4679877794873504 -0.1113039194602827 -0.5103398699532635 0 0.3623554129535182 0.4560133070135155 0.2176760804404937 0.2875405728003069 0.8285482022250413 1:0.18 2:0.61 3:0.37 4:1 5:0.17 6:0.65 8:0.33 9:0.61 10:0.39 11:1 12:0.55 13:0.66 14:0.37 15:0.37 
-0 -0 -0.7109126096916264 0 0.04010213335533654 0 0 0.5783928607345521 0 1:0.36 2:1 3:0.13 4:0.75 5:0.57 6:0.65 7:1 8:0.78 9:0.63 10:0.85 11:0.41 12:0.57 13:0.18 14:0.29 
-0.09837352339544771 -0 -0 0.2450306781339305 0 0.1047359602461233 0.01033285834756487 0 0.05986245529120104 1:0.19 2:1 3:0.14 4:0.79 5:0.05 6:0.59 8:0.38 9:0.27 10:0.2 11:1 12:0.34 13:0.81 14:0.21 15:0.7 
-0 -0 -0.005511666134208618 0 0 1.388747337751618 2.173295985474617 0 0.1142333627159202 1:0.78 2:1 3:0.43 4:0.92 6:0.73 7:0.14 8:0.54 9:0.83 10:0.55 11:1 12:0.43 13:0.63 14:0.22 15:0.29 
-0 -0 -0 0 0 0 0.06541382072758434 0 0 1:0.2 2:0.92 3:0.05 4:1 6:0.76 7:0.02 8:0.52 9:0.52 10:0.33 11:0.95 12:0.47 13:0.8 14:0.23 15:1 
-0.9949493089384364 -0.5693666791634266 -0.7944099558349009 0.6122167268598131 0.834861472270823 0.7253455555521027 0.5273619856509182 0.6126529528650854 0.4758475280304792 1:0.53 2:1 4:0.75 5:0.07 6:0.43 7:1 8:0.52 9:0.5 10:0.76 11:0.16 12:0.91 13:0.14 14:0.44 15:0.28 
-0 -0 -0 0 0 0 0.0752629923402246 0 0 1:0.8 2:1 3:0.59 4:0.97 5:0.26 6:0.71 8:0.43 9:0.28 10:0.23 11:0.94 12:0.38 13:1 14:0.28 15:0.81 
-0.113913727798691 -0.05547580354308986 -0.1067711784505518 0.2723007864069261 0 0.2957122635988311 0 0.03382670016336846 0 1:0.86 2:1 3:0.32 4:0.81 6:0.57 7:0.3 8:0.37 9:1 10:0.51 11:0.86 12:0.46 13:0.41 14:0.23 15:0.11 
-0 -0.001551922372065852 -0.07041433978080198 0 0 0 0 0.1926579706212997 0.3863851080256336 1:0.25 2:1 4:0.84 5:0.16 6:0.63 7:0.77 8:0.67 9:1 10:0.66 11:0.76 12:0.45 13:0.53 14:0.22 15:0.34 
-0 -0 -0.01816572025237711 0 0 0 0.3422945610380892 0 0 1:0.94 2:1 3:0.53 4:0.75 5:0.11 6:0.52 8:0.41 9:0.52 10:0.38 11:0.99 12:0.43 13:1 14:0.38 15:0.91 
-0 -0 -0 0 0 0 2.154923874317457 0 0 1:0.59 2:1 4:0.79 5:0.31 6:0.64 7:1 8:0.75 9:0.93 10:0.76 11:0.63 12:0.51 13:0.37 14:0.26 15:0.11 
-0 -0 -0 0 0 0 3.468294915406214 0 0 1:0.53 2:1 3:0.05 4:0.8 6:0.63 7:0.6 8:0.64 9:1 10:0.79 11:0.79 12:0.57 13:0.55 14:0.26 15:0.31 
-0.1783187354529552 -0 -0 0 0.2220217912622166 0.1311142948075579 0.2712495439281312 0.1114467787610887 0 1:0.2 2:1 3:0.14 4:0.7 6:0.4 7:0.03 8:0.16 9:0.77 10:0.22 11:1 12:0.45 13:0.96 14:0.3 15:0.96 
-0.3580418989560929 -0.1983161286545219 -0.3101171987863285 0 0.4329663948471524 0.3561329709334538 0.8620395017279044 0.2703179497344576 0.2330614514566317 1:0.65 2:0.86 3:0.79 4:1 5:0.35 6:0.69 8:0.39 9:0.72 10:0.34 11:1 12:0.66 13:0.61 14:0.35 15:0.32 
-0 -0.01034851534494061 -0 0.7538260572178361 0 0 0 0 0.09433203530494967 1:0.25 2:1 3:0.11 4:0.78 6:0.51 7:0.03 8:0.26 9:0.89 10:0.27 11:1 12:0.44 13:0.57 14:0.26 15:0.36 
-0 -0 -0 0.1913660659234604 0 0 0 0 0 1:0.71 2:1 3:0.39 4:0.87 5:0.11 6:0.63 8:0.37 9:0.42 10:0.25 11:1 12:0.37 13:0.74 14:0.24 15:0.53 
-0.3929408931841709 -0.2292823466887401 -0.3066873740314122 0.06057993977054963 0.3791561896925654 0.2658947743342194 0.1360950297181193 0.2399454347111797 0.03191477868875231 1:0.19 2:0.97 3:0.39 4:0.96 6:0.49 7:0.29 8:0.35 9:1 10:0.48 11:0.98 12:1 13:0.86 14:0.52 15:0.92 
-0.08543730002845934 -0.2273493647681282 -0.1726112397742796 0.05770385581054206 0 0.05103283088154044 0.204077268214174 0.08169400154195143 0.2090792697756247 1:0.11 2:1 4:0.74 5:0.43 6:0.56 7:1 8:0.56 9:0.88 10:0.83 11:0.87 12:0.55 13:0.84 14:0.27 15:0.87 
-0.09571600975432164 -0 -0 0.07833803789849697 0 0.06405279848882588 0 0 0 1:0.19 2:1 4:0.73 5:0.18 6:0.53 7:1 8:0.63 9:1 10:0.78 11:0.62 12:0.53 13:0.25 14:0.27 
-0.4693310574734817 -0.234190099380221 -0.3918967851183716 0 0.3544999084064112 0.248063625209076 1.398995799252474 0.3102650803072151 0.2696838678927697 1:0.38 2:0.95 3:0.53 4:1 5:0.19 6:0.8 8:0.59 9:0.61 10:0.65 11:1 12:0.89 13:0.75 14:0.47 15:0.49 
-0 -0 -0 0 0 0 0 1.404161737492164 0 1:0.09 2:1 4:0.8 5:0.37 6:0.67 7:1 8:0.72 9:1 10:0.85 11:0.77 12:0.57 13:0.53 14:0.28 15:0.36 
-0.1806491680226811 -0.05585809889445603 -0.1195615110769732 0 1.556355969646739 0.02471738755332998 0 0.09071712427806683 0.02001391665272383 1:0.59 2:1 3:0.09 4:0.64 6:0.23 7:0.61 8:0.17 9:1 10:0.28 11:0.73 12:0.82 13:0.57 14:0.6 15:0.5 
-0 -0 -0 0.216720470265467 0 0 0 0 0 1:0.23 2:1 3:0.17 4:0.69 6:0.35 7:0.34 8:0.22 9:1 10:0.22 11:0.99 12:0.39 13:0.56 14:0.34 15:0.43 
-0.02281336812203187 -0.003194201247212703 -0.04480424558908955 2.148485723362657 0.1837189134783788 0.01985696876278676 0 0.07182037917373897 0 1:0.21 2:1 3:0.13 4:0.7 6:0.38 7:0.06 8:0.17 9:0.73 10:0.2 11:1 12:0.28 13:0.62 14:0.32 15:0.56 
-0 -0 -0 0 0 0.1292663758404796 0.2082640091286952 0 0 1:0.66 2:1 3:0.73 4:0.96 5:0.34 6:0.72 8:0.48 9:0.39 10:0.31 11:1 12:0.46 13:0.75 14:0.26 15:0.64 
-0 -0 -0 0 0 0 0 0 0.03808047889720921 2:1 3:0.1 4:0.86 5:0.14 6:0.67 7:0.32 8:0.5 9:0.71 10:0.51 11:0.82 12:0.37 13:0.89 14:0.18 15:1 
-0.5491469496835082 -0.326055626278023 -1.170356452722008 0.3687140475404689 0.5604039253537882 0.4162426860248727 0.6358684955647141 0.45273526181325 0.2945118422090358 2:1 3:0.21 4:0.73 5:0.5 6:0.52 7:0.84 8:0.67 9:1 10:1 11:0.89 12:0.69 13:0.88 14:0.35 15:0.86 
-0.104586023445146 -0 -0 0 0.02674196955007614 0.00675903123564054 0 0.08153005028456742 0 1:0.04 2:0.98 3:0.1 4:1 6:0.69 7:0.04 8:0.4 9:0.62 10:0.43 11:0.56 12:0.55 13:0.63 14:0.24 15:1 
-0.736086423364384 -0.4502796272346537 -0.7099927002888932 0.4536162446040956 1.170003167300101 0.5676326439193313 0.5972699636360754 0.4466759341288576 0.4247913523919762 1:0.22 2:1 4:0.54 5:0.18 6:0.1 7:1 8:0.14 9:0.94 10:0.56 11:0.63 12:1 13:0.59 14:0.5 15:0.6 
-0 -0 -0 2.374961298369493 0.5522124600017231 0 0 0 0 1:0.65 2:1 3:0.46 4:0.91 5:0.02 6:0.58 8:0.31 9:0.66 10:0.31 11:1 12:0.6 13:0.49 14:0.39 15:0.2 
-0.4929530971178802 -0.266749488367933 -0.4122166813518148 0.3284868086678001 0.1227886249596548 0.4015783229830716 0.02443608614340154 0.3325316401056252 0.2587873138660416 1:0.68 2:1 3:0.43 4:0.58 6:0.2 7:0.61 8:0.16 9:1 10:0.43 11:0.95 12:0.86 13:0.93 14:0.44 15:0.94 
-0 -0 -0.02814396624093713 0.7526219167759428 0 0 0.1492051169169474 0 0 1:0.2 2:0.67 3:0.45 4:1 5:0.17 6:0.73 8:0.38 9:0.62 10:0.24 11:1 12:0.42 13:0.78 14:0.32 15:0.5 
-0.1675739102990668 -0 -0 0.1030121130072977 1.075890915055789 0.1275271194926725 0 0 0 1:0.16 2:0.96 4:0.59 5:0.34 6:0.22 7:1 8:0.3 9:0.74 10:0.77 11:0.49 12:1 13:0.46 14:0.5 15:0.4 
-0.05605115360684453 -0.08848829184682018 -0.1261144674489375 0 0 0.08783973958008966 0.02290811342894683 0.06391335571541469 0.1372549056505721 1:0.6 2:1 3:0.46 4:0.57 6:0.23 7:0.27 8:0.14 9:1 10:0.14 11:0.98 12:0.57 13:0.8 14:0.43 15:0.82 
-0.06257760139969193 -0 -0.1997657081051213 0.3027434806583079 0 0 0 0.05462603916671588 0 1:0.61 2:1 3:0.29 4:0.76 5:0.04 6:0.52 8:0.28 9:0.46 10:0.08 11:1 12:0.29 13:0.71 14:0.23 15:0.82 
-0 -0 -0 1.819092497308787 0 0 0 0 0 1:0.92 2:1 3:0.5 4:0.79 5:0.2 6:0.56 8:0.34 9:0.56 10:0.22 11:1 12:0.41 13:0.66 14:0.23 15:0.5 
-0.03793849173695547 -0 -0 2.203706064348761 0.01225305342109042 0 0 0.03092291104647722 0 1:0.5 2:1 3:0.63 4:0.96 5:0.3 6:0.65 8:0.36 9:0.13 10:0.08 11:0.85 12:0.22 13:1 14:0.3 15:0.8 
-0.6258120955120501 -0.3490403906637263 -0.5400178857907145 0.4059079818299929 0.3751284656488419 0.3825281701493093 0.8249427976687344 0.4339346121239384 0.3238694979236033 1:0.93 2:1 3:0.6 4:0.9 6:0.55 7:0.82 8:0.5 9:1 10:0.78 11:0.9 12:0.86 13:0.8 14:0.41 15:0.71 
